{"learner":{"attributes":{"scikit_learn":"{\"_estimator_type\": \"classifier\"}"},"feature_names":["accountweeks","custservcalls","daymins","daycalls","monthlycharge","overagefee","roammins"],"feature_types":["int","int","float","int","float","float","float"],"gradient_booster":{"model":{"gbtree_model_param":{"num_parallel_tree":"1","num_trees":"100"},"iteration_indptr":[0,1,2,3,4,5,6,7,8,9,10,11,12,13,14,15,16,17,18,19,20,21,22,23,24,25,26,27,28,29,30,31,32,33,34,35,36,37,38,39,40,41,42,43,44,45,46,47,48,49,50,51,52,53,54,55,56,57,58,59,60,61,62,63,64,65,66,67,68,69,70,71,72,73,74,75,76,77,78,79,80,81,82,83,84,85,86,87,88,89,90,91,92,93,94,95,96,97,98,99,100],"tree_info":[0,0,0,0,0,0,0,0,0,0,0,0,0,0,0,0,0,0,0,0,0,0,0,0,0,0,0,0,0,0,0,0,0,0,0,0,0,0,0,0,0,0,0,0,0,0,0,0,0,0,0,0,0,0,0,0,0,0,0,0,0,0,0,0,0,0,0,0,0,0,0,0,0,0,0,0,0,0,0,0,0,0,0,0,0,0,0,0,0,0,0,0,0,0,0,0,0,0,0,0],"trees":[{"base_weights":[-2.8647748E-1,-4.886432E-1,2.4451885E0,-7.178921E-1,1.9506847E0,3.3513317E0,-6.2410146E-1,-8.8867843E-1,2.6375806E-1,1.2735667E0,3.817301E-1,-2.4709971E-1,3.8348434E0,-8.531744E-1,8.393444E-2,-9.862485E-1,-2.912324E-1,-3.441192E-1,2.220661E0,1.8839716E0,-4.0906984E-1,2.6553902E-1,1.2381427E0,-5.7340305E-2,-2.9254514E-1,-9.976355E-1,1.8300357E-1,-4.4369093E-1,4.7443792E-1,-4.8065853E-1,7.2058725E-1,3.0554078E0,-2.5978303E-1,5.7973985E-2,8.330172E-1,3.445183E-1,-7.1945465E-1,-5.7340305E-2,-3.0021346E-1,-1.8998975E-2,-2.0089786E-1,5.196931E-1,-8.002155E-2,-2.684232E-1,-1.1747044E-2,3.1837264E-1,-5.7340305E-2,2.3220986E-1,1.0813478E0,2.2520919E-1,-1.9861506E-1,-2.5541553E-1,8.393444E-2],"categories":[],"categories_nodes":[],"categories_segments":[],"categories_sizes":[],"default_left":[0,0,0,0,0,0,0,0,0,0,0,0,0,0,0,0,0,0,0,0,0,0,0,0,0,0,0,0,0,0,0,0,0,0,0,0,0,0,0,0,0,0,0,0,0,0,0,0,0,0,0,0,0],"id":0,"left_children":[1,3,5,7,9,11,13,15,17,-1,19,-1,21,23,-1,25,27,29,31,33,35,-1,-1,-1,-1,37,-1,39,41,43,45,47,-1,49,-1,-1,51,-1,-1,-1,-1,-1,-1,-1,-1,-1,-1,-1,-1,-1,-1,-1,-1],"loss_changes":[2.085389E2,1.9735724E2,7.451024E1,5.4058105E1,1.0771968E2,4.405745E1,1.6421452E0,1.5667206E1,5.8277367E1,0E0,2.3504728E1,0E0,1.2154785E1,2.702403E-1,0E0,4.877411E0,4.8613496E0,5.8349943E0,3.2516087E1,1.0888454E1,7.284009E0,0E0,0E0,0E0,0E0,3.8815308E-1,0E0,2.857758E0,7.080619E0,6.1924596E0,1.6599591E0,8.917633E0,0E0,2.1165514E0,0E0,0E0,1.7876897E0,0E0,0E0,0E0,0E0,0E0,0E0,0E0,0E0,0E0,0E0,0E0,0E0,0E0,0E0,0E0,0E0],"parents":[2147483647,0,0,1,1,2,2,3,3,4,4,5,5,6,6,7,7,8,8,10,10,12,12,13,13,15,15,16,16,17,17,18,18,19,19,20,20,25,25,27,27,28,28,29,29,30,30,31,31,33,33,36,36],"right_children":[2,4,6,8,10,12,14,16,18,-1,20,-1,22,24,-1,26,28,30,32,34,36,-1,-1,-1,-1,38,-1,40,42,44,46,48,-1,50,-1,-1,52,-1,-1,-1,-1,-1,-1,-1,-1,-1,-1,-1,-1,-1,-1,-1,-1],"split_conditions":[2.637E2,4E0,7.92E1,2.242E2,4.6E1,6.94E0,1.228E1,1.32E1,1.204E1,1.2735667E0,1.731E2,-2.4709971E-1,6.23E1,6.5E1,8.393444E-2,1.649E1,8.61E1,1.39E1,7.55E1,5.35E1,7.35E0,2.6553902E-1,1.2381427E0,-5.7340305E-2,-2.9254514E-1,5E0,1.8300357E-1,8.98E0,8.9E1,9.03E0,1.28E2,8.6E0,-2.5978303E-1,1.11E1,8.330172E-1,3.445183E-1,1.37E1,-5.7340305E-2,-3.0021346E-1,-1.8998975E-2,-2.0089786E-1,5.196931E-1,-8.002155E-2,-2.684232E-1,-1.1747044E-2,3.1837264E-1,-5.7340305E-2,2.3220986E-1,1.0813478E0,2.2520919E-1,-1.9861506E-1,-2.5541553E-1,8.393444E-2],"split_indices":[2,1,4,2,4,5,5,6,5,0,2,0,4,0,0,5,4,6,4,4,5,0,0,0,0,0,0,5,4,5,0,6,0,6,0,0,6,0,0,0,0,0,0,0,0,0,0,0,0,0,0,0,0],"split_type":[0,0,0,0,0,0,0,0,0,0,0,0,0,0,0,0,0,0,0,0,0,0,0,0,0,0,0,0,0,0,0,0,0,0,0,0,0,0,0,0,0,0,0,0,0,0,0,0,0,0,0,0,0],"sum_hessian":[3.7445377E2,3.4941528E2,2.5038486E1,3.200432E2,2.937207E1,1.9260374E1,5.7781124E0,2.726948E2,4.734842E1,1.1235218E1,1.8136852E1,1.9260374E0,1.7334337E1,4.6545906E0,1.1235218E0,2.3385304E2,3.8841755E1,3.6755215E1,1.0593205E1,5.7781124E0,1.235874E1,1.9260374E0,1.5408299E1,1.1235218E0,3.5310686E0,2.3256902E2,1.284025E0,3.2742638E1,6.0991187E0,3.3063644E1,3.6915717E0,8.346162E0,2.2470436E0,2.2470436E0,3.5310686E0,1.6050313E0,1.0753709E1,1.1235218E0,2.314455E2,1.2679747E1,2.006289E1,1.7655343E0,4.3335843E0,1.6531822E1,1.6531822E1,2.56805E0,1.1235218E0,2.0865405E0,6.2596216E0,1.1235218E0,1.1235218E0,9.630187E0,1.1235218E0],"tree_param":{"num_deleted":"0","num_feature":"7","num_nodes":"53","size_leaf_vector":"1"}},{"base_weights":[-2.6444787E-1,-4.6985692E-1,8.756236E-1,-6.805388E-1,1.073452E0,1.1852671E0,-6.732196E-1,-7.8942895E-1,-1.14913054E-1,1.8672862E0,2.2000931E-1,-5.3289855E-1,1.5648737E0,-8.364162E-1,9.416957E-2,-8.706283E-1,-1.6381301E-1,-2.9838955E-1,6.3637763E-1,5.883371E-1,6.347705E-2,1.5358468E0,-3.5140425E-1,-7.715798E-1,6.6160195E-2,7.656751E-1,1.7676371E0,-3.143301E-1,9.733851E-2,-8.830667E-1,1.4172256E-1,-5.331814E-1,1.4790698E0,1.1492631E-2,-6.9585544E-1,-2.4310624E-2,1.4320682E0,5.5747795E-1,1.7043546E-1,3.120204E-1,-6.2206364E-1,-8.515576E-1,-5.5689316E-2,-4.3474975E-1,1.2419574E0,7.655097E-1,1.8531746E0,-1.9495068E-1,-2.7356514E-1,2.0665077E-2,-2.0573673E-1,5.499388E-1,4.661143E-2,5.5479642E-2,-2.6528773E-1,-2.9193852E-2,-2.7780327E-1,1.4692052E-1,-2.3618722E-1,5.07345E-1,1.0619928E-1,4.067758E-1,-2.6350343E-1,-2.5325313E-1,1.2649225E-1,-4.5618176E-2,-2.920917E-1,8.78455E-2,-2.691367E-1,4.7579627E-2,4.2573297E-1,-9.543208E-2,3.78548E-1,1.6364363E-1,5.758894E-1],"categories":[],"categories_nodes":[],"categories_segments":[],"categories_sizes":[],"default_left":[0,0,0,0,0,0,0,0,0,0,0,0,0,0,0,0,0,0,0,0,0,0,0,0,0,0,0,0,0,0,0,0,0,0,0,0,0,0,0,0,0,0,0,0,0,0,0,0,0,0,0,0,0,0,0,0,0,0,0,0,0,0,0,0,0,0,0,0,0,0,0,0,0,0,0],"id":1,"left_children":[1,3,5,7,9,11,13,15,17,19,21,23,25,27,-1,29,31,33,35,-1,-1,37,39,41,-1,43,45,-1,-1,47,-1,49,51,53,55,57,59,-1,-1,61,63,65,-1,67,69,71,73,-1,-1,-1,-1,-1,-1,-1,-1,-1,-1,-1,-1,-1,-1,-1,-1,-1,-1,-1,-1,-1,-1,-1,-1,-1,-1,-1,-1],"loss_changes":[8.1973625E1,9.689812E1,2.6465935E1,1.5975441E1,2.3920757E1,3.0161892E1,1.8017874E0,1.0960709E1,6.1559095E0,2.4551697E0,1.44051485E1,1.7675674E0,4.6558E0,2.4186368E0,0E0,3.6451263E0,1.6773306E1,4.376321E0,4.668579E0,0E0,0E0,7.444649E-1,2.648929E0,1.6847086E-1,0E0,5.8391447E0,1.0513382E0,0E0,0E0,6.965637E-1,0E0,2.0907526E0,2.1054745E0,3.41263E0,2.0525408E0,2.6599882E0,5.228605E-1,0E0,0E0,6.9409685E0,2.6843233E0,3.5172462E-1,0E0,1.3975697E0,1.0982199E0,2.536464E0,1.1989212E0,0E0,0E0,0E0,0E0,0E0,0E0,0E0,0E0,0E0,0E0,0E0,0E0,0E0,0E0,0E0,0E0,0E0,0E0,0E0,0E0,0E0,0E0,0E0,0E0,0E0,0E0,0E0,0E0],"parents":[2147483647,0,0,1,1,2,2,3,3,4,4,5,5,6,6,7,7,8,8,9,9,10,10,11,11,12,12,13,13,15,15,16,16,17,17,18,18,21,21,22,22,23,23,25,25,26,26,29,29,31,31,32,32,33,33,34,34,35,35,36,36,39,39,40,40,41,41,43,43,44,44,45,45,46,46],"right_children":[2,4,6,8,10,12,14,16,18,20,22,24,26,28,-1,30,32,34,36,-1,-1,38,40,42,-1,44,46,-1,-1,48,-1,50,52,54,56,58,60,-1,-1,62,64,66,-1,68,70,72,74,-1,-1,-1,-1,-1,-1,-1,-1,-1,-1,-1,-1,-1,-1,-1,-1,-1,-1,-1,-1,-1,-1,-1,-1,-1,-1,-1,-1],"split_conditions":[2.45E2,4E0,7.92E1,1.32E1,1.601E2,6.1E1,1.267E1,2.232E2,2.161E2,1.324E1,7.76E0,1.18E2,9.16E0,1.31E1,9.416957E-2,1.649E1,1.339E1,1.46E1,1.086E1,5.883371E-1,6.347705E-2,1.1E1,1.731E2,8.94E0,6.6160195E-2,2.766E2,6.1E0,-3.143301E-1,9.733851E-2,3.8E1,1.4172256E-1,2.272E2,6.75E1,2.045E2,8.98E0,2E0,9.32E1,5.5747795E-1,1.7043546E-1,1.057E1,1.37E1,8.6E1,-5.5689316E-2,6.16E1,7.4E0,8.8E1,2.472E2,-1.9495068E-1,-2.7356514E-1,2.0665077E-2,-2.0573673E-1,5.499388E-1,4.661143E-2,5.5479642E-2,-2.6528773E-1,-2.9193852E-2,-2.7780327E-1,1.4692052E-1,-2.3618722E-1,5.07345E-1,1.0619928E-1,4.067758E-1,-2.6350343E-1,-2.5325313E-1,1.2649225E-1,-4.5618176E-2,-2.920917E-1,8.78455E-2,-2.691367E-1,4.7579627E-2,4.2573297E-1,-9.543208E-2,3.78548E-1,1.6364363E-1,5.758894E-1],"split_indices":[2,1,4,6,2,4,5,2,2,5,5,3,5,6,0,5,5,6,5,0,0,6,2,5,0,2,6,0,0,4,0,2,4,2,5,1,4,0,0,5,6,3,0,4,6,3,2,0,0,0,0,0,0,0,0,0,0,0,0,0,0,0,0,0,0,0,0,0,0,0,0,0,0,0,0],"split_type":[0,0,0,0,0,0,0,0,0,0,0,0,0,0,0,0,0,0,0,0,0,0,0,0,0,0,0,0,0,0,0,0,0,0,0,0,0,0,0,0,0,0,0,0,0,0,0,0,0,0,0,0,0,0,0,0,0,0,0,0,0,0,0,0,0,0,0,0,0,0,0,0,0,0,0],"sum_hessian":[3.472871E2,2.9476633E2,5.252079E1,2.5985214E2,3.491418E1,4.39659E1,8.554887E0,2.1757123E2,4.2280907E1,1.7473326E1,1.7440853E1,7.882865E0,3.608304E1,7.472204E0,1.0826828E0,1.9222987E2,2.5341345E1,3.44665E1,7.814408E0,1.6361557E1,1.111769E0,4.7696395E0,1.2671214E1,5.9681253E0,1.9147394E0,8.268537E0,2.78145E1,6.4037633E0,1.0684409E0,1.9080524E2,1.4246451E0,2.1241165E1,4.1001797E0,1.9912731E1,1.455377E1,4.7990475E0,3.0153604E0,2.887424E0,1.8822153E0,3.6273203E0,9.043894E0,4.852497E0,1.1156282E0,2.3735154E0,5.895021E0,2.969877E0,2.4844624E1,2.3572353E1,1.6723288E2,4.4062653E0,1.68349E1,2.9312751E0,1.1689042E0,1.7347507E1,2.5652246E0,4.4371986E0,1.0116571E1,3.0812397E0,1.7178075E0,1.9726189E0,1.0427414E0,1.8584561E0,1.7688643E0,7.6145864E0,1.4293075E0,1.0547274E0,3.7977698E0,1.0647613E0,1.3087541E0,1.0948478E0,4.8001733E0,1.0457466E0,1.9241303E0,1.6468546E0,2.319777E1],"tree_param":{"num_deleted":"0","num_feature":"7","num_nodes":"75","size_leaf_vector":"1"}},{"base_weights":[-2.205263E-1,-4.1805917E-1,5.213057E-1,-6.096876E-1,8.067909E-1,7.6047945E-1,-7.228924E-1,-7.0677716E-1,-1.5588534E-1,1.2319514E0,-8.516916E-2,-4.1829145E-1,1.1411238E0,-9.864088E-3,-8.494528E-1,-7.640776E-1,-6.929804E-2,-3.2481927E-1,3.7432307E-1,4.677079E-1,5.234326E-1,9.631163E-1,-7.011783E-1,2.0246577E-1,-6.2581724E-1,6.149134E-1,1.3657019E0,-3.0621278E-1,-1.7865734E-2,-7.773347E-1,1.1090977E-1,-4.370041E-1,3.3940595E-1,-4.1245E-1,2.262258E-1,8.777919E-1,-3.3898568E-1,1.2295648E0,-7.7799726E-1,3.7966716E-1,4.283498E-2,-2.9821873E-1,9.9973455E-2,-9.050815E-1,-1.5724953E-1,-1.7286952E-1,1.1011779E0,7.029565E-1,1.4813704E0,-1.6270135E-1,-2.4248318E-1,1.4226969E-1,-1.9919933E-1,-4.064638E-2,-1.9996238E-1,-2.0158899E-1,3.9986512E-1,-1.9045852E-1,1.0941944E-1,9.871399E-2,4.0941107E-1,-5.9465427E-2,-2.8218424E-1,-3.023132E-1,-4.3479264E-2,-1.9770914E-1,1.9020641E-1,-1.4871004E-1,2.1955733E-1,3.0100515E-2,3.6787012E-1,-8.234198E-2,3.5861543E-1,1.810193E-1,4.6438548E-1],"categories":[],"categories_nodes":[],"categories_segments":[],"categories_sizes":[],"default_left":[0,0,0,0,0,0,0,0,0,0,0,0,0,0,0,0,0,0,0,0,0,0,0,0,0,0,0,0,0,0,0,0,0,0,0,0,0,0,0,0,0,0,0,0,0,0,0,0,0,0,0,0,0,0,0,0,0,0,0,0,0,0,0,0,0,0,0,0,0,0,0,0,0,0,0],"id":2,"left_children":[1,3,5,7,9,11,13,15,17,19,21,23,25,-1,27,29,31,33,35,-1,37,39,41,-1,43,45,47,-1,-1,49,-1,51,-1,53,-1,55,57,59,61,-1,-1,-1,-1,63,65,67,69,71,73,-1,-1,-1,-1,-1,-1,-1,-1,-1,-1,-1,-1,-1,-1,-1,-1,-1,-1,-1,-1,-1,-1,-1,-1,-1,-1],"loss_changes":[4.563365E1,5.807021E1,2.007627E1,9.260971E0,1.2853479E1,2.5391048E1,9.4077253E-1,6.336685E0,3.5940566E0,4.4746437E0,8.28671E0,3.6631174E0,4.151943E0,0E0,1.2017617E0,2.698265E0,7.3490677E0,3.1413283E0,3.8285673E0,0E0,8.966488E0,1.0062199E0,2.755857E0,0E0,1.496603E0,5.7272644E0,1.1653633E0,0E0,0E0,7.168274E-1,0E0,2.9226832E0,0E0,1.9036307E0,0E0,5.1572914E0,1.2288276E0,2.857237E-1,1.6034222E-1,0E0,0E0,0E0,0E0,4.497714E-1,2.7554166E0,2.2264915E0,1.012557E0,3.3028748E0,4.4586563E-1,0E0,0E0,0E0,0E0,0E0,0E0,0E0,0E0,0E0,0E0,0E0,0E0,0E0,0E0,0E0,0E0,0E0,0E0,0E0,0E0,0E0,0E0,0E0,0E0,0E0,0E0],"parents":[2147483647,0,0,1,1,2,2,3,3,4,4,5,5,6,6,7,7,8,8,9,9,10,10,11,11,12,12,14,14,15,15,16,16,17,17,18,18,20,20,21,21,22,22,24,24,25,25,26,26,29,29,31,31,33,33,35,35,36,36,37,37,38,38,43,43,44,44,45,45,46,46,47,47,48,48],"right_children":[2,4,6,8,10,12,14,16,18,20,22,24,26,-1,28,30,32,34,36,-1,38,40,42,-1,44,46,48,-1,-1,50,-1,52,-1,54,-1,56,58,60,62,-1,-1,-1,-1,64,66,68,70,72,74,-1,-1,-1,-1,-1,-1,-1,-1,-1,-1,-1,-1,-1,-1,-1,-1,-1,-1,-1,-1,-1,-1,-1,-1,-1,-1],"split_conditions":[2.348E2,4E0,7.92E1,1.32E1,1.731E2,6.07E1,8.3E0,2.232E2,8.08E1,1.058E1,7.44E0,2.376E2,1.023E1,-9.864088E-3,1.33E1,1.649E1,1.339E1,1.73E1,1.45E1,4.677079E-1,1.454E2,1.1E1,1.37E1,2.0246577E-1,1.1E1,2.766E2,1E0,-3.0621278E-1,-1.7865734E-2,3.8E1,1.1090977E-1,8.2E1,3.3940595E-1,1.42E1,2.262258E-1,7.8E1,1.258E1,7.6E1,1.159E1,3.7966716E-1,4.283498E-2,-2.9821873E-1,9.9973455E-2,2.637E2,8.57E0,1.24E1,7.6E0,6.51E1,7.2E1,-1.6270135E-1,-2.4248318E-1,1.4226969E-1,-1.9919933E-1,-4.064638E-2,-1.9996238E-1,-2.0158899E-1,3.9986512E-1,-1.9045852E-1,1.0941944E-1,9.871399E-2,4.0941107E-1,-5.9465427E-2,-2.8218424E-1,-3.023132E-1,-4.3479264E-2,-1.9770914E-1,1.9020641E-1,-1.4871004E-1,2.1955733E-1,3.0100515E-2,3.6787012E-1,-8.234198E-2,3.5861543E-1,1.810193E-1,4.6438548E-1],"split_indices":[2,1,4,6,2,4,6,2,4,5,5,2,5,0,6,5,5,6,6,0,2,6,6,0,6,2,1,0,0,4,0,3,0,6,0,3,5,0,5,0,0,0,0,2,5,6,5,4,3,0,0,0,0,0,0,0,0,0,0,0,0,0,0,0,0,0,0,0,0,0,0,0,0,0,0],"split_type":[0,0,0,0,0,0,0,0,0,0,0,0,0,0,0,0,0,0,0,0,0,0,0,0,0,0,0,0,0,0,0,0,0,0,0,0,0,0,0,0,0,0,0,0,0,0,0,0,0,0,0,0,0,0,0,0,0,0,0,0,0,0,0,0,0,0,0,0,0,0,0,0,0,0,0],"sum_hessian":[3.0892828E2,2.4431046E2,6.4617836E1,2.1169318E2,3.2617275E1,5.4525173E1,1.0092664E1,1.7392503E2,3.7768143E1,2.1830435E1,1.0786841E1,1.3285141E1,4.1240032E1,1.7595156E0,8.333148E0,1.5939873E2,1.4526315E1,2.893599E1,8.832152E0,1.4114385E1,7.716051E0,3.7839968E0,7.0028443E0,1.7603165E0,1.1524825E1,1.3453991E1,2.7786041E1,6.608232E0,1.7249162E0,1.5786719E2,1.5315335E0,1.1607486E1,2.9188292E0,2.7333616E1,1.6023735E0,5.0424733E0,3.789679E0,5.037834E0,2.6782174E0,2.3681645E0,1.4158322E0,5.488002E0,1.5148423E0,6.6373825E0,4.887442E0,5.380957E0,8.073034E0,5.180526E0,2.2605515E1,2.0523834E1,1.3734335E2,2.0976317E0,9.509854E0,1.3811818E1,1.3521798E1,1.0364467E0,4.0060263E0,2.7368312E0,1.052848E0,1.1055703E0,3.9322636E0,1.0726867E0,1.6055306E0,5.560921E0,1.0764616E0,3.0930943E0,1.7943479E0,4.299044E0,1.0819129E0,1.0968751E0,6.976159E0,1.88385E0,3.2966757E0,2.3027601E0,2.0302755E1],"tree_param":{"num_deleted":"0","num_feature":"7","num_nodes":"75","size_leaf_vector":"1"}},{"base_weights":[-1.8103166E-1,-2.8998137E-1,7.228286E-1,-4.2691493E-1,6.1690223E-1,9.052351E-1,-3.4852082E-1,-5.811432E-1,2.6567407E-2,1.1426108E0,9.015492E-2,-2.1096523E-1,1.031331E0,-6.076742E-1,9.51007E-2,-6.719805E-1,-1.7581606E-1,-1.5316409E-1,1.0050817E0,3.9989883E-1,4.6406648E-1,7.9869443E-1,-2.7674577E-1,5.3198016E-1,1.2562369E0,-2.2498865E-1,-3.0135492E-2,-6.8742585E-1,1.295961E-1,3.0914819E-2,-5.766341E-1,-2.3664078E-1,3.112463E-1,4.096919E-1,-2.0201105E-1,3.1873935E-1,-1.799027E-1,3.2183236E-1,4.0218048E-2,-5.8642244E-1,1.7482637E-1,8.0473226E-1,-1.5721299E-1,1.3050075E0,1.4022605E-1,-1.2178973E-1,-2.1925427E-1,-1.17377006E-1,1.1248012E-1,1.9324014E-2,-2.5628686E-1,-1.5035659E-1,-9.177217E-3,1.1371535E-2,-2.7943295E-1,2.503972E-1,-2.298276E-1,-1.2332287E-1,3.5174286E-1,1.0004213E-1,4.0846875E-1],"categories":[],"categories_nodes":[],"categories_segments":[],"categories_sizes":[],"default_left":[0,0,0,0,0,0,0,0,0,0,0,0,0,0,0,0,0,0,0,0,0,0,0,0,0,0,0,0,0,0,0,0,0,0,0,0,0,0,0,0,0,0,0,0,0,0,0,0,0,0,0,0,0,0,0,0,0,0,0,0,0],"id":3,"left_children":[1,3,5,7,9,11,13,15,17,19,21,-1,23,25,-1,27,29,31,33,-1,35,37,39,41,43,-1,-1,45,-1,47,49,51,-1,-1,-1,-1,-1,-1,-1,53,55,57,-1,59,-1,-1,-1,-1,-1,-1,-1,-1,-1,-1,-1,-1,-1,-1,-1,-1,-1],"loss_changes":[2.7249454E1,3.0782673E1,6.143715E0,1.4990379E1,8.938079E0,5.950453E0,1.0655246E0,5.7661324E0,9.8786335E0,1.4813099E0,4.7428904E0,0E0,2.0602493E0,2.1230114E-1,0E0,2.5170822E0,2.5545068E0,4.9747834E0,6.1922894E0,0E0,3.8806984E0,9.840629E-1,1.8089494E0,3.094385E0,6.177902E-3,0E0,0E0,1.2773399E0,0E0,3.217798E0,1.9181862E0,2.452832E0,0E0,0E0,0E0,0E0,0E0,0E0,0E0,1.6440065E0,4.19959E0,3.9554381E0,0E0,3.4407043E-1,0E0,0E0,0E0,0E0,0E0,0E0,0E0,0E0,0E0,0E0,0E0,0E0,0E0,0E0,0E0,0E0,0E0],"parents":[2147483647,0,0,1,1,2,2,3,3,4,4,5,5,6,6,7,7,8,8,9,9,10,10,12,12,13,13,15,15,16,16,17,17,18,18,20,20,21,21,22,22,23,23,24,24,27,27,29,29,30,30,31,31,39,39,40,40,41,41,43,43],"right_children":[2,4,6,8,10,12,14,16,18,20,22,-1,24,26,-1,28,30,32,34,-1,36,38,40,42,44,-1,-1,46,-1,48,50,52,-1,-1,-1,-1,-1,-1,-1,54,56,58,-1,60,-1,-1,-1,-1,-1,-1,-1,-1,-1,-1,-1,-1,-1,-1,-1,-1,-1],"split_conditions":[2.637E2,4E0,7.92E1,2.168E2,1.601E2,6.94E0,1.228E1,1.33E1,1.335E1,1.167E1,7.76E0,-2.1096523E-1,6.6E1,1.07E2,9.51007E-2,1.649E1,1.48E1,1.53E1,7.55E1,3.9989883E-1,1.366E2,1.98E2,6.1E1,1.2E2,1.55E2,-2.2498865E-1,-3.0135492E-2,3.8E1,1.295961E-1,1.557E2,8.98E0,6E1,3.112463E-1,4.096919E-1,-2.0201105E-1,3.1873935E-1,-1.799027E-1,3.2183236E-1,4.0218048E-2,4.93E1,7.21E1,8.3E1,-1.5721299E-1,7.2E1,1.4022605E-1,-1.2178973E-1,-2.1925427E-1,-1.17377006E-1,1.1248012E-1,1.9324014E-2,-2.5628686E-1,-1.5035659E-1,-9.177217E-3,1.1371535E-2,-2.7943295E-1,2.503972E-1,-2.298276E-1,-1.2332287E-1,3.5174286E-1,1.0004213E-1,4.0846875E-1],"split_indices":[2,1,4,2,2,5,5,6,5,5,5,0,4,3,0,5,6,6,4,0,2,2,4,3,0,0,0,4,0,2,5,4,0,0,0,0,0,0,0,4,4,3,0,3,0,0,0,0,0,0,0,0,0,0,0,0,0,0,0,0,0],"split_type":[0,0,0,0,0,0,0,0,0,0,0,0,0,0,0,0,0,0,0,0,0,0,0,0,0,0,0,0,0,0,0,0,0,0,0,0,0,0,0,0,0,0,0,0,0,0,0,0,0,0,0,0,0,0,0,0,0,0,0,0,0],"sum_hessian":[2.7358505E2,2.4476115E2,2.88239E1,2.131119E2,3.1649267E1,2.476286E1,4.0610404E0,1.5881708E2,5.429482E1,1.5255084E1,1.6394184E1,1.4674554E0,2.3295404E1,2.985439E0,1.0756013E0,1.2920357E2,2.9613504E1,4.6582172E1,7.712645E0,1.1159475E1,4.095608E0,5.191589E0,1.1202595E1,8.279053E0,1.5016352E1,1.9576932E0,1.0277457E0,1.2779296E2,1.4106058E0,2.0145754E1,9.4677515E0,4.427902E1,2.3031547E0,6.5022326E0,1.2104125E0,2.6218903E0,1.473718E0,3.240994E0,1.950595E0,6.468226E0,4.7343683E0,6.768761E0,1.5102915E0,1.3525704E1,1.4906476E0,1.8463264E1,1.093297E2,8.983775E0,1.1161979E1,3.0935078E0,6.3742437E0,1.8760294E1,2.5518724E1,2.6190662E0,3.8491597E0,2.8492374E0,1.8851308E0,1.5445263E0,5.2242346E0,1.1234188E0,1.2402286E1],"tree_param":{"num_deleted":"0","num_feature":"7","num_nodes":"61","size_leaf_vector":"1"}},{"base_weights":[-1.454752E-1,-3.089133E-1,2.6794446E-1,-4.5709708E-1,5.611148E-1,4.1687253E-1,-5.4478776E-1,-5.554312E-1,-1.03567444E-1,9.915227E-1,5.4687086E-2,-1.0185668E-1,7.6414514E-1,-7.0799613E-1,4.9797207E-2,-6.1734504E-1,-2.4055383E-1,2.216044E-1,-3.5644487E-1,3.548701E-1,3.7793294E-1,4.288772E-1,-7.043566E-1,-7.291336E-1,2.1664512E-1,4.0964466E-1,9.726148E-1,-3.757379E-2,-8.4763324E-1,-2.1928917E-1,-6.568482E-1,-4.5553693E-1,8.7933373E-1,-3.2660517E-1,5.827908E-1,2.7841282E-1,-6.451525E-1,2.6739198E-1,-1.533143E-1,7.685993E-1,-4.7025874E-1,-2.532727E-1,-3.193418E-2,-2.3950146E-1,-8.6370236E-1,-3.950557E-1,6.133233E-1,-4.584597E-1,6.055173E-1,4.890976E-1,1.0805715E0,-2.3494836E-2,-2.872427E-1,5.5235523E-1,-2.2463927E-1,-2.1833329E-1,-1.0903477E-1,1.4209825E-1,-1.8326998E-1,5.538577E-1,-1.8981999E-1,-1.903397E-1,1.4504719E-1,2.9163682E-1,-2.7135571E-2,2.4854803E-1,-2.2591864E-1,-2.5070024E-1,5.232731E-2,-3.5805393E-2,2.868299E-1,-4.2437654E-2,-1.7513232E-1,9.699347E-2,-1.9149378E-1,-2.8784385E-1,-5.8547202E-2,-1.8764694E-1,6.081635E-2,5.237027E-1,2.6389955E-2,-2.1314734E-1,1.7032613E-3,2.0575471E-2,2.4615256E-1,2.6786596E-1,-1.8280742E-1,6.492315E-2,3.5770905E-1],"categories":[],"categories_nodes":[],"categories_segments":[],"categories_sizes":[],"default_left":[0,0,0,0,0,0,0,0,0,0,0,0,0,0,0,0,0,0,0,0,0,0,0,0,0,0,0,0,0,0,0,0,0,0,0,0,0,0,0,0,0,0,0,0,0,0,0,0,0,0,0,0,0,0,0,0,0,0,0,0,0,0,0,0,0,0,0,0,0,0,0,0,0,0,0,0,0,0,0,0,0,0,0,0,0,0,0,0,0],"id":4,"left_children":[1,3,5,7,9,11,13,15,17,19,21,23,25,27,-1,29,31,33,35,-1,37,39,41,43,45,47,49,-1,51,53,55,57,59,61,63,65,67,-1,-1,69,71,-1,-1,73,75,77,79,81,83,85,87,-1,-1,-1,-1,-1,-1,-1,-1,-1,-1,-1,-1,-1,-1,-1,-1,-1,-1,-1,-1,-1,-1,-1,-1,-1,-1,-1,-1,-1,-1,-1,-1,-1,-1,-1,-1,-1,-1],"loss_changes":[1.666558E1,2.2992554E1,8.708246E0,5.2001286E0,5.6378765E0,1.0847492E1,1.4266224E0,2.1538239E0,2.8864E0,1.2037582E0,4.0103064E0,5.124013E0,2.2567692E0,6.561003E-1,0E0,1.3977928E0,5.467043E0,3.269812E0,3.770072E0,0E0,2.6514935E0,3.222476E0,3.023553E-1,3.5977364E-1,4.429611E0,2.8336182E0,6.144581E-1,0E0,5.4893494E-1,1.2674689E1,1.5813751E0,2.9331515E0,6.621853E0,2.0071025E0,2.6395087E0,4.494741E0,2.2953587E0,0E0,0E0,1.3091073E0,3.6441863E-2,0E0,0E0,9.330908E-1,2.2012424E-1,1.1456826E0,6.3069377E0,3.9431918E-1,1.4092517E0,3.127048E0,1.391304E0,0E0,0E0,0E0,0E0,0E0,0E0,0E0,0E0,0E0,0E0,0E0,0E0,0E0,0E0,0E0,0E0,0E0,0E0,0E0,0E0,0E0,0E0,0E0,0E0,0E0,0E0,0E0,0E0,0E0,0E0,0E0,0E0,0E0,0E0,0E0,0E0,0E0,0E0],"parents":[2147483647,0,0,1,1,2,2,3,3,4,4,5,5,6,6,7,7,8,8,9,9,10,10,11,11,12,12,13,13,15,15,16,16,17,17,18,18,20,20,21,21,22,22,23,23,24,24,25,25,26,26,28,28,29,29,30,30,31,31,32,32,33,33,34,34,35,35,36,36,39,39,40,40,43,43,44,44,45,45,46,46,47,47,48,48,49,49,50,50],"right_children":[2,4,6,8,10,12,14,16,18,20,22,24,26,28,-1,30,32,34,36,-1,38,40,42,44,46,48,50,-1,52,54,56,58,60,62,64,66,68,-1,-1,70,72,-1,-1,74,76,78,80,82,84,86,88,-1,-1,-1,-1,-1,-1,-1,-1,-1,-1,-1,-1,-1,-1,-1,-1,-1,-1,-1,-1,-1,-1,-1,-1,-1,-1,-1,-1,-1,-1,-1,-1,-1,-1,-1,-1,-1,-1],"split_conditions":[2.252E2,4E0,7.92E1,1.32E1,1.601E2,6.2E1,1.38E1,1.246E1,9.5E1,1.167E1,1.057E1,9.6E0,9.7E1,8.3E0,4.9797207E-2,7.4E1,2.084E2,8.2E1,8.1E1,3.548701E-1,1.366E2,1.98E2,1.1E2,7.91E0,8.46E0,7.7E0,7.1E1,-3.757379E-2,8.37E1,7.21E0,1.19E2,9.2E1,6.64E1,1.57E1,1.44E1,1.46E1,8.53E1,2.6739198E-1,-1.533143E-1,6E1,7.17E0,-2.532727E-1,-3.193418E-2,2.376E2,1.126E1,1.16E2,1E0,2.618E2,6.48E1,6.6E1,8.98E0,-2.3494836E-2,-2.872427E-1,5.5235523E-1,-2.2463927E-1,-2.1833329E-1,-1.0903477E-1,1.4209825E-1,-1.8326998E-1,5.538577E-1,-1.8981999E-1,-1.903397E-1,1.4504719E-1,2.9163682E-1,-2.7135571E-2,2.4854803E-1,-2.2591864E-1,-2.5070024E-1,5.232731E-2,-3.5805393E-2,2.868299E-1,-4.2437654E-2,-1.7513232E-1,9.699347E-2,-1.9149378E-1,-2.8784385E-1,-5.8547202E-2,-1.8764694E-1,6.081635E-2,5.237027E-1,2.6389955E-2,-2.1314734E-1,1.7032613E-3,2.0575471E-2,2.4615256E-1,2.6786596E-1,-1.8280742E-1,6.492315E-2,3.5770905E-1],"split_indices":[2,1,4,6,2,4,6,5,3,5,5,6,3,6,0,3,2,3,0,0,2,2,0,5,5,6,0,0,4,5,3,2,4,6,6,6,4,0,0,0,5,0,0,2,5,3,1,2,4,0,5,0,0,0,0,0,0,0,0,0,0,0,0,0,0,0,0,0,0,0,0,0,0,0,0,0,0,0,0,0,0,0,0,0,0,0,0,0,0],"split_type":[0,0,0,0,0,0,0,0,0,0,0,0,0,0,0,0,0,0,0,0,0,0,0,0,0,0,0,0,0,0,0,0,0,0,0,0,0,0,0,0,0,0,0,0,0,0,0,0,0,0,0,0,0,0,0,0,0,0,0,0,0,0,0,0,0,0,0,0,0,0,0,0,0,0,0,0,0,0,0,0,0,0,0,0,0,0,0,0,0],"sum_hessian":[2.4442209E2,1.7535242E2,6.906967E1,1.5023834E2,2.5114084E1,5.8784798E1,1.0284873E1,1.1709682E2,3.314152E1,1.3058185E1,1.2055901E1,2.3856491E1,3.4928307E1,8.367459E0,1.9174144E0,9.705288E1,2.0043938E1,1.455242E1,1.8589104E1,9.24641E0,3.8117743E0,8.36643E0,3.6894698E0,7.5997725E0,1.6256718E1,1.403202E1,2.0896286E1,1.9841033E0,6.3833556E0,9.353459E0,8.769942E1,1.7313519E1,2.73042E0,5.8178368E0,8.734583E0,5.8221235E0,1.2766979E1,2.4147022E0,1.3970722E0,6.17754E0,2.1888902E0,2.6560705E0,1.0333993E0,2.23768E0,5.3620925E0,6.3967094E0,9.860009E0,2.336424E0,1.1695596E1,4.823457E0,1.607283E1,1.0115592E0,5.3717966E0,1.4058243E0,7.947635E0,6.943336E1,1.826606E1,2.1866746E0,1.5126843E1,1.5306846E0,1.1997354E0,4.3728323E0,1.4450045E0,5.2529154E0,3.481668E0,3.9254744E0,1.896649E0,1.0343051E1,2.4239283E0,1.1403955E0,5.037144E0,1.1382098E0,1.0506805E0,1.006538E0,1.231142E0,4.3095255E0,1.0525666E0,4.583485E0,1.8132247E0,2.3886604E0,7.4713483E0,1.1702099E0,1.1662143E0,3.7211585E0,7.974437E0,3.663799E0,1.1596577E0,2.1773753E0,1.3895454E1],"tree_param":{"num_deleted":"0","num_feature":"7","num_nodes":"89","size_leaf_vector":"1"}},{"base_weights":[-1.20107934E-1,-1.957307E-1,5.072109E-1,-2.8878373E-1,4.2267308E-1,-1.9420716E-1,6.01481E-1,-4.0202785E-1,-6.448913E-3,3.1949732E-1,1.3556845E-1,7.488235E-1,-2.0354256E-1,-4.7450492E-1,-7.380463E-2,-1.6001725E-1,5.0495E-1,-1.3387963E-1,4.7717673E-1,3.226287E-1,9.899718E-1,-4.7668326E-1,9.872976E-2,-6.6651094E-1,-3.4477088E-1,7.607775E-1,-2.0893298E-1,-4.8139685E-1,3.9651155E-2,7.0206594E-1,-1.2032107E-1,1.8135649E-1,-3.2210287E-1,7.900117E-1,-2.0158054E-1,-1.814657E-1,2.6477623E-1,1.049633E0,7.3887415E-2,-2.2565702E-2,-1.8651986E-1,1.0191041E-1,-2.170721E-1,4.97872E-3,-1.3883433E-1,-8.116724E-2,4.519203E-1,6.4386494E-2,-1.4798929E-1,-2.284351E-1,-4.3039028E-2,-3.6276527E-2,1.8982863E-1,-6.0811777E-2,2.5739646E-1,1.9053547E-2,-2.7603433E-1,2.6289758E-1,4.3221094E-2,6.8592414E-2,-2.7155706E-1,9.318995E-2,3.3495596E-1],"categories":[],"categories_nodes":[],"categories_segments":[],"categories_sizes":[],"default_left":[0,0,0,0,0,0,0,0,0,0,0,0,0,0,0,0,0,0,0,0,0,0,0,0,0,0,0,0,0,0,0,0,0,0,0,0,0,0,0,0,0,0,0,0,0,0,0,0,0,0,0,0,0,0,0,0,0,0,0,0,0,0,0],"id":5,"left_children":[1,3,5,7,9,-1,11,13,15,-1,17,19,21,23,25,27,29,31,33,35,37,39,-1,41,43,45,47,49,51,53,-1,-1,55,57,-1,59,-1,61,-1,-1,-1,-1,-1,-1,-1,-1,-1,-1,-1,-1,-1,-1,-1,-1,-1,-1,-1,-1,-1,-1,-1,-1,-1],"loss_changes":[1.0613028E1,1.1544794E1,3.0147166E0,5.532998E0,4.718313E0,0E0,2.859006E0,2.904169E0,4.053108E0,0E0,1.8467185E0,1.6849327E0,7.84876E-1,2.2866364E0,2.8128104E0,2.5639534E0,2.4106884E0,1.8081955E0,3.679885E0,2.568099E0,2.7263737E-1,1.4317429E-1,0E0,2.5231476E0,2.6669722E0,3.0949101E0,2.6397161E0,1.3362327E0,2.4941292E0,1.6065307E0,0E0,0E0,2.3421664E0,2.8326082E-1,0E0,1.7855703E0,0E0,1.8580532E-1,0E0,0E0,0E0,0E0,0E0,0E0,0E0,0E0,0E0,0E0,0E0,0E0,0E0,0E0,0E0,0E0,0E0,0E0,0E0,0E0,0E0,0E0,0E0,0E0,0E0],"parents":[2147483647,0,0,1,1,2,2,3,3,4,4,6,6,7,7,8,8,10,10,11,11,12,12,13,13,14,14,15,15,16,16,17,17,18,18,19,19,20,20,21,21,23,23,24,24,25,25,26,26,27,27,28,28,29,29,32,32,33,33,35,35,37,37],"right_children":[2,4,6,8,10,-1,12,14,16,-1,18,20,22,24,26,28,30,32,34,36,38,40,-1,42,44,46,48,50,52,54,-1,-1,56,58,-1,60,-1,62,-1,-1,-1,-1,-1,-1,-1,-1,-1,-1,-1,-1,-1,-1,-1,-1,-1,-1,-1,-1,-1,-1,-1,-1,-1],"split_conditions":[2.637E2,4E0,7.44E0,2.168E2,4.3E1,-1.9420716E-1,7.92E1,1.35E1,1.244E1,3.1949732E-1,5.82E1,6.6E1,1.228E1,8.9E1,1.37E1,9.8E0,7.55E1,6.73E0,7.55E1,1.09E2,1.55E2,2.766E2,9.872976E-2,3.1E1,1.04E2,1.02E2,9.3E1,6.16E1,1.123E1,6.5E0,-1.2032107E-1,1.8135649E-1,1.862E2,2.363E2,-2.0158054E-1,9.9E1,2.6477623E-1,7.4E1,7.3887415E-2,-2.2565702E-2,-1.8651986E-1,1.0191041E-1,-2.170721E-1,4.97872E-3,-1.3883433E-1,-8.116724E-2,4.519203E-1,6.4386494E-2,-1.4798929E-1,-2.284351E-1,-4.3039028E-2,-3.6276527E-2,1.8982863E-1,-6.0811777E-2,2.5739646E-1,1.9053547E-2,-2.7603433E-1,2.6289758E-1,4.3221094E-2,6.8592414E-2,-2.7155706E-1,9.318995E-2,3.3495596E-1],"split_indices":[2,1,5,2,4,0,4,6,5,0,4,4,5,0,6,6,4,5,4,0,0,2,0,4,0,3,3,4,5,6,0,0,2,2,0,0,0,3,0,0,0,0,0,0,0,0,0,0,0,0,0,0,0,0,0,0,0,0,0,0,0,0,0],"split_type":[0,0,0,0,0,0,0,0,0,0,0,0,0,0,0,0,0,0,0,0,0,0,0,0,0,0,0,0,0,0,0,0,0,0,0,0,0,0,0,0,0,0,0,0,0,0,0,0,0,0,0,0,0,0,0,0,0,0,0,0,0,0,0],"sum_hessian":[2.2062398E2,1.9750313E2,2.3120852E1,1.7213455E2,2.5368574E1,1.3024248E0,2.1818426E1,1.2255426E2,4.958029E1,6.9995594E0,1.8369015E1,1.8501863E1,3.3165624E0,1.0002207E2,2.2532187E1,3.8658577E1,1.0921713E1,1.0609064E1,7.759951E0,7.530564E0,1.09713E1,2.2617743E0,1.0547881E0,3.8663174E1,6.1358902E1,2.4946501E0,2.0037537E1,1.427348E1,2.4385098E1,9.155032E0,1.766681E0,1.7057331E0,8.903332E0,6.345068E0,1.4148833E0,4.318673E0,3.2118902E0,9.775653E0,1.1956478E0,1.0033377E0,1.2584364E0,1.8091143E0,3.6854057E1,1.5316532E1,4.604237E1,1.3141195E0,1.1805305E0,8.147412E0,1.1890125E1,7.119843E0,7.153638E0,1.9816341E1,4.568755E0,1.3016847E0,7.853348E0,5.956322E0,2.947009E0,5.282529E0,1.0625389E0,3.1932545E0,1.1254188E0,1.2798108E0,8.495842E0],"tree_param":{"num_deleted":"0","num_feature":"7","num_nodes":"63","size_leaf_vector":"1"}},{"base_weights":[-9.3027726E-2,-1.3460979E-1,7.5741637E-1,-2.0209461E-1,3.2851815E-1,4.547816E-2,9.424509E-1,-3.593891E-1,-2.8451465E-2,2.9517314E-1,8.9606136E-2,-7.065111E-2,9.010914E-2,3.0815145E-1,6.744863E-2,-8.4391755E-1,-2.73263E-1,1.5307496E-1,-3.568604E-1,1.8130419E-1,-2.1885106E-1,-2.63247E-2,-9.04884E-1,-5.965127E-1,-1.1733429E-1,-1.3890692E-2,5.838073E-1,-6.911981E-1,1.3060631E-1,2.863831E-1,-1.9428675E-1,-2.9147762E-1,-2.9433625E-2,-8.533309E-2,-2.9780036E-1,1.6337773E-1,-9.733972E-2,5.7315532E-2,-8.575955E-2,-1.0260762E-1,2.1871124E-1,-2.5874454E-1,-5.1722262E-2,1.11165695E-1,-1.8747501E-1,-1.7258373E-1,1.1887659E-1],"categories":[],"categories_nodes":[],"categories_segments":[],"categories_sizes":[],"default_left":[0,0,0,0,0,0,0,0,0,0,0,0,0,0,0,0,0,0,0,0,0,0,0,0,0,0,0,0,0,0,0,0,0,0,0,0,0,0,0,0,0,0,0,0,0,0,0],"id":6,"left_children":[1,3,5,7,9,11,13,15,17,-1,19,-1,-1,-1,-1,21,23,25,27,29,-1,-1,31,33,35,37,39,41,43,45,-1,-1,-1,-1,-1,-1,-1,-1,-1,-1,-1,-1,-1,-1,-1,-1,-1],"loss_changes":[7.289918E0,6.149534E0,1.2251987E0,4.6466575E0,3.8475156E0,2.882E-1,2.304864E-1,3.499072E0,4.950469E0,0E0,1.5984608E0,0E0,0E0,0E0,0E0,5.203762E-1,3.8295212E0,3.862146E0,4.9038134E0,1.7843386E0,0E0,0E0,5.468359E-1,2.799737E0,7.5029273E0,2.2616768E0,2.265345E0,1.4221716E0,2.56231E0,1.8359166E0,0E0,0E0,0E0,0E0,0E0,0E0,0E0,0E0,0E0,0E0,0E0,0E0,0E0,0E0,0E0,0E0,0E0],"parents":[2147483647,0,0,1,1,2,2,3,3,4,4,5,5,6,6,7,7,8,8,10,10,15,15,16,16,17,17,18,18,19,19,22,22,23,23,24,24,25,25,26,26,27,27,28,28,29,29],"right_children":[2,4,6,8,10,12,14,16,18,-1,20,-1,-1,-1,-1,22,24,26,28,30,-1,-1,32,34,36,38,40,42,44,46,-1,-1,-1,-1,-1,-1,-1,-1,-1,-1,-1,-1,-1,-1,-1,-1,-1],"split_conditions":[2.844E2,4E0,8.35E0,5.7E1,4.3E1,6.41E1,7.71E1,7.4E0,7.4E1,2.9517314E-1,1.51E2,-7.065111E-2,9.010914E-2,3.0815145E-1,6.744863E-2,6.31E0,8.35E0,1.244E1,1.32E1,7.55E1,-2.1885106E-1,-2.63247E-2,1.369E1,7.21E0,9.28E0,1.054E1,1.905E2,1.27E2,1.4E2,5.3E1,-1.9428675E-1,-2.9147762E-1,-2.9433625E-2,-8.533309E-2,-2.9780036E-1,1.6337773E-1,-9.733972E-2,5.7315532E-2,-8.575955E-2,-1.0260762E-1,2.1871124E-1,-2.5874454E-1,-5.1722262E-2,1.11165695E-1,-1.8747501E-1,-1.7258373E-1,1.1887659E-1],"split_indices":[2,1,5,4,4,4,4,6,4,0,0,0,0,0,0,5,5,5,6,4,0,0,5,5,5,5,2,0,0,0,0,0,0,0,0,0,0,0,0,0,0,0,0,0,0,0,0],"split_type":[0,0,0,0,0,0,0,0,0,0,0,0,0,0,0,0,0,0,0,0,0,0,0,0,0,0,0,0,0,0,0,0,0,0,0,0,0,0,0,0,0,0,0,0,0,0,0],"sum_hessian":[2.0226096E2,1.9363498E2,8.625973E0,1.694999E2,2.4135094E1,2.0364225E0,6.5895505E0,8.8375404E1,8.112449E1,5.6146054E0,1.8520489E1,1.0047946E0,1.0316279E0,5.507943E0,1.0816073E0,1.2010132E1,7.636527E1,5.2589684E1,2.8534801E1,1.7356152E1,1.1643372E0,1.0780716E0,1.093206E1,2.3930452E1,5.2434826E1,3.859628E1,1.3993404E1,1.6677975E1,1.1856826E1,1.5984402E1,1.3717496E0,9.908481E0,1.0235796E0,1.4346827E1,9.583626E0,1.2109016E1,4.032581E1,2.2180227E1,1.6416054E1,1.71369E0,1.2279715E1,1.2040278E1,4.6376967E0,9.385601E0,2.471224E0,1.3286557E0,1.4655746E1],"tree_param":{"num_deleted":"0","num_feature":"7","num_nodes":"47","size_leaf_vector":"1"}},{"base_weights":[-7.8721076E-2,-1.12747915E-1,6.615083E-1,-1.3527757E-1,8.0730814E-1,3.8625352E-2,8.4750295E-1,-1.8695314E-1,2.1848838E-1,3.9882457E-1,1.6890684E-2,-5.840618E-2,7.63424E-2,2.8379056E-1,5.63977E-2,-4.5132178E-1,-1.1121027E-1,7.207117E-1,-1.052102E-1,7.204357E-1,-5.540577E-1,-1.9705038E-1,1.7443608E-1,2.9240268E-1,1.5120006E-1,6.547511E-1,-2.9092678E-1,2.636724E-1,7.349697E-2,-2.6458713E-1,-1.0151709E-1,4.7588415E-2,-9.639012E-2,9.168776E-2,-1.5665388E-1,2.1482836E-1,-1.107647E-1,4.094031E-2,2.5421888E-1,2.7774272E-2,-1.5667209E-1],"categories":[],"categories_nodes":[],"categories_segments":[],"categories_sizes":[],"default_left":[0,0,0,0,0,0,0,0,0,0,0,0,0,0,0,0,0,0,0,0,0,0,0,0,0,0,0,0,0,0,0,0,0,0,0,0,0,0,0,0,0],"id":7,"left_children":[1,3,5,7,9,11,13,15,17,-1,-1,-1,-1,-1,-1,19,21,23,25,27,29,31,33,-1,35,37,39,-1,-1,-1,-1,-1,-1,-1,-1,-1,-1,-1,-1,-1,-1],"loss_changes":[4.898946E0,3.9227138E0,9.5933986E-1,3.339345E0,1.705642E0,2.0146984E-1,2.4728441E-1,3.1130958E0,3.8893948E0,0E0,0E0,0E0,0E0,0E0,0E0,4.5949345E0,3.077797E0,1.2008038E0,2.3268757E0,2.9116392E-2,2.007618E0,4.2894917E0,2.8291712E0,0E0,1.4574561E0,2.1187878E-1,1.1888696E0,0E0,0E0,0E0,0E0,0E0,0E0,0E0,0E0,0E0,0E0,0E0,0E0,0E0,0E0],"parents":[2147483647,0,0,1,1,2,2,3,3,4,4,5,5,6,6,7,7,8,8,15,15,16,16,17,17,18,18,19,19,20,20,21,21,22,22,24,24,25,25,26,26],"right_children":[2,4,6,8,10,12,14,16,18,-1,-1,-1,-1,-1,-1,20,22,24,26,28,30,32,34,-1,36,38,40,-1,-1,-1,-1,-1,-1,-1,-1,-1,-1,-1,-1,-1,-1],"split_conditions":[2.844E2,1.67E1,8.35E0,4E0,9.4E1,1.01E2,7.71E1,8.32E0,1.601E2,3.9882457E-1,1.6890684E-2,-5.840618E-2,7.63424E-2,2.8379056E-1,5.63977E-2,7E1,2.348E2,1.167E1,6.73E0,4.41E1,9.1E1,9.6E0,7.89E1,2.9240268E-1,1.186E2,5E0,9.7E0,2.636724E-1,7.349697E-2,-2.6458713E-1,-1.0151709E-1,4.7588415E-2,-9.639012E-2,9.168776E-2,-1.5665388E-1,2.1482836E-1,-1.107647E-1,4.094031E-2,2.5421888E-1,2.7774272E-2,-1.5667209E-1],"split_indices":[2,6,5,1,0,3,4,5,2,0,0,0,0,0,0,3,2,5,5,4,0,5,4,0,2,1,6,0,0,0,0,0,0,0,0,0,0,0,0,0,0],"split_type":[0,0,0,0,0,0,0,0,0,0,0,0,0,0,0,0,0,0,0,0,0,0,0,0,0,0,0,0,0,0,0,0,0,0,0,0,0,0,0,0,0],"sum_hessian":[1.9053668E2,1.8297345E2,7.563231E0,1.794326E2,3.5408466E0,2.0167947E0,5.5464363E0,1.5697446E2,2.2458153E1,1.634409E0,1.9064376E0,1.0163056E0,1.0004891E0,4.4479976E0,1.0984389E0,3.3853943E1,1.23120514E2,8.321197E0,1.4136956E1,2.2442765E0,3.1609667E1,9.49093E1,2.821121E1,5.2628827E0,3.0583143E0,2.2803037E0,1.1856652E1,1.0467751E0,1.1975014E0,1.1315785E1,2.029388E1,2.4499702E1,7.04096E1,2.4212646E1,3.998564E0,1.2861909E0,1.7721235E0,1.0808432E0,1.1994606E0,4.6864624E0,7.1701903E0],"tree_param":{"num_deleted":"0","num_feature":"7","num_nodes":"41","size_leaf_vector":"1"}},{"base_weights":[-5.4156076E-2,-8.1685886E-2,5.780087E-1,-1.0801858E-1,5.576997E-1,-1.6877351E-2,7.498877E-1,-5.711514E-1,-7.1413405E-2,-5.573415E-2,8.7914324E-1,2.7476344E-1,-6.494408E-3,-8.243923E-1,-3.3389967E-2,-1.1345761E-1,2.3541155E-1,3.381281E-2,1.0665194E0,-2.769741E-1,-5.6313816E-2,1.5005796E-1,-3.9479455E-1,-7.339995E-1,-8.680791E-2,6.3695794E-1,-2.1861266E-1,3.6917254E-1,8.7609105E-2,-2.340304E-1,5.5580102E-2,-2.501368E-1,-6.9717005E-2,-4.6834618E-2,4.6091862E-2,2.6398703E-1,5.155603E-2,1.3213304E-1,-1.2365381E-1],"categories":[],"categories_nodes":[],"categories_segments":[],"categories_sizes":[],"default_left":[0,0,0,0,0,0,0,0,0,0,0,0,0,0,0,0,0,0,0,0,0,0,0,0,0,0,0,0,0,0,0,0,0,0,0,0,0,0,0],"id":8,"left_children":[1,3,5,7,9,-1,11,13,15,-1,17,-1,-1,19,21,23,25,-1,27,-1,-1,-1,29,31,33,35,37,-1,-1,-1,-1,-1,-1,-1,-1,-1,-1,-1,-1],"loss_changes":[3.2052426E0,3.0027018E0,8.812244E-1,2.8190086E0,1.8541868E0,0E0,8.0426836E-1,1.6357281E0,2.05818E0,0E0,6.1421704E-1,0E0,0E0,3.4663296E-1,1.1524804E0,2.2378101E0,3.6585052E0,0E0,1.4774942E-1,0E0,0E0,0E0,9.2933565E-1,8.637762E-2,2.2666614E0,1.0354042E0,1.4322809E0,0E0,0E0,0E0,0E0,0E0,0E0,0E0,0E0,0E0,0E0,0E0,0E0],"parents":[2147483647,0,0,1,1,2,2,3,3,4,4,6,6,7,7,8,8,10,10,13,13,14,14,15,15,16,16,18,18,22,22,23,23,24,24,25,25,26,26],"right_children":[2,4,6,8,10,-1,12,14,16,-1,18,-1,-1,20,22,24,26,-1,28,-1,-1,-1,30,32,34,36,38,-1,-1,-1,-1,-1,-1,-1,-1,-1,-1,-1,-1],"split_conditions":[2.844E2,1.5E1,6.5E1,6.2E0,8.9E1,-1.6877351E-2,7.83E1,6.3E1,4E0,-5.573415E-2,9.2E1,2.7476344E-1,-6.494408E-3,4E0,4.6E0,5.31E0,1.752E2,3.381281E-2,1.29E2,-2.769741E-1,-5.6313816E-2,1.5005796E-1,2E0,1.33E1,2.348E2,1.058E1,6.73E0,3.6917254E-1,8.7609105E-2,-2.340304E-1,5.5580102E-2,-2.501368E-1,-6.9717005E-2,-4.6834618E-2,4.6091862E-2,2.6398703E-1,5.155603E-2,1.3213304E-1,-1.2365381E-1],"split_indices":[2,5,4,6,3,0,4,4,1,0,0,0,0,1,6,5,2,0,0,0,0,0,1,6,2,5,5,0,0,0,0,0,0,0,0,0,0,0,0],"split_type":[0,0,0,0,0,0,0,0,0,0,0,0,0,0,0,0,0,0,0,0,0,0,0,0,0,0,0,0,0,0,0,0,0,0,0,0,0,0,0],"sum_hessian":[1.8046062E2,1.7376424E2,6.696384E0,1.6768912E2,6.0751104E0,1.5711665E0,5.1252174E0,1.1213361E1,1.5647575E2,1.9611434E0,4.113967E0,4.063829E0,1.0613883E0,7.2610183E0,3.952343E0,1.3817224E2,1.8303516E1,1.1228075E0,2.9911597E0,5.895544E0,1.3654742E0,1.4409207E0,2.5114224E0,4.596629E0,1.335756E2,9.499281E0,8.804235E0,1.982361E0,1.0087986E0,1.3018242E0,1.2095981E0,3.2815692E0,1.3150598E0,1.039604E2,2.9615206E1,5.6535625E0,3.8457184E0,1.7092319E0,7.095003E0],"tree_param":{"num_deleted":"0","num_feature":"7","num_nodes":"39","size_leaf_vector":"1"}},{"base_weights":[-3.8713828E-2,-1.0307171E-1,1.6832891E-1,-5.2057505E-2,-6.4521456E-1,3.841958E-1,-1.02353685E-1,-1.8905774E-1,1.5477395E-1,-1.401449E-1,-8.217674E-1,-1.3824838E-1,4.7354814E-1,-3.1904444E-1,6.337392E-1,-6.410272E-1,-1.0956247E-1,5.5061147E-2,1.0610965E0,1.2521E-1,-2.0009656E-1,-2.7143857E-1,-9.127698E-2,3.720142E-2,6.9315416E-1,-4.359537E-1,1.7536005E-1,-1.908797E-2,3.2432994E-1,6.268905E-2,-7.5562364E-1,-3.6175493E-2,-7.772915E-1,2.8122905E-1,-4.617324E-3,4.0384346E-1,5.9701566E-2,6.561214E-1,-6.613222E-1,1.4128895E0,3.1796256E-1,4.3942988E-2,-6.6720325E-1,-2.7161622E-1,-7.654324E-2,-2.6273437E-2,2.0317131E-1,-4.1537713E-2,-2.7020976E-1,-9.581837E-2,4.330312E-2,-7.6889455E-2,3.175493E-1,-2.5807364E-2,-2.4743193E-1,8.747071E-2,5.782082E-1,-1.425397E-1,2.4857813E-1,-1.7519113E-1,2.8658202E-1,3.0597877E-2,-2.480572E-1],"categories":[],"categories_nodes":[],"categories_segments":[],"categories_sizes":[],"default_left":[0,0,0,0,0,0,0,0,0,0,0,0,0,0,0,0,0,0,0,0,0,0,0,0,0,0,0,0,0,0,0,0,0,0,0,0,0,0,0,0,0,0,0,0,0,0,0,0,0,0,0,0,0,0,0,0,0,0,0,0,0,0,0],"id":9,"left_children":[1,3,5,7,9,11,13,15,17,19,21,-1,23,25,27,29,31,33,35,-1,-1,-1,-1,37,39,41,-1,-1,-1,-1,43,45,47,-1,49,-1,-1,51,53,55,57,59,61,-1,-1,-1,-1,-1,-1,-1,-1,-1,-1,-1,-1,-1,-1,-1,-1,-1,-1,-1,-1],"loss_changes":[2.3370535E0,3.656598E0,2.4736857E0,3.5156994E0,9.0027905E-1,1.984144E0,3.2764347E0,2.605227E0,4.4217706E0,1.4988477E0,7.8436375E-2,0E0,2.0483122E0,1.8980554E0,1.5407602E0,1.222743E0,3.1341298E0,2.4116707E0,9.2612076E-1,0E0,0E0,0E0,0E0,4.0236144E0,3.4235497E0,1.6213996E0,0E0,0E0,0E0,0E0,5.072837E-1,2.2299197E0,3.7521935E-1,0E0,2.1005762E0,0E0,0E0,2.0718732E0,3.42677E-1,2.1055431E0,4.734124E0,3.7642531E0,1.2808132E0,0E0,0E0,0E0,0E0,0E0,0E0,0E0,0E0,0E0,0E0,0E0,0E0,0E0,0E0,0E0,0E0,0E0,0E0,0E0,0E0],"parents":[2147483647,0,0,1,1,2,2,3,3,4,4,5,5,6,6,7,7,8,8,9,9,10,10,12,12,13,13,14,14,15,15,16,16,17,17,18,18,23,23,24,24,25,25,30,30,31,31,32,32,34,34,37,37,38,38,39,39,40,40,41,41,42,42],"right_children":[2,4,6,8,10,12,14,16,18,20,22,-1,24,26,28,30,32,34,36,-1,-1,-1,-1,38,40,42,-1,-1,-1,-1,44,46,48,-1,50,-1,-1,52,54,56,58,60,62,-1,-1,-1,-1,-1,-1,-1,-1,-1,-1,-1,-1,-1,-1,-1,-1,-1,-1,-1,-1],"split_conditions":[1.32E1,7.92E1,1.43E1,5.98E1,9.5E0,4.6E1,1.67E1,7.3E0,1.3E2,9.9E1,3E0,-1.3824838E-1,1.668E2,1.29E2,1.92E2,6.18E0,1.26E1,1.119E2,1.02E1,1.2521E-1,-2.0009656E-1,-2.7143857E-1,-9.127698E-2,1.309E2,1.896E2,1.74E2,1.7536005E-1,-1.908797E-2,3.2432994E-1,6.268905E-2,3E0,1.23E1,3.93E1,2.8122905E-1,2.12E2,4.0384346E-1,5.9701566E-2,8.8E1,9.73E0,8.9E1,6.01E1,1.482E2,1.45E1,-2.7161622E-1,-7.654324E-2,-2.6273437E-2,2.0317131E-1,-4.1537713E-2,-2.7020976E-1,-9.581837E-2,4.330312E-2,-7.6889455E-2,3.175493E-1,-2.5807364E-2,-2.4743193E-1,8.747071E-2,5.782082E-1,-1.425397E-1,2.4857813E-1,-1.7519113E-1,2.8658202E-1,3.0597877E-2,-2.480572E-1],"split_indices":[6,4,6,4,6,0,6,6,3,3,1,0,2,3,2,5,6,2,6,0,0,0,0,2,2,2,0,0,0,0,1,6,4,0,2,0,0,3,5,3,4,2,6,0,0,0,0,0,0,0,0,0,0,0,0,0,0,0,0,0,0,0,0],"split_type":[0,0,0,0,0,0,0,0,0,0,0,0,0,0,0,0,0,0,0,0,0,0,0,0,0,0,0,0,0,0,0,0,0,0,0,0,0,0,0,0,0,0,0,0,0,0,0,0,0,0,0,0,0,0,0,0,0,0,0,0,0,0,0],"sum_hessian":[1.7308878E2,1.3242691E2,4.066187E1,1.22039345E2,1.0387558E1,2.2388159E1,1.827371E1,7.346429E1,4.857506E1,3.1551926E0,7.2323656E0,1.7433656E0,2.0644793E1,1.4555451E1,3.718258E0,9.932044E0,6.3532238E1,4.471618E1,3.8588824E0,1.6339388E0,1.5212538E0,5.587555E0,1.6448107E0,7.30316E0,1.3341633E1,1.3346183E1,1.2092687E0,1.7883191E0,1.9299389E0,1.0821311E0,8.849914E0,5.8190926E1,5.341316E0,1.9010098E0,4.281517E1,2.4780378E0,1.3808445E0,3.904404E0,3.398756E0,3.6239593E0,9.717673E0,4.60328E0,8.742903E0,6.1889033E0,2.66101E0,5.5098244E1,3.0926807E0,1.2083149E0,4.1330013E0,1.338548E1,2.942969E1,1.3059952E0,2.5984087E0,1.0896877E0,2.3090684E0,1.6325201E0,1.9914391E0,3.8333557E0,5.884318E0,2.9381108E0,1.6651694E0,1.5648389E0,7.178064E0],"tree_param":{"num_deleted":"0","num_feature":"7","num_nodes":"63","size_leaf_vector":"1"}},{"base_weights":[-2.9754257E-2,-5.0498467E-2,4.831295E-1,-7.524653E-2,4.0482765E-1,-2.0264886E-2,7.0389915E-1,-1.3740206E-1,1.1526096E-1,5.994225E-1,-1.3734752E-1,2.4271464E-1,4.6217363E-2,-9.5179364E-2,-6.850528E-1,-3.713546E-1,1.8834968E-1,7.111149E-1,2.6825862E-2,-4.3584086E-2,-5.5446845E-1,-8.1714696E-1,-1.4908562E-2,1.1721424E-1,-2.4997793E-1,8.016448E-1,9.751366E-2,2.878272E-1,3.22899E-2,-3.207296E-2,9.72722E-2,-2.2725211E-1,-6.1607696E-2,-2.7170563E-1,-4.7745544E-2,3.4735733E-1,-1.4929372E-3,-1.3627963E-1,6.0166012E-2],"categories":[],"categories_nodes":[],"categories_segments":[],"categories_sizes":[],"default_left":[0,0,0,0,0,0,0,0,0,0,0,0,0,0,0,0,0,0,0,0,0,0,0,0,0,0,0,0,0,0,0,0,0,0,0,0,0,0,0],"id":10,"left_children":[1,3,5,7,9,-1,11,13,15,17,-1,-1,-1,19,21,23,25,27,-1,29,31,33,-1,-1,-1,35,37,-1,-1,-1,-1,-1,-1,-1,-1,-1,-1,-1,-1],"loss_changes":[1.816794E0,1.8652415E0,8.5523915E-1,1.8544542E0,1.7097726E0,0E0,1.5460706E-1,2.6525395E0,1.4478303E0,3.584938E-1,0E0,0E0,0E0,2.589183E0,6.519189E-1,2.224823E0,1.835219E0,7.8604174E-1,0E0,2.369276E0,6.278496E-1,2.5006247E-1,0E0,0E0,0E0,1.2390625E0,1.8566664E0,0E0,0E0,0E0,0E0,0E0,0E0,0E0,0E0,0E0,0E0,0E0,0E0],"parents":[2147483647,0,0,1,1,2,2,3,3,4,4,6,6,7,7,8,8,9,9,13,13,14,14,15,15,16,16,17,17,19,19,20,20,21,21,25,25,26,26],"right_children":[2,4,6,8,10,-1,12,14,16,18,-1,-1,-1,20,22,24,26,28,-1,30,32,34,-1,-1,-1,36,38,-1,-1,-1,-1,-1,-1,-1,-1,-1,-1,-1,-1],"split_conditions":[2.844E2,5E0,8.35E0,1.32E1,2.425E2,-2.0264886E-2,7.71E1,1.26E1,1.222E2,1.159E1,-1.3734752E-1,2.4271464E-1,4.6217363E-2,7.55E1,3E0,1.38E1,4.11E1,1.04E1,2.6825862E-2,1.297E1,2E0,1.186E1,-1.4908562E-2,1.1721424E-1,-2.4997793E-1,9.6E1,7.87E0,2.878272E-1,3.22899E-2,-3.207296E-2,9.72722E-2,-2.2725211E-1,-6.1607696E-2,-2.7170563E-1,-4.7745544E-2,3.4735733E-1,-1.4929372E-3,-1.3627963E-1,6.0166012E-2],"split_indices":[2,1,5,6,2,0,4,6,2,5,0,0,0,4,1,6,4,6,0,5,1,5,0,0,0,3,5,0,0,0,0,0,0,0,0,0,0,0,0],"split_type":[0,0,0,0,0,0,0,0,0,0,0,0,0,0,0,0,0,0,0,0,0,0,0,0,0,0,0,0,0,0,0,0,0,0,0,0,0,0,0],"sum_hessian":[1.6746834E2,1.6182468E2,5.6436567E0,1.5427425E2,7.550431E0,1.813689E0,3.8299677E0,1.1653271E2,3.7741543E1,6.4096904E0,1.1407403E0,2.819378E0,1.0105898E0,1.0928116E2,7.2515454E0,4.3955626E0,3.334598E1,4.9346504E0,1.4750396E0,9.922894E1,1.0052213E1,5.7665324E0,1.485013E0,1.716968E0,2.6785944E0,3.292295E0,3.0053684E1,3.0782557E0,1.8563951E0,8.525973E1,1.3969217E1,5.6161118E0,4.4361014E0,4.7508373E0,1.0156947E0,1.9817086E0,1.3105863E0,4.192759E0,2.5860926E1],"tree_param":{"num_deleted":"0","num_feature":"7","num_nodes":"39","size_leaf_vector":"1"}},{"base_weights":[-2.3191435E-2,4.5614251E-1,-4.4104703E-2,9.9199253E-1,-1.4326398E-1,-1.5027548E-1,7.1056545E-2,9.025386E-2,3.6020777E-1,-1.7525408E-1,1.6668838E-1,-5.035978E-1,-6.351722E-2,-4.2315432E-1,1.3615543E-1,1.4933226E-1,-6.4188397E-1,-2.8001866E-1,8.97923E-2,-6.9212544E-1,2.982502E-1,4.6825445E-1,9.0323575E-2,-7.6749605E-1,6.676742E-2,1.9479059E-1,-3.7459907E-1,5.646998E-1,-1.1973726E-1,-2.668104E-1,4.9523048E-2,2.0635625E-2,1.1468776E-1,9.3448085E-1,3.6865935E-2,-2.596314E-1,-2.225757E-2,-1.9562392E-1,-1.0037214E-2,5.38097E-2,3.446253E-1,-2.162517E-1,3.2224994E-2,4.0850392E-1,8.2759E-2,3.0672068E-2,-1.0469068E-1],"categories":[],"categories_nodes":[],"categories_segments":[],"categories_sizes":[],"default_left":[0,0,0,0,0,0,0,0,0,0,0,0,0,0,0,0,0,0,0,0,0,0,0,0,0,0,0,0,0,0,0,0,0,0,0,0,0,0,0,0,0,0,0,0,0,0,0],"id":11,"left_children":[1,3,5,7,9,11,13,-1,-1,-1,-1,15,17,19,21,-1,23,25,27,29,31,-1,33,35,-1,-1,37,39,41,-1,-1,-1,-1,43,45,-1,-1,-1,-1,-1,-1,-1,-1,-1,-1,-1,-1],"loss_changes":[1.6714524E0,2.382393E0,1.9517487E0,1.8817735E-1,1.6083527E0,2.5099144E0,2.5295181E0,0E0,0E0,0E0,0E0,2.563283E0,2.272888E0,1.9888692E0,4.341383E0,0E0,1.7641778E0,2.73216E0,4.088011E0,1.3290725E0,3.5292745E-2,0E0,3.0146873E0,8.210521E-1,0E0,0E0,2.4710956E0,2.6169748E0,4.017963E0,0E0,0E0,0E0,0E0,7.450168E-1,1.6647615E0,0E0,0E0,0E0,0E0,0E0,0E0,0E0,0E0,0E0,0E0,0E0,0E0],"parents":[2147483647,0,0,1,1,2,2,3,3,4,4,5,5,6,6,11,11,12,12,13,13,14,14,16,16,17,17,18,18,19,19,20,20,22,22,23,23,26,26,27,27,28,28,33,33,34,34],"right_children":[2,4,6,8,10,12,14,-1,-1,-1,-1,16,18,20,22,-1,24,26,28,30,32,-1,34,36,-1,-1,38,40,42,-1,-1,-1,-1,44,46,-1,-1,-1,-1,-1,-1,-1,-1,-1,-1,-1,-1],"split_conditions":[6.4E1,1E2,1.03E2,2E0,2.168E2,8.2E0,6.98E0,9.025386E-2,3.6020777E-1,-1.7525408E-1,1.6668838E-1,6.79E0,9.5E1,4E0,7.17E0,1.4933226E-1,2.687E2,8.7E0,4.72E1,1.39E1,1.09E2,4.6825445E-1,1.04E2,4E0,6.676742E-2,1.9479059E-1,5.65E1,1.576E2,5.53E1,-2.668104E-1,4.9523048E-2,2.0635625E-2,1.1468776E-1,1.04E1,7.55E1,-2.596314E-1,-2.225757E-2,-1.9562392E-1,-1.0037214E-2,5.38097E-2,3.446253E-1,-2.162517E-1,3.2224994E-2,4.0850392E-1,8.2759E-2,3.0672068E-2,-1.0469068E-1],"split_indices":[3,0,3,1,2,6,5,0,0,0,0,5,0,1,5,0,2,6,4,6,3,0,3,1,0,0,4,2,4,0,0,0,0,5,4,0,0,0,0,0,0,0,0,0,0,0,0],"split_type":[0,0,0,0,0,0,0,0,0,0,0,0,0,0,0,0,0,0,0,0,0,0,0,0,0,0,0,0,0,0,0,0,0,0,0,0,0,0,0,0,0,0,0,0,0,0,0],"sum_hessian":[1.6373083E2,5.974881E0,1.5775595E2,2.8088775E0,3.1660037E0,8.192334E1,7.583262E1,1.2177175E0,1.5911599E0,2.041928E0,1.1240758E0,1.5203322E1,6.672002E1,8.186096E0,6.764652E1,1.5293369E0,1.36739855E1,2.731694E1,3.9403072E1,5.9924393E0,2.1936572E0,1.0780841E0,6.6568436E1,1.2037033E1,1.6369525E0,1.9815649E0,2.5335377E1,1.1543702E1,2.7859371E1,4.841E0,1.1514391E0,1.0755349E0,1.1181222E0,2.9829814E0,6.3585457E1,1.0329518E1,1.7075146E0,1.3468662E1,1.18667145E1,7.7425656E0,3.801137E0,7.04454E0,2.081483E1,1.1618739E0,1.8211076E0,5.5001278E1,8.584177E0],"tree_param":{"num_deleted":"0","num_feature":"7","num_nodes":"47","size_leaf_vector":"1"}},{"base_weights":[-1.4706386E-2,-2.1118824E-1,-9.752331E-4,-1.8504634E-1,1.298248E-2,3.2844874E-1,-2.0521993E-2,1.0910336E-1,3.8819277E-1,-4.0787497E-1,3.4602895E-2,6.270633E-1,-3.6919424E-1,-7.271167E-1,3.999466E-2,-4.1227853E-1,7.439802E-2,4.571158E-2,3.9948753E-1,-1.7654175E-1,1.2819697E-1,-1.8248826E-3,-2.4331683E-1,2.0440073E-1,-1.2959784E-1,1.3252285E-1,-2.0814963E-1,-6.668965E-2,4.098859E-2],"categories":[],"categories_nodes":[],"categories_segments":[],"categories_sizes":[],"default_left":[0,0,0,0,0,0,0,0,0,0,0,0,0,0,0,0,0,0,0,0,0,0,0,0,0,0,0,0,0],"id":12,"left_children":[1,-1,3,-1,5,7,9,11,-1,13,15,17,19,21,23,25,27,-1,-1,-1,-1,-1,-1,-1,-1,-1,-1,-1,-1],"loss_changes":[1.5253949E0,0E0,1.3755882E0,0E0,1.6614226E0,3.0544896E0,3.0560918E0,3.54824E0,0E0,2.5778959E0,2.2649508E0,2.070714E0,1.5771158E0,6.2813616E-1,2.8269348E0,2.8134646E0,2.1760347E0,0E0,0E0,0E0,0E0,0E0,0E0,0E0,0E0,0E0,0E0,0E0,0E0],"parents":[2147483647,0,0,2,2,4,4,5,5,6,6,7,7,9,9,10,10,11,11,12,12,13,13,14,14,15,15,16,16],"right_children":[2,-1,4,-1,6,8,10,12,-1,14,16,18,20,22,24,26,28,-1,-1,-1,-1,-1,-1,-1,-1,-1,-1,-1,-1],"split_conditions":[4.1E0,-2.1118824E-1,4.62E0,-1.8504634E-1,7.08E0,6.94E0,8.32E0,9.7E1,3.8819277E-1,5.77E1,4.5E1,1.29E2,5E0,7.7E1,9.8E0,1E0,8.1E1,4.571158E-2,3.9948753E-1,-1.7654175E-1,1.2819697E-1,-1.8248826E-3,-2.4331683E-1,2.0440073E-1,-1.2959784E-1,1.3252285E-1,-2.0814963E-1,-6.668965E-2,4.098859E-2],"split_indices":[6,0,5,0,5,5,5,3,0,4,0,0,1,3,6,1,3,0,0,0,0,0,0,0,0,0,0,0,0],"split_type":[0,0,0,0,0,0,0,0,0,0,0,0,0,0,0,0,0,0,0,0,0,0,0,0,0,0,0,0,0],"sum_hessian":[1.6024683E2,2.1481867E0,1.5809865E2,2.546559E0,1.555521E2,1.4089279E1,1.4146281E2,1.2388009E1,1.7012701E0,1.682654E1,1.2463627E2,5.7980886E0,6.5899205E0,9.459968E0,7.366572E0,9.42604E0,1.1521023E2,4.1908264E0,1.6072623E0,5.3721743E0,1.2177464E0,1.0982798E0,8.361688E0,2.9349658E0,4.4316063E0,2.19602E0,7.2300196E0,1.9529114E1,9.5681114E1],"tree_param":{"num_deleted":"0","num_feature":"7","num_nodes":"29","size_leaf_vector":"1"}},{"base_weights":[-1.3422983E-2,-2.9314874E-2,5.315664E-1,-4.1463695E-2,2.0560698E-1,2.7195624E-1,-8.921822E-3,-2.0817602E-2,-4.8226088E-1,-6.7612156E-2,1.7291653E-1,9.418253E-2,-6.7681146E-1,-1.6597852E-1,1.1806094E-1,-8.891155E-3,8.551266E-1,-7.6658154E-1,-3.935545E-2,-1.0844668E-2,-1.3520497E-1,-1.0725694E-1,9.040266E-2,6.5399356E-2,-1.5833713E-1,2.8722638E-1,8.94129E-2,-7.450034E-2,-2.5620013E-1],"categories":[],"categories_nodes":[],"categories_segments":[],"categories_sizes":[],"default_left":[0,0,0,0,0,0,0,0,0,0,0,0,0,0,0,0,0,0,0,0,0,0,0,0,0,0,0,0,0],"id":13,"left_children":[1,3,5,7,-1,-1,-1,9,11,13,15,-1,17,19,21,23,25,27,-1,-1,-1,-1,-1,-1,-1,-1,-1,-1,-1],"loss_changes":[1.405398E0,1.3904355E0,9.948803E-1,1.40232E0,0E0,0E0,0E0,1.3651388E0,1.2810749E0,2.2289405E0,3.6449249E0,0E0,1.8650198E-1,2.921923E0,3.8102555E0,2.9576876E0,6.6886425E-2,6.5751076E-3,0E0,0E0,0E0,0E0,0E0,0E0,0E0,0E0,0E0,0E0,0E0],"parents":[2147483647,0,0,1,1,2,2,3,3,7,7,8,8,9,9,10,10,12,12,13,13,14,14,15,15,16,16,17,17],"right_children":[2,4,6,8,-1,-1,-1,10,12,14,16,-1,18,20,22,24,26,28,-1,-1,-1,-1,-1,-1,-1,-1,-1,-1,-1],"split_conditions":[1.67E1,3.099E2,9.4E1,9.09E1,2.0560698E-1,2.7195624E-1,-8.921822E-3,1.246E1,6.9E1,1.19E2,2.341E2,9.418253E-2,1.14E2,1.054E1,9.2E0,1.2E2,1.28E2,8.3E1,-3.935545E-2,-1.0844668E-2,-1.3520497E-1,-1.0725694E-1,9.040266E-2,6.5399356E-2,-1.5833713E-1,2.8722638E-1,8.94129E-2,-7.450034E-2,-2.5620013E-1],"split_indices":[6,2,0,4,0,0,0,5,0,0,2,0,3,5,6,0,0,3,0,0,0,0,0,0,0,0,0,0,0],"split_type":[0,0,0,0,0,0,0,0,0,0,0,0,0,0,0,0,0,0,0,0,0,0,0,0,0,0,0,0,0],"sum_hessian":[1.5946985E2,1.5587086E2,3.5989847E0,1.5419171E2,1.6791488E0,1.788943E0,1.8100417E0,1.4829318E2,5.89854E0,1.1996728E2,2.8325897E1,1.0377693E0,4.8607707E0,7.849047E1,4.147681E1,2.3144815E1,5.181082E0,3.8262887E0,1.0344821E0,5.468174E1,2.3808727E1,1.1273442E1,3.020337E1,1.6507002E1,6.6378126E0,3.7701554E0,1.4109265E0,1.1066217E0,2.719667E0],"tree_param":{"num_deleted":"0","num_feature":"7","num_nodes":"29","size_leaf_vector":"1"}},{"base_weights":[-9.309369E-3,4.0102434E-1,-2.7712867E-2,7.804245E-1,-9.4335854E-2,-1.16333865E-1,6.5171756E-2,5.1221054E-2,3.8947472E-1,-1.4033535E-1,1.277673E-1,-2.5259835E-1,3.3938795E-2,-4.1972643E-1,1.0470897E-1,-3.298876E-1,5.510527E-1,3.491022E-1,-2.0075646E-1,1.0124402E-1,-2.0474336E-1,7.66548E-1,4.6816524E-2,-2.5939139E-2,-5.3177816E-1,2.6660487E-1,4.147059E-2,-4.0743703E-1,5.47953E-1,1.9741556E-1,-2.8733248E-1,4.194763E-1,1.1833232E-1,-8.5444055E-2,2.5541022E-1,-1.3042594E-1,1.0670908E-1,-1.878243E-1,2.9205498E-3,-2.552886E-2,-1.566625E-1,2.2714303E-1,-9.3816675E-2,-1.3535391E-1,6.574758E-2,-5.8683842E-2,1.4021622E-1,-7.663813E-2,4.668042E-2,-6.2101975E-2,1.3542794E-1],"categories":[],"categories_nodes":[],"categories_segments":[],"categories_sizes":[],"default_left":[0,0,0,0,0,0,0,0,0,0,0,0,0,0,0,0,0,0,0,0,0,0,0,0,0,0,0,0,0,0,0,0,0,0,0,0,0,0,0,0,0,0,0,0,0,0,0,0,0,0,0],"id":14,"left_children":[1,3,5,7,9,11,13,-1,-1,-1,-1,15,17,19,21,23,25,27,29,-1,-1,31,33,35,37,-1,-1,39,41,-1,43,-1,45,47,49,-1,-1,-1,-1,-1,-1,-1,-1,-1,-1,-1,-1,-1,-1,-1,-1],"loss_changes":[1.2054441E0,1.3616642E0,1.2612681E0,1.0376637E0,9.5004064E-1,1.6118957E0,1.4818829E0,0E0,0E0,0E0,0E0,2.7397518E0,2.889521E0,1.3950543E0,2.651922E0,2.3299856E0,4.3294E-1,2.7257473E0,1.8607142E0,0E0,0E0,2.1184287E0,1.8308691E0,2.6970303E0,1.1754622E0,0E0,0E0,1.0486841E-1,2.6851811E0,0E0,1.8515531E0,0E0,5.128036E-1,1.714982E0,2.4224129E0,0E0,0E0,0E0,0E0,0E0,0E0,0E0,0E0,0E0,0E0,0E0,0E0,0E0,0E0,0E0,0E0],"parents":[2147483647,0,0,1,1,2,2,3,3,4,4,5,5,6,6,11,11,12,12,13,13,14,14,15,15,16,16,17,17,18,18,21,21,22,22,23,23,24,24,27,27,28,28,30,30,32,32,33,33,34,34],"right_children":[2,4,6,8,10,12,14,-1,-1,-1,-1,16,18,20,22,24,26,28,30,-1,-1,32,34,36,38,-1,-1,40,42,-1,44,-1,46,48,50,-1,-1,-1,-1,-1,-1,-1,-1,-1,-1,-1,-1,-1,-1,-1,-1],"split_conditions":[6.4E1,1E2,1.03E2,8.3E1,2.168E2,2E0,9.96E1,5.1221054E-2,3.8947472E-1,-1.4033535E-1,1.277673E-1,1.409E1,8.8E1,6.4E1,1.263E2,1E0,5.35E1,7.1E1,6.73E0,1.0124402E-1,-2.0474336E-1,1.11E2,6.23E1,1.03E2,2.499E2,2.6660487E-1,4.147059E-2,8.83E0,1.34E2,1.9741556E-1,1.21E1,4.194763E-1,4.17E1,1.18E2,1.948E2,-1.3042594E-1,1.0670908E-1,-1.878243E-1,2.9205498E-3,-2.552886E-2,-1.566625E-1,2.2714303E-1,-9.3816675E-2,-1.3535391E-1,6.574758E-2,-5.8683842E-2,1.4021622E-1,-7.663813E-2,4.668042E-2,-6.2101975E-2,1.3542794E-1],"split_indices":[3,0,3,0,2,1,2,0,0,0,0,5,3,0,2,1,4,3,5,0,0,3,4,0,2,0,0,5,0,0,5,0,4,3,2,0,0,0,0,0,0,0,0,0,0,0,0,0,0,0,0],"split_type":[0,0,0,0,0,0,0,0,0,0,0,0,0,0,0,0,0,0,0,0,0,0,0,0,0,0,0,0,0,0,0,0,0,0,0,0,0,0,0,0,0,0,0,0,0,0,0,0,0,0,0],"sum_hessian":[1.571565E2,5.853488E0,1.51303E2,2.9888425E0,2.8646455E0,7.7299385E1,7.400362E1,1.9833554E0,1.005487E0,1.7262506E0,1.1383948E0,4.018208E1,3.7117306E1,4.8541875E0,6.914943E1,3.71945E1,2.9875796E0,1.5634651E1,2.1482653E1,1.1772212E0,3.6769664E0,4.5775046E0,6.457192E1,1.5295474E1,2.1899025E1,1.0093434E0,1.9782361E0,3.035804E0,1.2598847E1,1.3628387E0,2.0119814E1,1.732271E0,2.8452337E0,3.9877586E1,2.4694338E1,7.3175874E0,7.9778867E0,1.8518005E1,3.3810194E0,1.2543473E0,1.7814566E0,1.023217E1,2.3666773E0,1.5284549E1,4.835266E0,1.7293894E0,1.1158442E0,2.3349031E1,1.6528555E1,7.334838E0,1.7359499E1],"tree_param":{"num_deleted":"0","num_feature":"7","num_nodes":"51","size_leaf_vector":"1"}},{"base_weights":[-5.05686E-3,-2.0320319E-1,7.390744E-3,-1.5928368E-1,1.8875664E-2,5.109321E-2,-1.6873138E-1,3.1607815E-3,4.8025873E-1,-4.3106252E-1,1.025207E-1,2.1637142E-2,-2.2061332E-1,1.7479609E-1,9.609446E-1,-1.3662018E-1,-2.4760763E-1,2.7898505E-1,-1.5119027E-1,1.1594669E-2,-1.5471911E-1,-2.6223129E-2,3.1847608E-1,5.1396582E-2,4.557952E-1,-1.2612833E-1,1.1161319E-1,2.2615625E-2,2.9198435E-1],"categories":[],"categories_nodes":[],"categories_segments":[],"categories_sizes":[],"default_left":[0,0,0,0,0,0,0,0,0,0,0,0,0,0,0,0,0,0,0,0,0,0,0,0,0,0,0,0,0],"id":15,"left_children":[1,-1,3,-1,5,7,9,11,13,15,17,19,-1,21,23,25,-1,27,-1,-1,-1,-1,-1,-1,-1,-1,-1,-1,-1],"loss_changes":[1.305108E0,0E0,9.5922315E-1,0E0,9.2301095E-1,2.6702042E0,1.6384485E0,1.6238511E0,1.7469823E0,1.2318425E0,1.4059194E0,1.0797321E0,0E0,2.2312295E0,1.8759451E0,1.2865983E0,0E0,1.3122001E0,0E0,0E0,0E0,0E0,0E0,0E0,0E0,0E0,0E0,0E0,0E0],"parents":[2147483647,0,0,2,2,4,4,5,5,6,6,7,7,8,8,9,9,10,10,11,11,13,13,14,14,15,15,17,17],"right_children":[2,-1,4,-1,6,8,10,12,14,16,18,20,-1,22,24,26,-1,28,-1,-1,-1,-1,-1,-1,-1,-1,-1,-1,-1],"split_conditions":[4.1E0,-2.0320319E-1,4.62E0,-1.5928368E-1,7.58E1,6.8E1,1.32E1,6.72E1,1.11E1,1.06E2,1.4E2,1.83E2,-2.2061332E-1,1.3E2,1.02E2,1.27E2,-2.4760763E-1,1.33E2,-1.5119027E-1,1.1594669E-2,-1.5471911E-1,-2.6223129E-2,3.1847608E-1,5.1396582E-2,4.557952E-1,-1.2612833E-1,1.1161319E-1,2.2615625E-2,2.9198435E-1],"split_indices":[6,0,5,0,4,4,6,4,6,3,0,0,0,3,0,0,0,0,0,0,0,0,0,0,0,0,0,0,0],"split_type":[0,0,0,0,0,0,0,0,0,0,0,0,0,0,0,0,0,0,0,0,0,0,0,0,0,0,0,0,0],"sum_hessian":[1.5435916E2,1.8350254E0,1.5252412E2,2.2412133E0,1.5028291E2,1.2887843E2,2.140449E1,1.168366E2,1.2041824E1,1.058167E1,1.0822819E1,1.14932E2,1.9046047E0,8.1966915E0,3.8451328E0,6.828758E0,3.7529123E0,8.801829E0,2.0209892E0,1.1230478E2,2.6272197E0,7.0218883E0,1.1748031E0,2.1340666E0,1.7110662E0,4.494521E0,2.3342369E0,7.6632032E0,1.1386265E0],"tree_param":{"num_deleted":"0","num_feature":"7","num_nodes":"29","size_leaf_vector":"1"}},{"base_weights":[-5.42065E-3,-1.7791946E-1,4.774057E-3,-1.2391827E-2,3.1759888E-1,-7.2698854E-2,1.0863193E-1,4.9281803E-1,-1.3055243E-1,2.856916E-2,-2.1552362E-1,3.5075754E-2,7.564953E-1,2.3972984E-1,1.8105792E-1,-6.833751E-2,4.46802E-1,-2.6591885E-1,-1.2205264E-1,3.276697E-1,-5.2874107E-2,2.6598275E-1,3.8210094E-2,-1.1947092E-1,4.6520272E-1,-8.442623E-2,4.8258353E-2,-6.5713756E-2,2.060502E-1,2.718752E-1,-6.336685E-2,2.072975E-1,-1.2275766E-1,-9.213597E-2,4.3635815E-2,2.1905801E-4,2.0340763E-1],"categories":[],"categories_nodes":[],"categories_segments":[],"categories_sizes":[],"default_left":[0,0,0,0,0,0,0,0,0,0,0,0,0,0,0,0,0,0,0,0,0,0,0,0,0,0,0,0,0,0,0,0,0,0,0,0,0],"id":16,"left_children":[1,-1,3,5,7,9,11,13,-1,15,17,19,21,-1,23,25,27,-1,29,31,33,-1,-1,-1,35,-1,-1,-1,-1,-1,-1,-1,-1,-1,-1,-1,-1],"loss_changes":[9.284787E-1,0E0,8.248191E-1,1.0725967E0,1.2682921E0,1.423019E0,2.3045683E0,5.1894474E-1,0E0,2.389441E0,2.447659E0,1.1747694E0,2.913704E-1,0E0,9.6501005E-1,2.3954065E0,1.9215455E0,0E0,3.578032E0,3.102911E0,1.8318843E0,0E0,0E0,0E0,3.5926455E-1,0E0,0E0,0E0,0E0,0E0,0E0,0E0,0E0,0E0,0E0,0E0,0E0],"parents":[2147483647,0,0,2,2,3,3,4,4,5,5,6,6,7,7,9,9,10,10,11,11,12,12,14,14,15,15,16,16,18,18,19,19,20,20,24,24],"right_children":[2,-1,4,6,8,10,12,14,-1,16,18,20,22,-1,24,26,28,-1,30,32,34,-1,-1,-1,36,-1,-1,-1,-1,-1,-1,-1,-1,-1,-1,-1,-1],"split_conditions":[4.1E0,-1.7791946E-1,5E0,2.217E2,2.425E2,1.745E2,1.339E1,4.6E1,-1.3055243E-1,1.621E2,5.4E1,1E0,7.21E1,2.3972984E-1,5.09E1,2E0,9.8E0,-2.6591885E-1,6.3E1,1.09E1,6.2E1,2.6598275E-1,3.8210094E-2,-1.1947092E-1,9.8E1,-8.442623E-2,4.8258353E-2,-6.5713756E-2,2.060502E-1,2.718752E-1,-6.336685E-2,2.072975E-1,-1.2275766E-1,-9.213597E-2,4.3635815E-2,2.1905801E-4,2.0340763E-1],"split_indices":[6,0,1,2,2,2,5,4,0,2,0,1,4,0,4,1,6,0,0,5,4,0,0,0,0,0,0,0,0,0,0,0,0,0,0,0,0],"split_type":[0,0,0,0,0,0,0,0,0,0,0,0,0,0,0,0,0,0,0,0,0,0,0,0,0,0,0,0,0,0,0,0,0,0,0,0,0],"sum_hessian":[1.5350992E2,1.6427811E0,1.5186714E2,1.4487755E2,6.989593E0,9.696065E1,4.79169E1,5.9499784E0,1.0396149E0,5.720217E1,3.9758472E1,4.3977936E1,3.938963E0,2.2128394E0,3.7371387E0,4.7120674E1,1.0081496E1,3.8246388E0,3.5933834E1,9.534076E0,3.4443863E1,2.9248013E0,1.0141616E0,1.0976999E0,2.6394389E0,2.4300732E1,2.2819944E1,2.6944716E0,7.3870244E0,2.1361997E0,3.3797634E1,6.42726E0,3.106816E0,1.4853635E1,1.9590227E1,1.1446786E0,1.4947603E0],"tree_param":{"num_deleted":"0","num_feature":"7","num_nodes":"37","size_leaf_vector":"1"}},{"base_weights":[-3.6820518E-3,3.5625374E-1,-2.0501358E-2,2.7858898E-1,3.5685346E-2,-2.465724E-1,1.5023989E-2,-2.7966776E-1,1.79905E-1,2.6127666E-1,-4.1946936E-1,5.2380556E-1,-2.245854E-2,5.1480405E-2,-1.8750437E-1,6.9399035E-1,-3.3604658E-1,1.4322898E-1,-7.049883E-1,-1.57068E-1,9.7137976E-1,-1.8956025E-1,5.823614E-2,3.107668E-2,2.9831654E-1,-1.5709782E-1,3.9217244E-3,5.707823E-1,-1.7031173E-1,-8.4218687E-1,-2.6550767E-1,-6.0169164E-2,1.2671545E0,-2.8857124E-1,2.1921213E-1,9.106148E-1,-1.2794433E-2,-4.6932157E-2,2.9780653E-1,-8.195807E-2,-2.7502114E-1,-1.3970052E-1,1.4057226E-2,4.936895E-1,5.2815523E-2,-1.3420492E-1,1.827905E-2,-8.847538E-2,1.7669782E-1,4.0459487E-1,4.689391E-3,-8.9382105E-2,2.64406E-2],"categories":[],"categories_nodes":[],"categories_segments":[],"categories_sizes":[],"default_left":[0,0,0,0,0,0,0,0,0,0,0,0,0,0,0,0,0,0,0,0,0,0,0,0,0,0,0,0,0,0,0,0,0,0,0,0,0,0,0,0,0,0,0,0,0,0,0,0,0,0,0,0,0],"id":17,"left_children":[1,3,5,-1,7,9,11,13,-1,15,17,19,21,-1,-1,23,25,27,29,-1,31,33,35,-1,-1,-1,-1,37,-1,39,41,-1,43,45,47,49,51,-1,-1,-1,-1,-1,-1,-1,-1,-1,-1,-1,-1,-1,-1,-1,-1],"loss_changes":[9.2170656E-1,1.2140908E0,1.1702191E0,0E0,1.1276321E0,1.846591E0,2.423498E0,7.530024E-1,0E0,1.691119E0,2.5336637E0,4.59564E0,1.6122367E0,0E0,0E0,5.349778E-1,2.0617986E-1,2.1259305E0,3.9224148E-1,0E0,2.4928813E0,1.6378405E0,4.9061933E0,0E0,0E0,0E0,0E0,1.444071E0,0E0,6.0199738E-2,2.650586E-1,0E0,1.896348E0,1.7891912E0,1.723936E0,2.4222112E0,2.2022676E0,0E0,0E0,0E0,0E0,0E0,0E0,0E0,0E0,0E0,0E0,0E0,0E0,0E0,0E0,0E0,0E0],"parents":[2147483647,0,0,1,1,2,2,4,4,5,5,6,6,7,7,9,9,10,10,11,11,12,12,15,15,16,16,17,17,18,18,20,20,21,21,22,22,27,27,29,29,30,30,32,32,33,33,34,34,35,35,36,36],"right_children":[2,4,6,-1,8,10,12,14,-1,16,18,20,22,-1,-1,24,26,28,30,-1,32,34,36,-1,-1,-1,-1,38,-1,40,42,-1,44,46,48,50,52,-1,-1,-1,-1,-1,-1,-1,-1,-1,-1,-1,-1,-1,-1,-1,-1],"split_conditions":[6.4E1,8.85E0,8.1E1,2.7858898E-1,1.23E1,6.5E1,8.5E1,8.9E0,1.79905E-1,1.1E1,4.72E1,9.3E0,8.97E0,5.1480405E-2,-1.8750437E-1,7.3E1,2.078E2,7.6E1,1.33E2,-1.57068E-1,1.47E2,1.23E2,9.28E0,3.107668E-2,2.9831654E-1,-1.5709782E-1,3.9217244E-3,1.14E2,-1.7031173E-1,7.8E1,6.68E1,-6.0169164E-2,1.09E1,1.33E1,1.01E1,1.12E2,1.033E1,-4.6932157E-2,2.9780653E-1,-8.195807E-2,-2.7502114E-1,-1.3970052E-1,1.4057226E-2,4.936895E-1,5.2815523E-2,-1.3420492E-1,1.827905E-2,-8.847538E-2,1.7669782E-1,4.0459487E-1,4.689391E-3,-8.9382105E-2,2.64406E-2],"split_indices":[3,5,3,0,6,0,3,6,0,6,4,6,5,0,0,3,2,3,0,0,2,3,5,0,0,0,0,0,0,0,4,0,5,6,6,3,5,0,0,0,0,0,0,0,0,0,0,0,0,0,0,0,0],"split_type":[0,0,0,0,0,0,0,0,0,0,0,0,0,0,0,0,0,0,0,0,0,0,0,0,0,0,0,0,0,0,0,0,0,0,0,0,0,0,0,0,0,0,0,0,0,0,0,0,0,0,0,0,0],"sum_hessian":[1.5004434E2,5.797419E0,1.4424692E2,1.4003198E0,4.3970995E0,1.8782272E1,1.25464645E2,3.1435513E0,1.2535479E0,4.6405234E0,1.4141749E1,7.718628E0,1.1774602E2,1.5808885E0,1.5626628E0,2.597213E0,2.0433104E0,4.9280148E0,9.213735E0,2.2600732E0,5.4585547E0,3.7904552E1,7.984146E1,1.3293507E0,1.2678623E0,1.0038872E0,1.0394233E0,3.2004282E0,1.7275864E0,6.3233624E0,2.8903723E0,1.1648782E0,4.293677E0,3.075039E1,7.154165E0,5.2323503E0,7.4609116E1,1.4060614E0,1.7943668E0,1.2728772E0,5.050485E0,1.4624593E0,1.427913E0,2.8105402E0,1.4831364E0,2.0951952E1,9.798438E0,3.0776117E0,4.076553E0,3.1726508E0,2.0596995E0,1.8994385E1,5.561473E1],"tree_param":{"num_deleted":"0","num_feature":"7","num_nodes":"53","size_leaf_vector":"1"}},{"base_weights":[-2.7215024E-3,-1.2086005E-2,1.6856717E-1,5.449724E-3,-3.817364E-1,-3.4313284E-2,1.737778E-1,7.7990346E-2,-5.409867E-1,4.027659E-1,-8.276164E-2,5.8687043E-1,-2.4217283E-2,5.667148E-3,-6.956985E-1,-4.641969E-2,8.9182746E-1,-3.1737253E-2,-4.7740582E-1,-1.3307424E-1,8.4682274E-1,-2.2847515E-1,1.1555129E-1,-2.460105E-1,-4.6407178E-2,2.4961714E-1,-1.0916543E-1,-6.73626E-2,3.5394114E-1,-1.2583934E-1,3.6729935E-3,-1.9191082E-1,2.9628241E-2,-1.22609116E-1,6.897883E-2,7.2122425E-2,3.4068376E-1,1.3890877E-1,-7.695745E-2],"categories":[],"categories_nodes":[],"categories_segments":[],"categories_sizes":[],"default_left":[0,0,0,0,0,0,0,0,0,0,0,0,0,0,0,0,0,0,0,0,0,0,0,0,0,0,0,0,0,0,0,0,0,0,0,0,0,0,0],"id":18,"left_children":[1,3,-1,5,7,9,11,-1,13,15,17,19,21,-1,23,25,27,29,31,33,35,-1,37,-1,-1,-1,-1,-1,-1,-1,-1,-1,-1,-1,-1,-1,-1,-1,-1],"loss_changes":[7.989054E-1,9.6369123E-1,0E0,9.6052533E-1,8.2867724E-1,2.4939463E0,2.2566278E0,0E0,5.0849676E-1,2.6260188E0,2.1079187E0,1.7825925E0,2.0970564E0,0E0,1.7632365E-1,2.2781909E0,2.091663E0,1.6154705E0,1.1852868E0,4.1726658E-1,8.988428E-1,0E0,2.3497598E0,0E0,0E0,0E0,0E0,0E0,0E0,0E0,0E0,0E0,0E0,0E0,0E0,0E0,0E0,0E0,0E0],"parents":[2147483647,0,0,1,1,3,3,4,4,5,5,6,6,8,8,9,9,10,10,11,11,12,12,14,14,15,15,16,16,17,17,18,18,19,19,20,20,22,22],"right_children":[2,4,-1,6,8,10,12,-1,14,16,18,20,22,-1,24,26,28,30,32,34,36,-1,38,-1,-1,-1,-1,-1,-1,-1,-1,-1,-1,-1,-1,-1,-1,-1,-1],"split_conditions":[3.099E2,9.09E1,1.6856717E-1,1.35E1,6.6E1,3.8E1,1.4E1,7.7990346E-2,8.3E1,3.5E1,1.26E1,1E0,1.256E2,5.667148E-3,1.301E1,5.8E1,6.54E0,5.2E1,3E0,1.03E1,1.02E2,-2.2847515E-1,2E0,-2.460105E-1,-4.6407178E-2,2.4961714E-1,-1.0916543E-1,-6.73626E-2,3.5394114E-1,-1.2583934E-1,3.6729935E-3,-1.9191082E-1,2.9628241E-2,-1.22609116E-1,6.897883E-2,7.2122425E-2,3.4068376E-1,1.3890877E-1,-7.695745E-2],"split_indices":[2,4,0,6,0,4,6,0,3,4,6,1,2,0,5,0,5,0,1,5,3,0,1,0,0,0,0,0,0,0,0,0,0,0,0,0,0,0,0],"split_type":[0,0,0,0,0,0,0,0,0,0,0,0,0,0,0,0,0,0,0,0,0,0,0,0,0,0,0,0,0,0,0,0,0,0,0,0,0,0,0],"sum_hessian":[1.4881422E2,1.4734892E2,1.4652951E0,1.416161E2,5.7328243E0,1.1519946E2,2.641664E1,1.0140858E0,4.7187386E0,1.0765418E1,1.04434044E2,7.92274E0,1.8493898E1,1.2116978E0,3.507041E0,6.083252E0,4.682166E0,9.343416E1,1.0999882E1,2.2312677E0,5.6914725E0,2.2380254E0,1.6255873E1,2.4322891E0,1.0747517E0,1.1845291E0,4.898723E0,1.0052987E0,3.6768672E0,8.648914E0,8.478525E1,8.496329E0,2.5035527E0,1.1967323E0,1.0345354E0,2.4271963E0,3.2642763E0,8.279391E0,7.976482E0],"tree_param":{"num_deleted":"0","num_feature":"7","num_nodes":"39","size_leaf_vector":"1"}},{"base_weights":[-2.9925944E-3,-1.9143812E-2,3.0007583E-1,-9.536297E-2,5.4607067E-2,4.5691147E-1,-1.0966827E-1,-5.4989624E-1,-4.472693E-2,1.2950172E-1,-1.4427643E-1,5.8035237E-1,-6.9162063E-3,1.63462E-2,-6.8064445E-1,-2.4729617E-1,7.6558895E-2,5.0182905E-2,5.429429E-1,-1.8769942E-2,-6.154579E-1,2.3928034E-1,2.201072E-2,-2.3479202E-1,-3.5169907E-2,4.4824284E-1,-3.8181466E-1,6.832569E-1,-6.9996454E-2,2.4081065E-1,-2.4011293E-1,1.0779909E0,1.23650074E-1,-2.6814577E-1,6.3641065E-1,-2.1735756E-1,-4.2680103E-2,2.1203387E-1,-2.0988697E-2,-1.4987905E-1,1.2321236E-1,-1.2786277E-1,3.1419465E-1,1.6379812E-1,-5.238498E-2,3.5031554E-1,4.8665993E-2,1.4384855E-1,-1.389897E-1,4.2272595E-1,1.1987759E-1,-1.05086006E-1,1.0652643E-1,7.837213E-2,-1.678208E-1,-3.574886E-2,2.9770285E-1],"categories":[],"categories_nodes":[],"categories_segments":[],"categories_sizes":[],"default_left":[0,0,0,0,0,0,0,0,0,0,0,0,0,0,0,0,0,0,0,0,0,0,0,0,0,0,0,0,0,0,0,0,0,0,0,0,0,0,0,0,0,0,0,0,0,0,0,0,0,0,0,0,0,0,0,0,0],"id":19,"left_children":[1,3,5,7,9,11,-1,13,15,17,19,21,-1,-1,23,25,27,29,31,33,35,-1,-1,-1,-1,37,39,41,43,45,47,49,51,53,55,-1,-1,-1,-1,-1,-1,-1,-1,-1,-1,-1,-1,-1,-1,-1,-1,-1,-1,-1,-1,-1,-1],"loss_changes":[7.330698E-1,8.0347687E-1,9.581283E-1,1.5911196E0,1.1032021E0,4.030701E-1,0E0,5.8613586E-1,1.5975333E0,1.7245467E0,1.1942804E0,5.2192736E-1,0E0,0E0,2.4076748E-1,2.4446578E0,3.6891549E0,2.5990613E0,1.7729108E0,2.9699833E0,1.1665177E-1,0E0,0E0,0E0,0E0,6.3865846E-1,2.1562288E0,3.7022471E0,2.2795172E0,1.8661973E0,3.2259932E0,2.4635458E-1,7.7080214E-1,2.1680517E0,1.4682591E0,0E0,0E0,0E0,0E0,0E0,0E0,0E0,0E0,0E0,0E0,0E0,0E0,0E0,0E0,0E0,0E0,0E0,0E0,0E0,0E0,0E0,0E0],"parents":[2147483647,0,0,1,1,2,2,3,3,4,4,5,5,7,7,8,8,9,9,10,10,11,11,14,14,15,15,16,16,17,17,18,18,19,19,20,20,25,25,26,26,27,27,28,28,29,29,30,30,31,31,32,32,33,33,34,34],"right_children":[2,4,6,8,10,12,-1,14,16,18,20,22,-1,-1,24,26,28,30,32,34,36,-1,-1,-1,-1,38,40,42,44,46,48,50,52,54,56,-1,-1,-1,-1,-1,-1,-1,-1,-1,-1,-1,-1,-1,-1,-1,-1,-1,-1,-1,-1,-1,-1],"split_conditions":[5E0,5.7E1,2.425E2,7.4E0,7.58E1,1.159E1,-1.0966827E-1,3.89E1,8.79E0,1.44E2,1.42E2,1.04E1,-6.9162063E-3,1.63462E-2,1.19E2,7.4E1,9.28E0,1.02E2,9.49E0,1.25E2,1.44E1,2.3928034E-1,2.201072E-2,-2.3479202E-1,-3.5169907E-2,1.803E2,1.28E2,1.285E2,3.8E1,1.064E2,1E0,1.54E2,8.5E0,7E1,2.023E2,-2.1735756E-1,-4.2680103E-2,2.1203387E-1,-2.0988697E-2,-1.4987905E-1,1.2321236E-1,-1.2786277E-1,3.1419465E-1,1.6379812E-1,-5.238498E-2,3.5031554E-1,4.8665993E-2,1.4384855E-1,-1.389897E-1,4.2272595E-1,1.1987759E-1,-1.05086006E-1,1.0652643E-1,7.837213E-2,-1.678208E-1,-3.574886E-2,2.9770285E-1],"split_indices":[1,4,2,6,4,5,0,4,5,0,0,6,0,0,3,3,5,0,5,0,6,0,0,0,0,2,3,2,4,2,1,0,6,0,2,0,0,0,0,0,0,0,0,0,0,0,0,0,0,0,0,0,0,0,0,0,0],"split_type":[0,0,0,0,0,0,0,0,0,0,0,0,0,0,0,0,0,0,0,0,0,0,0,0,0,0,0,0,0,0,0,0,0,0,0,0,0,0,0,0,0,0,0,0,0,0,0,0,0,0,0,0,0,0,0,0,0],"sum_hessian":[1.4758763E2,1.4100972E2,6.5779014E0,6.920035E1,7.180937E1,5.577352E0,1.0005494E0,5.9480486E0,6.32523E1,5.241865E1,1.9390722E1,4.2700076E0,1.3073446E0,1.1616392E0,4.7864094E0,2.3299301E1,3.9953E1,4.4921776E1,7.4968767E0,1.6133224E1,3.257498E0,2.587851E0,1.6821564E0,3.7232692E0,1.0631404E0,3.3979125E0,1.990139E1,7.0608697E0,3.2892128E1,2.7218649E1,1.7703129E1,2.6035652E0,4.8933115E0,1.2113352E1,4.019872E0,2.2156568E0,1.0418411E0,2.0241492E0,1.3737632E0,1.7648186E1,2.2532048E0,1.7023263E0,5.3585434E0,4.1628675E0,2.8729261E1,1.0442626E0,2.6174385E1,3.9189706E0,1.3784158E1,1.0258286E0,1.5777365E0,1.437037E0,3.4562743E0,4.335762E0,7.7775893E0,1.5002812E0,2.519591E0],"tree_param":{"num_deleted":"0","num_feature":"7","num_nodes":"57","size_leaf_vector":"1"}},{"base_weights":[1.2857546E-3,-1.5754461E-1,1.0140835E-2,-6.231405E-4,3.5333773E-1,2.6254753E-2,-3.2442546E-1,1.9841705E-1,-2.668103E-2,-8.524901E-3,2.8962737E-1,-4.5746696E-1,1.3641061E-1,2.411963E-1,-3.8726427E-2,3.9378336E-1,-8.8802144E-2,1.6119686E-1,-6.88602E-1,2.0497982E-1,-2.038841E-2,-1.1229062E-1,-8.032815E-4,-3.8514234E-2,1.5982573E-1,-7.754547E-2,1.7438611E-1,-4.0971447E-2,-2.4866591E-1],"categories":[],"categories_nodes":[],"categories_segments":[],"categories_sizes":[],"default_left":[0,0,0,0,0,0,0,0,0,0,0,0,0,0,0,0,0,0,0,0,0,0,0,0,0,0,0,0,0],"id":20,"left_children":[1,-1,3,5,7,9,11,-1,-1,13,15,17,-1,19,21,23,-1,25,27,-1,-1,-1,-1,-1,-1,-1,-1,-1,-1],"loss_changes":[6.865364E-1,0E0,5.3474873E-1,1.2382126E0,6.5856135E-1,1.2059951E0,1.3383113E0,0E0,0E0,8.9200634E-1,1.0531906E0,1.5141208E0,0E0,1.7910757E0,1.2724425E0,1.0455337E0,0E0,7.636446E-1,4.5469165E-1,0E0,0E0,0E0,0E0,0E0,0E0,0E0,0E0,0E0,0E0],"parents":[2147483647,0,0,2,2,3,3,4,4,5,5,6,6,9,9,10,10,11,11,13,13,14,14,15,15,17,17,18,18],"right_children":[2,-1,4,6,8,10,12,-1,-1,14,16,18,-1,20,22,24,-1,26,28,-1,-1,-1,-1,-1,-1,-1,-1,-1,-1],"split_conditions":[4.1E0,-1.5754461E-1,1.67E1,1.46E1,9.4E1,1.36E1,1.29E2,1.9841705E-1,-2.668103E-2,3.8E1,8.73E1,1.628E2,1.3641061E-1,9.3E0,5.2E1,4.34E1,-8.8802144E-2,1.431E2,1E0,2.0497982E-1,-2.038841E-2,-1.1229062E-1,-8.032815E-4,-3.8514234E-2,1.5982573E-1,-7.754547E-2,1.7438611E-1,-4.0971447E-2,-2.4866591E-1],"split_indices":[6,0,6,6,0,6,3,0,0,4,4,2,0,6,0,4,0,2,1,0,0,0,0,0,0,0,0,0,0],"split_type":[0,0,0,0,0,0,0,0,0,0,0,0,0,0,0,0,0,0,0,0,0,0,0,0,0,0,0,0,0],"sum_hessian":[1.451318E2,1.4363446E0,1.4369545E2,1.402935E2,3.4019597E0,1.3038919E2,9.904312E0,1.7132325E0,1.6887273E0,1.1603396E2,1.4355226E1,8.812383E0,1.0919291E0,1.1765417E1,1.0426854E2,1.2465765E1,1.8894601E0,2.4791613E0,6.3332214E0,4.343905E0,7.4215126E0,9.204198E0,9.506435E1,2.6362972E0,9.829468E0,1.4326229E0,1.0465382E0,1.6832051E0,4.6500163E0],"tree_param":{"num_deleted":"0","num_feature":"7","num_nodes":"29","size_leaf_vector":"1"}},{"base_weights":[-2.1688681E-4,-8.027241E-3,1.4566053E-1,-2.1908442E-2,2.577726E-1,-4.1723895E-1,-1.1568819E-2,2.15227E-1,-1.4537475E-2,-1.8289948E-1,9.2899735E-4,1.8084903E-1,-3.3613924E-2,-3.5036898E-1,3.6980942E-1,7.7231723E-1,-1.056798E-1,-2.4112092E-1,9.917196E-3,-1.4692415E-1,-6.042429E-3,1.7286377E-1,-5.1291767E-3,-6.6051275E-2,3.7039515E-1,4.848031E-2,-2.1283619E-1,6.9967344E-2,-1.1962742E-1,6.954812E-2,-1.9950889E-2],"categories":[],"categories_nodes":[],"categories_segments":[],"categories_sizes":[],"default_left":[0,0,0,0,0,0,0,0,0,0,0,0,0,0,0,0,0,0,0,0,0,0,0,0,0,0,0,0,0,0,0],"id":21,"left_children":[1,3,-1,5,7,9,11,-1,13,-1,-1,15,17,19,21,23,25,27,29,-1,-1,-1,-1,-1,-1,-1,-1,-1,-1,-1,-1],"loss_changes":[5.561022E-1,5.3780633E-1,0E0,5.5923486E-1,9.1624916E-1,2.840622E-1,5.8087736E-1,0E0,8.426725E-1,0E0,0E0,2.4687543E0,1.1082139E0,1.4947611E-1,2.5443956E-1,2.43634E0,1.7878938E0,1.6832813E0,1.7477582E0,0E0,0E0,0E0,0E0,0E0,0E0,0E0,0E0,0E0,0E0,0E0,0E0],"parents":[2147483647,0,0,1,1,3,3,4,4,5,5,6,6,8,8,11,11,12,12,13,13,14,14,15,15,16,16,17,17,18,18],"right_children":[2,4,-1,6,8,10,12,-1,14,-1,-1,16,18,20,22,24,26,28,30,-1,-1,-1,-1,-1,-1,-1,-1,-1,-1,-1,-1],"split_conditions":[3.099E2,5E0,1.4566053E-1,3E1,4.6E1,1.04E2,3.89E1,2.15227E-1,1.08E2,-1.8289948E-1,9.2899735E-4,7.08E0,8.32E0,6E0,1.24E2,5.89E0,1.09E2,1E0,9.52E0,-1.4692415E-1,-6.042429E-3,1.7286377E-1,-5.1291767E-3,-6.6051275E-2,3.7039515E-1,4.848031E-2,-2.1283619E-1,6.9967344E-2,-1.1962742E-1,6.954812E-2,-1.9950889E-2],"split_indices":[2,1,0,4,4,3,4,0,0,0,0,5,5,1,0,5,3,1,5,0,0,0,0,0,0,0,0,0,0,0,0],"split_type":[0,0,0,0,0,0,0,0,0,0,0,0,0,0,0,0,0,0,0,0,0,0,0,0,0,0,0,0,0,0,0],"sum_hessian":[1.4455087E2,1.4323135E2,1.319527E0,1.3699449E2,6.2368603E0,2.488652E0,1.3450584E2,1.7121775E0,4.524683E0,1.3981615E0,1.0904905E0,1.3085669E1,1.21420166E2,2.4619257E0,2.062757E0,3.7171342E0,9.368534E0,2.0267704E1,1.01152466E2,1.3915421E0,1.0703835E0,1.0260891E0,1.0366681E0,1.3477374E0,2.369397E0,7.001455E0,2.3670797E0,4.9358253E0,1.5331878E1,2.539027E1,7.576219E1],"tree_param":{"num_deleted":"0","num_feature":"7","num_nodes":"31","size_leaf_vector":"1"}},{"base_weights":[7.0258585E-4,-6.883297E-2,6.742211E-2,4.1712776E-2,-2.1632314E-1,1.3377866E-1,-1.2618282E-1,-8.0954194E-2,8.554763E-1,1.7605838E-1,-2.9409507E-1,7.6906E-2,4.329054E-1,-3.8060075E-1,1.2149826E-1,3.005759E-2,-4.5601937E-1,-5.325331E-2,1.2104747E0,-5.664639E-1,-8.124702E-2,1.3395679E-1,-4.8649278E-1,3.8945302E-1,1.3164665E-1,-1.249596E-1,-2.2745846E-1,2.4558972E-1,-1.0904435E-1,-1.6620992E-1,3.2107723E-1,-2.5211713E-1,6.1976374E-3,5.317002E-1,8.439423E-2,-2.7687207E-1,-2.631326E-1,-2.3551258E-1,4.4328025E-1,4.7276786E-1,3.2490283E-2,-2.7395222E-1,4.7540348E-2,-3.62507E-1,4.4829857E-1,-3.10678E-1,1.2032348E-1,-2.9667184E-2,6.5514284E-1,-1.0067423E-1,7.3463134E-2,-3.6030464E-2,2.8012615E-1,-1.8734734E-1,1.3255629E-1,-2.2237496E-1,3.8977414E-2,-1.2353806E-1,8.291159E-2,2.148227E-1,-4.4236407E-2,2.2508956E-1,-2.5441473E-2,-3.5021078E-2,1.06354564E-1,7.0133924E-2,-2.7149433E-1,-8.280549E-3,3.1689894E-1,1.4751584E-2,-2.0969048E-1,1.315221E-1,-1.6799596E-1,3.0555323E-1,2.050772E-3],"categories":[],"categories_nodes":[],"categories_segments":[],"categories_sizes":[],"default_left":[0,0,0,0,0,0,0,0,0,0,0,0,0,0,0,0,0,0,0,0,0,0,0,0,0,0,0,0,0,0,0,0,0,0,0,0,0,0,0,0,0,0,0,0,0,0,0,0,0,0,0,0,0,0,0,0,0,0,0,0,0,0,0,0,0,0,0,0,0,0,0,0,0,0,0],"id":22,"left_children":[1,3,5,7,9,11,13,15,17,-1,19,21,23,25,27,29,31,-1,33,35,37,39,41,-1,43,45,-1,47,-1,49,51,-1,53,-1,-1,55,-1,57,59,61,63,-1,-1,65,67,69,-1,71,73,-1,-1,-1,-1,-1,-1,-1,-1,-1,-1,-1,-1,-1,-1,-1,-1,-1,-1,-1,-1,-1,-1,-1,-1,-1,-1],"loss_changes":[6.748313E-1,1.1703949E0,9.70464E-1,4.217138E0,2.0888808E0,9.1539055E-1,1.2725863E0,1.5552292E0,2.2426372E0,0E0,1.6140718E0,1.6103284E0,2.095036E0,8.552972E-1,7.283514E-1,1.7386749E0,1.5184183E0,0E0,1.7166295E0,8.721199E-1,1.4995258E0,1.5122662E0,1.420555E0,0E0,1.3455638E0,8.1492805E-1,0E0,1.0399408E0,0E0,1.3549794E0,3.4166574E0,0E0,1.6112146E0,0E0,0E0,1.5840712E0,0E0,1.374959E0,7.9295E-1,1.6369042E0,1.7362427E0,0E0,0E0,1.3455379E0,1.4918878E0,8.4280413E-1,0E0,1.8268517E0,8.604027E-1,0E0,0E0,0E0,0E0,0E0,0E0,0E0,0E0,0E0,0E0,0E0,0E0,0E0,0E0,0E0,0E0,0E0,0E0,0E0,0E0,0E0,0E0,0E0,0E0,0E0,0E0],"parents":[2147483647,0,0,1,1,2,2,3,3,4,4,5,5,6,6,7,7,8,8,10,10,11,11,12,12,13,13,14,14,15,15,16,16,18,18,19,19,20,20,21,21,22,22,24,24,25,25,27,27,29,29,30,30,32,32,35,35,37,37,38,38,39,39,40,40,43,43,44,44,45,45,47,47,48,48],"right_children":[2,4,6,8,10,12,14,16,18,-1,20,22,24,26,28,30,32,-1,34,36,38,40,42,-1,44,46,-1,48,-1,50,52,-1,54,-1,-1,56,-1,58,60,62,64,-1,-1,66,68,70,-1,72,74,-1,-1,-1,-1,-1,-1,-1,-1,-1,-1,-1,-1,-1,-1,-1,-1,-1,-1,-1,-1,-1,-1,-1,-1,-1,-1],"split_conditions":[5.7E1,1.68E2,7.58E1,1.621E2,6.4E1,1.44E2,1.32E1,4.56E1,1.04E1,1.7605838E-1,1.02E2,1.31E2,1.48E2,1.06E2,1.4E2,1.13E2,2E0,-5.325331E-2,9.9E1,5.12E1,2.252E2,1E0,2.472E2,3.8945302E-1,1.61E2,2.687E2,-2.2745846E-1,2.161E2,-1.0904435E-1,1.25E1,9.94E0,-2.5211713E-1,1.03E2,5.317002E-1,8.439423E-2,8.43E0,-2.631326E-1,1.34E1,2.376E2,2.462E2,1.21E1,-2.7395222E-1,4.7540348E-2,1.05E2,1.1E2,1.129E1,1.2032348E-1,1.752E2,1.41E1,-1.0067423E-1,7.3463134E-2,-3.6030464E-2,2.8012615E-1,-1.8734734E-1,1.3255629E-1,-2.2237496E-1,3.8977414E-2,-1.2353806E-1,8.291159E-2,2.148227E-1,-4.4236407E-2,2.2508956E-1,-2.5441473E-2,-3.5021078E-2,1.06354564E-1,7.0133924E-2,-2.7149433E-1,-8.280549E-3,3.1689894E-1,1.4751584E-2,-2.0969048E-1,1.315221E-1,-1.6799596E-1,3.0555323E-1,2.050772E-3],"split_indices":[4,2,4,2,3,0,6,4,6,0,3,0,0,3,0,0,1,0,0,4,2,1,2,0,0,2,0,2,0,6,5,0,3,0,0,5,0,6,2,2,5,0,0,3,3,5,0,2,6,0,0,0,0,0,0,0,0,0,0,0,0,0,0,0,0,0,0,0,0,0,0,0,0,0,0],"split_type":[0,0,0,0,0,0,0,0,0,0,0,0,0,0,0,0,0,0,0,0,0,0,0,0,0,0,0,0,0,0,0,0,0,0,0,0,0,0,0,0,0,0,0,0,0,0,0,0,0,0,0,0,0,0,0,0,0,0,0,0,0,0,0,0,0,0,0,0,0,0,0,0,0,0,0],"sum_hessian":[1.4345692E2,7.0230515E1,7.322641E1,4.0552834E1,2.967768E1,5.4765118E1,1.8461296E1,3.6023205E1,4.52963E0,2.0421007E0,2.7635578E1,4.7072395E1,7.692723E0,8.842069E0,9.619226E0,2.8505892E1,7.517313E0,1.2863953E0,3.2432346E0,1.1394005E1,1.6241573E1,4.34362E1,3.6361942E0,1.1320602E0,6.5606627E0,6.0660977E0,2.7759714E0,8.052457E0,1.5667703E0,1.7280539E1,1.1225354E1,3.6575718E0,3.8597412E0,1.4555893E0,1.7876453E0,6.8756294E0,4.518375E0,1.2976217E1,3.265357E0,9.1669855E0,3.4269215E1,1.9381368E0,1.6980573E0,2.5056458E0,4.055017E0,4.785847E0,1.2802503E0,5.370533E0,2.6819236E0,1.236836E1,4.912178E0,6.993452E0,4.231902E0,1.399816E0,2.4599252E0,2.826679E0,4.04895E0,9.797667E0,3.1785507E0,2.0886583E0,1.1766987E0,5.889733E0,3.2772527E0,2.3853111E1,1.0416104E1,1.4646994E0,1.0409462E0,2.810146E0,1.2448709E0,2.9371715E0,1.8486758E0,2.9447405E0,2.4257922E0,1.3527135E0,1.3292102E0],"tree_param":{"num_deleted":"0","num_feature":"7","num_nodes":"75","size_leaf_vector":"1"}},{"base_weights":[-8.5227983E-4,1.9294828E-1,-2.4297044E-2,3.3832602E-2,3.2782143E-1,-8.7650515E-2,1.5990192E-1,1.996581E-1,-2.116908E-1,-5.1363975E-2,-6.0457236E-1,9.4688094E-1,7.497839E-2,4.8871425E-1,-1.6815563E-1,-4.6001202E-1,-3.0317602E-3,-2.617757E-1,8.634363E-3,3.4624857E-1,8.994102E-2,-2.1227723E-1,2.8846157E-1,-5.575593E-3,6.6284496E-1,-5.176491E-1,1.3456722E-1,-6.4854175E-1,8.8586695E-2,2.8261787E-1,-1.13071665E-1,-3.2655004E-1,1.7646877E-1,6.423241E-1,5.5954117E-2,3.1189793E-1,7.13773E-2,-2.1880919E-1,2.8299576E-2,-1.4857109E-2,-2.6343772E-1,2.2490028E-2,1.9407843E-1,-2.0924382E-1,-1.4475623E-2,-1.6946411E-1,-8.8257366E-5,-3.986454E-2,2.608313E-1,1.376806E-1,-3.3727273E-2],"categories":[],"categories_nodes":[],"categories_segments":[],"categories_sizes":[],"default_left":[0,0,0,0,0,0,0,0,0,0,0,0,0,0,0,0,0,0,0,0,0,0,0,0,0,0,0,0,0,0,0,0,0,0,0,0,0,0,0,0,0,0,0,0,0,0,0,0,0,0,0],"id":23,"left_children":[1,3,5,7,-1,9,11,13,-1,15,17,19,21,23,25,27,29,-1,-1,-1,-1,31,33,-1,35,37,-1,39,-1,41,43,45,-1,47,49,-1,-1,-1,-1,-1,-1,-1,-1,-1,-1,-1,-1,-1,-1,-1,-1],"loss_changes":[6.4750427E-1,2.1649678E0,1.4971945E0,1.8699557E0,0E0,1.7549516E0,2.126522E0,1.3896153E0,0E0,1.7774439E0,1.0695138E0,7.1997404E-2,1.94782E0,6.43206E-1,1.5589226E0,1.546968E0,2.5951457E0,0E0,0E0,0E0,0E0,1.444571E0,1.4509602E0,0E0,6.083214E-1,6.380042E-1,0E0,1.0471358E0,0E0,1.6886487E0,2.223367E0,9.8147976E-1,0E0,1.3603723E0,8.659454E-1,0E0,0E0,0E0,0E0,0E0,0E0,0E0,0E0,0E0,0E0,0E0,0E0,0E0,0E0,0E0,0E0],"parents":[2147483647,0,0,1,1,2,2,3,3,5,5,6,6,7,7,9,9,10,10,11,11,12,12,13,13,14,14,15,15,16,16,21,21,22,22,24,24,25,25,27,27,29,29,30,30,31,31,33,33,34,34],"right_children":[2,4,6,8,-1,10,12,14,-1,16,18,20,22,24,26,28,30,-1,-1,-1,-1,32,34,-1,36,38,-1,40,-1,42,44,46,-1,48,50,-1,-1,-1,-1,-1,-1,-1,-1,-1,-1,-1,-1,-1,-1,-1,-1],"split_conditions":[7.08E0,7.05E0,2.348E2,2.296E2,3.2782143E-1,1.69E2,2.376E2,9.7E1,-2.116908E-1,8.35E0,1.934E2,9.98E0,1.023E1,5.65E0,4E0,4E0,9.52E0,-2.617757E-1,8.634363E-3,3.4624857E-1,8.994102E-2,1.62E2,8.5E1,-5.575593E-3,9.2E0,2.031E2,1.3456722E-1,1E0,8.8586695E-2,9.11E0,9.91E0,2.669E2,1.7646877E-1,4.4E1,8.3E0,3.1189793E-1,7.13773E-2,-2.1880919E-1,2.8299576E-2,-1.4857109E-2,-2.6343772E-1,2.2490028E-2,1.9407843E-1,-2.0924382E-1,-1.4475623E-2,-1.6946411E-1,-8.8257366E-5,-3.986454E-2,2.608313E-1,1.376806E-1,-3.3727273E-2],"split_indices":[5,5,2,2,0,0,2,3,0,5,2,5,5,5,1,1,5,0,0,0,0,0,0,0,6,2,0,1,0,5,5,2,0,0,6,0,0,0,0,0,0,0,0,0,0,0,0,0,0,0,0],"split_type":[0,0,0,0,0,0,0,0,0,0,0,0,0,0,0,0,0,0,0,0,0,0,0,0,0,0,0,0,0,0,0,0,0,0,0,0,0,0,0,0,0,0,0,0,0,0,0,0,0,0,0],"sum_hessian":[1.4047702E2,1.4379813E1,1.2609721E2,1.3100726E1,1.2790864E0,9.42165E1,3.1880709E1,1.1297308E1,1.8034185E0,8.906382E1,5.1526785E0,2.1165957E0,2.9764114E1,6.1418624E0,5.1554456E0,8.518907E0,8.0544914E1,3.355166E0,1.7975124E0,1.0095497E0,1.107046E0,1.2691933E1,1.707218E1,1.797737E0,4.3441253E0,3.393161E0,1.7622846E0,6.9303718E0,1.5885347E0,2.1963121E1,5.8581795E1,1.1624587E1,1.0673463E0,6.070557E0,1.1001623E1,1.5356308E0,2.8084946E0,2.3785083E0,1.0146528E0,2.2570667E0,4.673305E0,1.4757408E1,7.2057133E0,4.8743916E0,5.3707405E1,6.294813E0,5.3297734E0,1.4695289E0,4.6010284E0,2.733617E0,8.268006E0],"tree_param":{"num_deleted":"0","num_feature":"7","num_nodes":"51","size_leaf_vector":"1"}},{"base_weights":[6.532668E-4,-6.077521E-2,6.806143E-2,-1.8042468E-1,6.077542E-2,-3.4059885E-1,1.0109488E-1,-2.441031E-1,4.1325966E-1,1.311403E-1,-4.5430875E-1,9.288385E-2,-1.9223599E-1,5.2003586E-1,3.385991E-2,-2.9353818E-1,2.2460437E-1,2.125904E-1,1.3184017E-2,3.3106032E-1,-7.135983E-2,-1.7244712E-1,-9.113899E-3,6.7917246E-1,-7.546384E-2,-1.9387847E-2,4.6407115E-1,-6.99574E-1,-1.5016496E-1,-7.17174E-2,2.1076873E-1,5.960568E-2,6.31826E-1,2.1487564E-1,-1.7492187E-1,9.608272E-1,-1.2886902E-2,6.339595E-1,-6.4210474E-2,-3.95945E-2,3.2239062E-1,8.992349E-2,-2.6953858E-1,-1.4830142E-1,5.9270062E-3,-1.3446523E-1,6.875728E-2,4.239491E-1,4.606749E-2,-1.0036297E-1,7.134731E-2,2.7271265E-2,3.5806423E-1,-1.5010683E-1,1.4760306E-1,-1.3981595E-2,3.1622976E-1,-1.8936639E-1,4.60164E-4,-1.460992E-1,1.17343634E-1],"categories":[],"categories_nodes":[],"categories_segments":[],"categories_sizes":[],"default_left":[0,0,0,0,0,0,0,0,0,0,0,0,0,0,0,0,0,0,0,0,0,0,0,0,0,0,0,0,0,0,0,0,0,0,0,0,0,0,0,0,0,0,0,0,0,0,0,0,0,0,0,0,0,0,0,0,0,0,0,0,0],"id":24,"left_children":[1,3,5,7,9,11,13,15,17,19,21,-1,-1,23,25,27,29,-1,-1,31,33,-1,-1,35,-1,37,39,41,43,-1,-1,45,47,-1,49,51,53,55,57,59,-1,-1,-1,-1,-1,-1,-1,-1,-1,-1,-1,-1,-1,-1,-1,-1,-1,-1,-1,-1,-1],"loss_changes":[5.795468E-1,1.0760417E0,9.352223E-1,1.5056162E0,1.4033697E0,1.2171335E0,1.7430986E0,8.580587E-1,4.02013E-1,1.3756311E0,2.2164726E-1,0E0,0E0,1.2237251E0,1.2674047E0,1.7204778E0,1.0163304E0,0E0,0E0,1.348862E0,1.5456676E0,0E0,0E0,1.4507082E0,0E0,1.5003513E0,1.9154843E0,1.841439E0,1.4395809E0,0E0,0E0,9.6653503E-1,2.754617E0,0E0,1.1464615E0,9.559345E-1,1.0143752E0,9.903902E-1,1.7735726E0,1.0195134E0,0E0,0E0,0E0,0E0,0E0,0E0,0E0,0E0,0E0,0E0,0E0,0E0,0E0,0E0,0E0,0E0,0E0,0E0,0E0,0E0,0E0],"parents":[2147483647,0,0,1,1,2,2,3,3,4,4,5,5,6,6,7,7,8,8,9,9,10,10,13,13,14,14,15,15,16,16,19,19,20,20,23,23,25,25,26,26,27,27,28,28,31,31,32,32,34,34,35,35,36,36,37,37,38,38,39,39],"right_children":[2,4,6,8,10,12,14,16,18,20,22,-1,-1,24,26,28,30,-1,-1,32,34,-1,-1,36,-1,38,40,42,44,-1,-1,46,48,-1,50,52,54,56,58,60,-1,-1,-1,-1,-1,-1,-1,-1,-1,-1,-1,-1,-1,-1,-1,-1,-1,-1,-1,-1,-1],"split_conditions":[1.03E2,2E0,9.96E1,1.409E1,1.45E2,3.1E1,1.381E2,2.707E2,5.35E1,8.8E1,2.232E2,9.288385E-2,-1.9223599E-1,1.305E1,1.59E2,9.1E0,1.003E1,2.125904E-1,1.3184017E-2,5.89E1,6.73E0,-1.7244712E-1,-9.113899E-3,1.2E1,-7.546384E-2,1.04E2,1.054E1,6.79E0,8.9E1,-7.17174E-2,2.1076873E-1,8.4E0,6.23E1,2.1487564E-1,1.21E1,8.8E0,1.237E2,5.92E1,1.529E2,5.7E1,3.2239062E-1,8.992349E-2,-2.6953858E-1,-1.4830142E-1,5.9270062E-3,-1.3446523E-1,6.875728E-2,4.239491E-1,4.606749E-2,-1.0036297E-1,7.134731E-2,2.7271265E-2,3.5806423E-1,-1.5010683E-1,1.4760306E-1,-1.3981595E-2,3.1622976E-1,-1.8936639E-1,4.60164E-4,-1.460992E-1,1.17343634E-1],"split_indices":[3,1,2,5,0,4,2,2,4,3,2,0,0,5,0,6,5,0,0,4,5,0,0,6,0,3,5,5,0,0,0,6,4,0,5,6,2,4,2,4,0,0,0,0,0,0,0,0,0,0,0,0,0,0,0,0,0,0,0,0,0],"split_type":[0,0,0,0,0,0,0,0,0,0,0,0,0,0,0,0,0,0,0,0,0,0,0,0,0,0,0,0,0,0,0,0,0,0,0,0,0,0,0,0,0,0,0,0,0,0,0,0,0,0,0,0,0,0,0,0,0,0,0,0,0],"sum_hessian":[1.3796182E2,7.2234E1,6.572782E1,3.615759E1,3.607641E1,4.2193294E0,6.1508488E1,3.3186813E1,2.9707747E0,3.239621E1,3.680199E0,1.3227766E0,2.896553E0,7.5748715E0,5.3933617E1,3.0358587E1,2.828225E0,1.1401198E0,1.8306547E0,1.5982492E1,1.641372E1,2.5884182E0,1.0917807E0,6.3789897E0,1.1958818E0,4.8843174E1,5.0904436E0,6.909985E0,2.3448603E1,1.6892931E0,1.1389318E0,9.030361E0,6.9521313E0,1.2199057E0,1.5193813E1,4.2577915E0,2.1211984E0,2.2919097E0,4.6551266E1,3.3018432E0,1.7886003E0,1.0628012E0,5.8471837E0,7.1193275E0,1.6329275E1,1.8493778E0,7.1809835E0,1.8974863E0,5.054645E0,1.1093206E1,4.100606E0,1.1921339E0,3.0656576E0,1.0838014E0,1.0373969E0,1.214183E0,1.0777267E0,3.943083E0,4.260818E1,1.5555311E0,1.746312E0],"tree_param":{"num_deleted":"0","num_feature":"7","num_nodes":"61","size_leaf_vector":"1"}},{"base_weights":[3.832657E-3,-1.4532723E-1,1.1825538E-2,7.6854125E-2,-4.728651E-2,-1.8941341E-2,3.7078062E-1,-5.1867115E-1,1.15586845E-2,5.320244E-2,-4.2583215E-1,5.214612E-1,-2.708936E-1,-2.371482E-1,1.2822379E-1,7.485035E-1,-8.018947E-2,-3.2600094E-2,8.2885617E-1,-6.689579E-1,1.0633128E-1,7.1913046E-1,-1.6791447E-1,1.11240484E-1,-2.0958422E-1,1.17506675E-1,-5.7569064E-2,-1.11128934E-1,1.2246652E0,-3.1878766E-1,4.0712133E-2,-4.6273064E-2,9.5070235E-2,3.5450122E-1,6.555383E-2,-2.60606E-1,1.3774778E-2,-1.0254268E-2,2.6308334E-1,4.1392952E-1,1.12952985E-1,-5.557429E-3,-1.710242E-1,-4.430571E-2,6.481546E-2],"categories":[],"categories_nodes":[],"categories_segments":[],"categories_sizes":[],"default_left":[0,0,0,0,0,0,0,0,0,0,0,0,0,0,0,0,0,0,0,0,0,0,0,0,0,0,0,0,0,0,0,0,0,0,0,0,0,0,0,0,0,0,0,0,0],"id":25,"left_children":[1,-1,3,5,7,9,11,13,15,17,19,21,23,-1,25,27,29,31,33,35,-1,37,-1,-1,-1,-1,-1,-1,39,41,43,-1,-1,-1,-1,-1,-1,-1,-1,-1,-1,-1,-1,-1,-1],"loss_changes":[5.400038E-1,0E0,5.251624E-1,1.836792E0,1.9945655E0,1.4892933E0,1.690413E0,1.504204E0,4.4353757E0,2.9105754E0,1.6855994E0,3.2485905E0,1.2759516E0,0E0,3.4681448E-1,4.322394E0,1.6990849E0,1.748348E0,6.7922163E-1,9.2054987E-1,0E0,1.4204807E0,0E0,0E0,0E0,0E0,0E0,0E0,1.8111563E-1,1.4811895E0,1.3426739E0,0E0,0E0,0E0,0E0,0E0,0E0,0E0,0E0,0E0,0E0,0E0,0E0,0E0,0E0],"parents":[2147483647,0,0,2,2,3,3,4,4,5,5,6,6,7,7,8,8,9,9,10,10,11,11,12,12,14,14,15,15,16,16,17,17,18,18,19,19,21,21,28,28,29,29,30,30],"right_children":[2,-1,4,6,8,10,12,14,16,18,20,22,24,-1,26,28,30,32,34,36,-1,38,-1,-1,-1,-1,-1,-1,40,42,44,-1,-1,-1,-1,-1,-1,-1,-1,-1,-1,-1,-1,-1,-1],"split_conditions":[4.1E0,-1.4532723E-1,1.01E2,9.1E1,1.119E2,1.305E1,1.26E1,1.262E1,1.381E2,1.251E1,2.217E2,6.95E1,9.4E1,-2.371482E-1,1.339E1,9E1,1.19E2,1.17E2,6.23E1,1.36E1,1.0633128E-1,8.4E1,-1.6791447E-1,1.11240484E-1,-2.0958422E-1,1.17506675E-1,-5.7569064E-2,-1.11128934E-1,1.34E2,1E2,5.92E1,-4.6273064E-2,9.5070235E-2,3.5450122E-1,6.555383E-2,-2.60606E-1,1.3774778E-2,-1.0254268E-2,2.6308334E-1,4.1392952E-1,1.12952985E-1,-5.557429E-3,-1.710242E-1,-4.430571E-2,6.481546E-2],"split_indices":[6,0,0,0,2,5,6,5,2,5,2,4,0,0,5,3,0,3,4,6,0,3,0,0,0,0,0,0,0,3,4,0,0,0,0,0,0,0,0,0,0,0,0,0,0],"split_type":[0,0,0,0,0,0,0,0,0,0,0,0,0,0,0,0,0,0,0,0,0,0,0,0,0,0,0,0,0,0,0,0,0,0,0,0,0,0,0,0,0,0,0,0,0],"sum_hessian":[1.3590314E2,1.2288704E0,1.3467426E2,6.398493E1,7.068933E1,4.896273E1,1.5022199E1,6.97792E0,6.371141E1,4.232716E1,6.635571E0,1.2317172E1,2.7050266E0,4.7570457E0,2.2208745E0,6.2612443E0,5.745017E1,3.8973854E1,3.3533027E0,5.1679406E0,1.4676304E0,1.0696428E1,1.6207435E0,1.1351191E0,1.5699077E0,1.095605E0,1.1252694E0,1.9353685E0,4.3258753E0,1.8770334E1,3.8679832E1,2.9325735E1,9.64812E0,1.5317729E0,1.82153E0,3.871204E0,1.2967366E0,1.9883974E0,8.708032E0,3.1272247E0,1.1986507E0,9.041099E0,9.729236E0,1.8721626E1,1.9958208E1],"tree_param":{"num_deleted":"0","num_feature":"7","num_nodes":"45","size_leaf_vector":"1"}},{"base_weights":[-8.986553E-4,7.635114E-3,-1.2405849E-1,-3.0911036E-3,3.4175327E-1,9.354173E-3,-1.582424E-1,-3.3454083E-2,1.9741233E-1,-9.157495E-3,2.2911192E-1,9.42315E-3,-2.6831558E-1,-1.3230917E-1,5.627075E-1,2.2854159E-2,-2.2098046E-2,1.27776E-1,-1.2670876E-1,1.0525268E-2,2.3761049E-1],"categories":[],"categories_nodes":[],"categories_segments":[],"categories_sizes":[],"default_left":[0,0,0,0,0,0,0,0,0,0,0,0,0,0,0,0,0,0,0,0,0],"id":26,"left_children":[1,3,-1,5,7,9,-1,-1,-1,11,13,15,-1,17,19,-1,-1,-1,-1,-1,-1],"loss_changes":[4.8111933E-1,4.811692E-1,0E0,8.58487E-1,6.7205346E-1,5.2582777E-1,0E0,0E0,0E0,1.9772748E0,1.2850325E0,6.613611E-1,0E0,1.0913104E0,6.270158E-1,0E0,0E0,0E0,0E0,0E0,0E0],"parents":[2147483647,0,0,1,1,3,3,4,4,5,5,9,9,10,10,11,11,13,13,14,14],"right_children":[2,4,-1,6,8,10,-1,-1,-1,12,14,16,-1,18,20,-1,-1,-1,-1,-1,-1],"split_conditions":[1.89E2,1.67E1,-1.2405849E-1,1.58E1,1.92E2,1.59E2,-1.582424E-1,-3.3454083E-2,1.9741233E-1,1.55E2,1.05E2,1.054E1,-2.6831558E-1,1E0,1.04E1,2.2854159E-2,-2.2098046E-2,1.27776E-1,-1.2670876E-1,1.0525268E-2,2.3761049E-1],"split_indices":[0,6,0,6,2,0,0,0,0,0,3,5,0,1,6,0,0,0,0,0,0],"split_type":[0,0,0,0,0,0,0,0,0,0,0,0,0,0,0,0,0,0,0,0,0],"sum_hessian":[1.3473506E2,1.3296663E2,1.7684429E0,1.297907E2,3.1759307E0,1.2774116E2,2.049539E0,1.5714054E0,1.6045254E0,1.1870054E2,9.040612E0,1.17229294E2,1.4712497E0,4.628946E0,4.411667E0,6.504709E1,5.2182205E1,1.4226093E0,3.2063365E0,1.6858802E0,2.7257867E0],"tree_param":{"num_deleted":"0","num_feature":"7","num_nodes":"21","size_leaf_vector":"1"}},{"base_weights":[-2.3901446E-3,-2.246748E-1,1.1576178E-2,-4.9426463E-1,5.269173E-2,5.608125E-1,-2.54565E-3,-4.1946642E-2,-2.0069024E-1,-1.2852585E-1,3.3779866E-1,2.00349E-2,2.4397308E-1,-3.300325E-2,1.19733505E-1,1.9987564E-1,-6.648635E-2,-2.1111833E-1,-9.745133E-3,3.0202726E-1,-4.3087208E-1,2.5523838E-1,-3.0140929E-2,5.379069E-1,-2.364287E-1,-2.5683373E-1,1.2346318E-1,-5.7778813E-2,1.6633293E-2,2.914293E-1,4.700501E-2,-1.4337784E-1,1.6689798E-1],"categories":[],"categories_nodes":[],"categories_segments":[],"categories_sizes":[],"default_left":[0,0,0,0,0,0,0,0,0,0,0,0,0,0,0,0,0,0,0,0,0,0,0,0,0,0,0,0,0,0,0,0,0],"id":27,"left_children":[1,3,5,7,9,11,13,-1,-1,-1,15,-1,-1,17,19,-1,-1,-1,21,23,25,-1,27,29,31,-1,-1,-1,-1,-1,-1,-1,-1],"loss_changes":[4.2341694E-1,6.2890065E-1,9.9800986E-1,1.6559398E-1,8.1375414E-1,3.4791863E-1,4.7419575E-1,0E0,0E0,0E0,8.131227E-1,0E0,0E0,1.5822663E0,2.6790242E0,0E0,0E0,0E0,1.7714521E0,2.62497E0,2.7626543E0,0E0,1.375071E0,2.1583657E0,1.5457845E0,0E0,0E0,0E0,0E0,0E0,0E0,0E0,0E0],"parents":[2147483647,0,0,1,1,2,2,3,3,4,4,5,5,6,6,10,10,13,13,14,14,18,18,19,19,20,20,22,22,23,23,24,24],"right_children":[2,4,6,8,10,12,14,-1,-1,-1,16,-1,-1,18,20,-1,-1,-1,22,24,26,-1,28,30,32,-1,-1,-1,-1,-1,-1,-1,-1],"split_conditions":[6.2E0,2.18E2,6.6E0,1.552E2,9.7E1,9.5E1,1.246E1,-4.1946642E-2,-2.0069024E-1,-1.2852585E-1,1.1E2,2.00349E-2,2.4397308E-1,7.3E0,1.14E2,1.9987564E-1,-6.648635E-2,-2.1111833E-1,7.5E0,1.2E2,6.41E1,2.5523838E-1,1.02E1,9.8E0,2.462E2,-2.5683373E-1,1.2346318E-1,-5.7778813E-2,1.6633293E-2,2.914293E-1,4.700501E-2,-1.4337784E-1,1.6689798E-1],"split_indices":[6,2,6,2,3,3,5,0,0,0,3,0,0,6,3,0,0,0,6,0,4,0,6,6,2,0,0,0,0,0,0,0,0],"split_type":[0,0,0,0,0,0,0,0,0,0,0,0,0,0,0,0,0,0,0,0,0,0,0,0,0,0,0,0,0,0,0,0,0],"sum_hessian":[1.345504E2,7.062259E0,1.2748814E2,3.184781E0,3.8774781E0,2.2253604E0,1.2526277E2,1.6458902E0,1.5388908E0,1.2557564E0,2.6217217E0,1.1801885E0,1.0451717E0,1.0086834E2,2.4394438E1,1.5315372E0,1.0901846E0,2.3999705E0,9.846837E1,1.866599E1,5.7284474E0,1.337149E0,9.713122E1,1.2980629E1,5.685361E0,3.7960129E0,1.9324348E0,3.308328E1,6.404794E1,5.3492804E0,7.631349E0,4.662235E0,1.023126E0],"tree_param":{"num_deleted":"0","num_feature":"7","num_nodes":"33","size_leaf_vector":"1"}},{"base_weights":[-2.064534E-3,2.030907E-2,-1.4771627E-1,-1.0245475E-2,3.3534727E-1,-3.985161E-1,8.894229E-2,5.7640392E-3,-3.8274226E-1,4.885746E-1,-2.0152691E-1,-1.652316E-1,-2.1853703E-1,4.4183984E-1,-7.832057E-2,-4.3964956E-2,1.1069408E-1,-5.942158E-1,5.17978E-2,2.7925873E-1,1.7549004E-1,-1.0225346E-1,1.1904641E-2,9.6456155E-2,-3.2894954E-1,1.1230412E-2,1.8205349E-1,1.3429794E-1,-2.4831718E-1,-2.260317E-3,-4.4815618E-1,6.7939186E-1,-7.6056673E-4,-2.462623E-1,-1.3876215E-2,-1.5904364E-1,6.856564E-1,-1.9418995E-1,8.606642E-2,-4.965856E-1,6.699715E-2,7.3852744E-3,-1.4642647E-1,1.3488893E-1,-2.1179087E-1,-2.5247745E-3,2.914256E-1,-6.96438E-2,7.261075E-2,2.889139E-1,-1.7124755E-2,1.3253415E-1,-8.553173E-2,1.4360256E-2,-2.3762153E-1],"categories":[],"categories_nodes":[],"categories_segments":[],"categories_sizes":[],"default_left":[0,0,0,0,0,0,0,0,0,0,0,0,0,0,0,0,0,0,0,0,0,0,0,0,0,0,0,0,0,0,0,0,0,0,0,0,0,0,0,0,0,0,0,0,0,0,0,0,0,0,0,0,0,0,0],"id":28,"left_children":[1,3,5,7,9,11,13,15,17,19,21,23,-1,25,27,29,31,33,-1,-1,35,-1,-1,-1,37,-1,-1,-1,39,41,43,45,47,-1,-1,-1,49,-1,51,53,-1,-1,-1,-1,-1,-1,-1,-1,-1,-1,-1,-1,-1,-1,-1],"loss_changes":[4.417173E-1,1.1352432E0,1.1066244E0,6.4718693E-1,9.560715E-1,5.6808233E-1,6.309501E-1,5.5111045E-1,6.278064E-1,1.0001528E0,1.15103446E-1,6.2638056E-1,0E0,2.0411348E-1,7.9998636E-1,1.2082686E0,2.1520274E0,3.922242E-1,0E0,0E0,2.5782087E0,0E0,0E0,0E0,7.66915E-1,0E0,0E0,0E0,8.679363E-1,8.742955E-1,1.8693014E0,1.125637E0,1.7067779E0,0E0,0E0,0E0,8.8045776E-1,0E0,5.510116E-1,7.6924133E-1,0E0,0E0,0E0,0E0,0E0,0E0,0E0,0E0,0E0,0E0,0E0,0E0,0E0,0E0,0E0],"parents":[2147483647,0,0,1,1,2,2,3,3,4,4,5,5,6,6,7,7,8,8,9,9,10,10,11,11,13,13,14,14,15,15,16,16,17,17,20,20,24,24,28,28,29,29,30,30,31,31,32,32,36,36,38,38,39,39],"right_children":[2,4,6,8,10,12,14,16,18,20,22,24,-1,26,28,30,32,34,-1,-1,36,-1,-1,-1,38,-1,-1,-1,40,42,44,46,48,-1,-1,-1,50,-1,52,54,-1,-1,-1,-1,-1,-1,-1,-1,-1,-1,-1,-1,-1,-1,-1],"split_conditions":[7.58E1,6.9E1,1.32E1,6.72E1,1.183E1,1.06E2,1.37E1,1.126E1,1.14E1,7.06E1,8.9E0,7E1,-2.1853703E-1,8.6E1,6.9E1,6.38E1,1.155E1,6.8E1,5.17978E-2,2.7925873E-1,1.02E2,-1.0225346E-1,1.1904641E-2,9.6456155E-2,1.27E2,1.1230412E-2,1.8205349E-1,1.3429794E-1,1.15E2,1.103E1,1E0,9.2E0,1.847E2,-2.462623E-1,-1.3876215E-2,-1.5904364E-1,1.803E2,-1.9418995E-1,1.37E2,8.6E1,6.699715E-2,7.3852744E-3,-1.4642647E-1,1.3488893E-1,-2.1179087E-1,-2.5247745E-3,2.914256E-1,-6.96438E-2,7.261075E-2,2.889139E-1,-1.7124755E-2,1.3253415E-1,-8.553173E-2,1.4360256E-2,-2.3762153E-1],"split_indices":[4,4,6,4,5,3,6,5,6,4,6,0,0,0,0,4,5,4,0,0,0,0,0,0,0,0,0,0,3,5,1,6,2,0,0,0,2,0,0,3,0,0,0,0,0,0,0,0,0,0,0,0,0,0,0],"split_type":[0,0,0,0,0,0,0,0,0,0,0,0,0,0,0,0,0,0,0,0,0,0,0,0,0,0,0,0,0,0,0,0,0,0,0,0,0,0,0,0,0,0,0,0,0,0,0,0,0,0,0,0,0,0,0],"sum_hessian":[1.3362732E2,1.1658E2,1.7047323E1,1.0715488E2,9.425129E0,7.9443445E0,9.102978E0,1.03683205E2,3.4716675E0,7.4024005E0,2.022728E0,5.533017E0,2.4113271E0,2.399285E0,6.703693E0,7.073914E1,3.294406E1,2.4637067E0,1.0079608E0,2.2502801E0,5.15212E0,1.0203338E0,1.0023942E0,1.150017E0,4.3830004E0,1.0507962E0,1.348489E0,1.2384634E0,5.4652295E0,6.5034454E1,5.704693E0,4.5634346E0,2.8380625E1,1.3904938E0,1.0732129E0,2.1454644E0,3.006656E0,2.1636274E0,2.219373E0,3.5458372E0,1.9193922E0,6.2524673E1,2.509781E0,1.1067244E0,4.5979686E0,1.649519E0,2.9139159E0,1.4554256E1,1.3826368E1,1.9731362E0,1.0335199E0,1.0361472E0,1.1832258E0,1.542212E0,2.0036252E0],"tree_param":{"num_deleted":"0","num_feature":"7","num_nodes":"55","size_leaf_vector":"1"}},{"base_weights":[-3.0390145E-3,-1.4067368E-2,3.1175745E-1,1.613265E-1,-3.589522E-2,-1.5570901E-2,4.611105E-1,3.1553287E-2,2.3562087E-1,-4.475431E-1,-9.421941E-3,1.7943382E-1,2.3694297E-2,5.689994E-1,-1.3392222E-1,1.4515773E-2,-6.9982004E-1,-3.298254E-1,1.481251E-2,2.1739851E-1,3.4118004E-2,-3.6161223E-1,3.113579E-1,9.697203E-2,-9.824271E-2,-7.6653324E-2,-2.4617626E-1,2.842561E-1,-5.9571505E-1,-2.0326133E-1,5.546153E-2,-1.6896634E-1,5.4395493E-2,1.8847834E-1,-6.5261595E-2,2.041416E-1,-7.437184E-2,-2.3134172E-1,-4.0400133E-2,-1.6242409E-1,3.3923563E-2,1.5394832E-1,5.049262E-3],"categories":[],"categories_nodes":[],"categories_segments":[],"categories_sizes":[],"default_left":[0,0,0,0,0,0,0,0,0,0,0,0,0,0,0,0,0,0,0,0,0,0,0,0,0,0,0,0,0,0,0,0,0,0,0,0,0,0,0,0,0,0,0],"id":29,"left_children":[1,3,5,7,9,-1,11,13,-1,15,17,-1,-1,19,21,23,25,27,29,-1,-1,31,33,-1,-1,-1,-1,35,37,39,41,-1,-1,-1,-1,-1,-1,-1,-1,-1,-1,-1,-1],"loss_changes":[4.6667138E-1,5.0199366E-1,2.710753E-1,1.1517086E0,1.2608057E0,0E0,1.269232E-1,1.2383746E0,0E0,8.2527435E-1,8.597066E-1,0E0,0E0,1.4910233E-1,1.2076557E0,4.7002766E-1,3.412366E-2,1.4403393E0,9.2701846E-1,0E0,0E0,9.350301E-1,8.392366E-1,0E0,0E0,0E0,0E0,8.073724E-1,3.6163092E-1,1.820364E0,1.5448344E0,0E0,0E0,0E0,0E0,0E0,0E0,0E0,0E0,0E0,0E0,0E0,0E0],"parents":[2147483647,0,0,1,1,2,2,3,3,4,4,6,6,7,7,9,9,10,10,13,13,14,14,15,15,16,16,17,17,18,18,21,21,22,22,27,27,28,28,29,29,30,30],"right_children":[2,4,6,8,10,-1,12,14,-1,16,18,-1,-1,20,22,24,26,28,30,-1,-1,32,34,-1,-1,-1,-1,36,38,40,42,-1,-1,-1,-1,-1,-1,-1,-1,-1,-1,-1,-1],"split_conditions":[2.844E2,7.08E0,8.35E0,7.05E0,7.87E0,-1.5570901E-2,7.51E1,7.4E1,2.3562087E-1,1.04E1,4.5E1,1.7943382E-1,2.3694297E-2,5.8E1,3E0,7.56E0,1.752E2,1E0,8.1E1,2.1739851E-1,3.4118004E-2,1.36E2,4.41E1,9.697203E-2,-9.824271E-2,-7.6653324E-2,-2.4617626E-1,1.03E1,6.2E1,2E0,8.5E1,-1.6896634E-1,5.4395493E-2,1.8847834E-1,-6.5261595E-2,2.041416E-1,-7.437184E-2,-2.3134172E-1,-4.0400133E-2,-1.6242409E-1,3.3923563E-2,1.5394832E-1,5.049262E-3],"split_indices":[2,5,5,5,5,0,4,3,0,6,0,0,0,0,1,5,2,1,3,0,0,0,4,0,0,0,0,5,4,1,3,0,0,0,0,0,0,0,0,0,0,0,0],"split_type":[0,0,0,0,0,0,0,0,0,0,0,0,0,0,0,0,0,0,0,0,0,0,0,0,0,0,0,0,0,0,0,0,0,0,0,0,0,0,0,0,0,0,0],"sum_hessian":[1.3215884E2,1.2860858E2,3.5502677E0,1.3526658E1,1.1508192E2,1.2235416E0,2.326726E0,1.2067789E1,1.4588695E0,5.992694E0,1.09089226E2,1.296641E0,1.0300851E0,2.266824E0,9.800964E0,2.4492395E0,3.5434544E0,6.7842984E0,1.02304924E2,1.2483068E0,1.0185173E0,6.609272E0,3.1916926E0,1.3160435E0,1.1331959E0,1.4231926E0,2.120262E0,2.0290532E0,4.7552457E0,1.5445031E1,8.685989E1,4.792339E0,1.8169332E0,1.8783531E0,1.3133395E0,1.0033365E0,1.0257165E0,2.9574046E0,1.7978408E0,7.1212544E0,8.323776E0,5.804451E0,8.105544E1],"tree_param":{"num_deleted":"0","num_feature":"7","num_nodes":"43","size_leaf_vector":"1"}},{"base_weights":[-2.1018728E-3,-1.5046268E-2,2.6238507E-1,-3.6143076E-2,1.9746059E-1,5.536625E-1,-8.8661805E-2,-8.7914206E-2,4.7384676E-2,3.7525627E-1,-3.235046E-1,1.9411226E-1,5.4922372E-2,-1.3169006E-1,9.3151055E-2,-1.0033332E-2,-2.401909E-1,-8.131206E-2,1.8863456E-1,-2.6019964E-1,6.285486E-1,3.687781E-2,-1.7362563E-1,-2.857857E-1,1.527312E-1,3.93285E-1,-3.7455896E-1,2.9094197E-2,-2.2185908E-1,4.7886714E-1,-1.0857001E-1,-1.8230006E-1,5.863827E-2,2.7461958E-1,2.2166242E-1,4.7827277E-2,-1.5072896E-1,-7.1694665E-2,1.0102828E-1,-8.000951E-2,2.3746254E-1,-4.0619392E-2,-1.9773959E-1,6.662133E-2,-1.17305234E-1,2.7221176E-1,9.07255E-3,-8.01575E-2,1.6074231E-1,-5.3161595E-2,1.2458144E-1],"categories":[],"categories_nodes":[],"categories_segments":[],"categories_sizes":[],"default_left":[0,0,0,0,0,0,0,0,0,0,0,0,0,0,0,0,0,0,0,0,0,0,0,0,0,0,0,0,0,0,0,0,0,0,0,0,0,0,0,0,0,0,0,0,0,0,0,0,0,0,0],"id":30,"left_children":[1,3,5,7,9,11,13,15,17,19,21,-1,-1,-1,-1,23,25,27,29,31,33,-1,-1,35,37,39,41,43,-1,45,47,-1,-1,-1,49,-1,-1,-1,-1,-1,-1,-1,-1,-1,-1,-1,-1,-1,-1,-1,-1],"loss_changes":[4.547142E-1,5.741119E-1,6.827847E-1,5.053129E-1,1.1936197E0,3.5278797E-3,6.4980036E-1,8.5023516E-1,8.332631E-1,1.6271952E0,4.6797037E-1,0E0,0E0,0E0,0E0,2.225455E0,2.2143865E0,1.7832248E0,1.9283025E0,6.410731E-1,5.9012413E-1,0E0,0E0,1.8539861E0,2.3310285E0,1.456311E0,1.3091667E0,1.847884E0,0E0,2.1237078E0,1.3249621E0,0E0,0E0,0E0,3.9244705E-1,0E0,0E0,0E0,0E0,0E0,0E0,0E0,0E0,0E0,0E0,0E0,0E0,0E0,0E0,0E0,0E0],"parents":[2147483647,0,0,1,1,2,2,3,3,4,4,5,5,6,6,7,7,8,8,9,9,10,10,15,15,16,16,17,17,18,18,19,19,20,20,23,23,24,24,25,25,26,26,27,27,29,29,30,30,34,34],"right_children":[2,4,6,8,10,12,14,16,18,20,22,-1,-1,-1,-1,24,26,28,30,32,34,-1,-1,36,38,40,42,44,-1,46,48,-1,-1,-1,50,-1,-1,-1,-1,-1,-1,-1,-1,-1,-1,-1,-1,-1,-1,-1,-1],"split_conditions":[5E0,2.656E2,1.823E2,1.08E2,1.15E2,1.058E1,1.08E2,9.7E1,1.033E1,8.3E1,1.06E2,1.9411226E-1,5.4922372E-2,-1.3169006E-1,9.3151055E-2,1E1,7.8E0,1.35E2,1.204E1,9.4E1,2.717E2,3.687781E-2,-1.7362563E-1,7.6E1,1.493E2,5.77E1,5.72E1,9.34E0,-2.2185908E-1,5.23E1,1.5E1,-1.8230006E-1,5.863827E-2,2.7461958E-1,8.32E0,4.7827277E-2,-1.5072896E-1,-7.1694665E-2,1.0102828E-1,-8.000951E-2,2.3746254E-1,-4.0619392E-2,-1.9773959E-1,6.662133E-2,-1.17305234E-1,2.7221176E-1,9.07255E-3,-8.01575E-2,1.6074231E-1,-5.3161595E-2,1.2458144E-1],"split_indices":[1,2,2,3,3,5,0,3,5,3,0,0,0,0,0,6,6,3,5,0,2,0,0,3,2,4,4,5,0,4,5,0,0,0,5,0,0,0,0,0,0,0,0,0,0,0,0,0,0,0,0],"split_type":[0,0,0,0,0,0,0,0,0,0,0,0,0,0,0,0,0,0,0,0,0,0,0,0,0,0,0,0,0,0,0,0,0,0,0,0,0,0,0,0,0,0,0,0,0,0,0,0,0,0,0],"sum_hessian":[1.3066351E2,1.25466125E2,5.197392E0,1.1489021E2,1.0575908E1,2.525068E0,2.672324E0,7.089589E1,4.3994324E1,8.093454E0,2.4824538E0,1.4210231E0,1.1040449E0,1.3701643E0,1.3021595E0,4.76113E1,2.328459E1,2.3242117E1,2.0752207E1,2.2988544E0,5.7946E0,1.0916139E0,1.3908399E0,1.739137E1,3.0219933E1,3.7374628E0,1.9547127E1,2.0722095E1,2.5200229E0,1.0190006E1,1.05622015E1,1.1150044E0,1.1838499E0,2.6656103E0,3.1289897E0,5.7791557E0,1.1612214E1,9.564011E0,2.0655922E1,1.5308703E0,2.2065926E0,1.142289E1,8.124237E0,1.452259E1,6.199505E0,4.688865E0,5.501141E0,8.945503E0,1.6166987E0,1.0501752E0,2.0788145E0],"tree_param":{"num_deleted":"0","num_feature":"7","num_nodes":"51","size_leaf_vector":"1"}},{"base_weights":[-2.7456665E-3,-1.3178921E-1,4.1289064E-3,1.588231E-2,-2.5477904E-1,4.568973E-3,3.925451E-1,-1.7654814E-1,-3.9739184E-2,-8.34983E-3,3.2410258E-1,4.4475865E-4,1.633357E-1,1.1710652E-1,-2.8640524E-1,2.8634768E-3,-1.8928765E-1,-8.289379E-2,6.124831E-1,1.101016E-2,-1.3097534E-1,3.9636907E-3,-1.20342165E-1,2.4466522E-1,2.8856069E-2],"categories":[],"categories_nodes":[],"categories_segments":[],"categories_sizes":[],"default_left":[0,0,0,0,0,0,0,0,0,0,0,0,0,0,0,0,0,0,0,0,0,0,0,0,0],"id":31,"left_children":[1,-1,3,5,7,9,11,-1,13,15,17,-1,-1,-1,19,21,-1,-1,23,-1,-1,-1,-1,-1,-1],"loss_changes":[3.910089E-1,0E0,3.955775E-1,5.266866E-1,3.8177344E-1,5.0390047E-1,2.1332353E-1,0E0,5.8982426E-1,8.2332355E-1,9.9050176E-1,0E0,0E0,0E0,1.8296194E-1,4.927344E-1,0E0,0E0,2.900839E-1,0E0,0E0,0E0,0E0,0E0,0E0],"parents":[2147483647,0,0,2,2,3,3,4,4,5,5,6,6,8,8,9,9,10,10,14,14,15,15,18,18],"right_children":[2,-1,4,6,8,10,12,-1,14,16,18,-1,-1,-1,20,22,-1,-1,24,-1,-1,-1,-1,-1,-1],"split_conditions":[4.1E0,-1.3178921E-1,9.09E1,2.844E2,2.168E2,8.61E1,6.5E1,-1.7654814E-1,2.348E2,8.46E1,1.34E1,4.4475865E-4,1.633357E-1,1.1710652E-1,1.083E1,1.83E2,-1.8928765E-1,-8.289379E-2,8.8E1,1.101016E-2,-1.3097534E-1,3.9636907E-3,-1.20342165E-1,2.4466522E-1,2.8856069E-2],"split_indices":[6,0,4,2,2,4,4,0,2,4,6,0,0,0,5,0,0,0,4,0,0,0,0,0,0],"split_type":[0,0,0,0,0,0,0,0,0,0,0,0,0,0,0,0,0,0,0,0,0,0,0,0,0],"sum_hessian":[1.2868387E2,