{"learner":{"attributes":{"scikit_learn":"{\"_estimator_type\": \"classifier\"}"},"feature_names":["preferredlogindevice","citytier","warehousetohome","gender","hourspendonapp","numberofdeviceregistered","preferedordercat","satisfactionscore","maritalstatus","numberofaddress","complain"],"feature_types":["int","int","float","int","float","int","int","int","int","int","int"],"gradient_booster":{"model":{"gbtree_model_param":{"num_parallel_tree":"1","num_trees":"100"},"iteration_indptr":[0,1,2,3,4,5,6,7,8,9,10,11,12,13,14,15,16,17,18,19,20,21,22,23,24,25,26,27,28,29,30,31,32,33,34,35,36,37,38,39,40,41,42,43,44,45,46,47,48,49,50,51,52,53,54,55,56,57,58,59,60,61,62,63,64,65,66,67,68,69,70,71,72,73,74,75,76,77,78,79,80,81,82,83,84,85,86,87,88,89,90,91,92,93,94,95,96,97,98,99,100],"tree_info":[0,0,0,0,0,0,0,0,0,0,0,0,0,0,0,0,0,0,0,0,0,0,0,0,0,0,0,0,0,0,0,0,0,0,0,0,0,0,0,0,0,0,0,0,0,0,0,0,0,0,0,0,0,0,0,0,0,0,0,0,0,0,0,0,0,0,0,0,0,0,0,0,0,0,0,0,0,0,0,0,0,0,0,0,0,0,0,0,0,0,0,0,0,0,0,0,0,0,0,0],"trees":[{"base_weights":[-2.4654919E-1,-5.99948E-1,6.297849E-1,-7.7404606E-1,-2.2683153E-1,-1.7809512E-1,1.7078792E0,-9.425441E-1,-5.688169E-1,-6.532149E-1,2.794525E-1,-7.6472366E-1,6.252004E-1,1.0894308E0,2.625346E0,-1.038563E0,-6.9117004E-1,4.200383E-2,-6.7400557E-1,-7.5915897E-1,1.307708E0,-4.6131396E-1,5.90093E-1,-8.4510684E-1,8.9497924E-1,-2.2441724E-1,2.3942888E0,1.3581601E0,-7.31723E-1,1.8967324E0,3.7809992E0,-1.1347405E0,-7.8248554E-1,-8.772981E-1,-7.222647E-2,1.3782471E0,-3.6546597E-1,-7.780775E-1,-1.2697762E-1,-9.774015E-1,-4.7710165E-1,7.597269E-1,-2.371895E-1,-8.0941033E-1,1.1537025E0,1.3802828E0,3.0873984E-1,-9.470624E-1,-1.5518329E-1,-2.1682255E-1,6.1389667E-1,-7.22853E-1,1.2508925E0,1.3675709E0,3.3381646E0,5.8329225E-1,1.8884883E0,-3.241987E-1,2.1179356E-1,4.1073874E-1,2.3920193E0,1.2031744E0,2.983848E-1,-3.4947377E-1,-2.2905129E-1,-2.895305E-1,3.7509236E-3,-1.0865348E-1,-2.94922E-1,-2.4941865E-1,3.7728736E-1,7.846338E-1,1.5966963E-2,-2.2283675E-1,4.7668323E-2,-3.5226166E-1,-1.8113601E-1,-1.8904115E-1,4.834434E-1,-3.2276487E-1,-6.7690805E-2,-2.581472E-1,9.295167E-2,-3.079645E-1,1.5838224E-1,2.5112256E-2,6.1389667E-1,6.3782215E-1,-4.733673E-2,-1.5380332E-1,1.5963936E-1,1.5966963E-2,-3.0005306E-1,4.3317243E-1,-3.255255E-1,-2.9224882E-1,2.2879062E-2,-3.0161142E-3,6.426775E-1,-3.0161142E-3,6.861561E-1,4.558665E-1,1.137333E0,1.4605145E-2,3.7526777E-1,4.0236968E-1,8.0341303E-1,-7.20295E-2,2.8882903E-1,9.415482E-1,4.4035605E-1],"categories":[],"categories_nodes":[],"categories_segments":[],"categories_sizes":[],"default_left":[0,0,0,0,0,0,0,0,0,1,0,1,0,0,1,0,0,0,0,0,0,0,0,0,0,0,0,0,0,0,0,0,0,0,0,0,0,0,0,0,0,0,0,1,0,0,1,0,0,0,0,0,0,0,0,0,0,0,0,0,0,0,0,0,0,0,0,0,0,0,0,0,0,0,0,0,0,0,0,0,0,0,0,0,0,0,0,0,0,0,0,0,0,0,0,0,0,0,0,0,0,0,0,0,0,0,0,0,0,0,0],"id":0,"left_children":[1,3,5,7,9,11,13,15,17,19,21,23,25,27,29,31,33,35,37,39,41,43,45,47,49,51,53,55,57,59,61,63,65,67,69,71,73,75,77,79,81,-1,-1,83,85,87,89,91,93,-1,-1,95,97,99,101,103,105,-1,-1,107,109,-1,-1,-1,-1,-1,-1,-1,-1,-1,-1,-1,-1,-1,-1,-1,-1,-1,-1,-1,-1,-1,-1,-1,-1,-1,-1,-1,-1,-1,-1,-1,-1,-1,-1,-1,-1,-1,-1,-1,-1,-1,-1,-1,-1,-1,-1,-1,-1,-1,-1],"loss_changes":[2.3243777E2,3.4544388E1,1.882818E2,1.2052139E1,3.7196815E1,5.904311E1,4.965094E1,4.070404E0,1.0735577E1,2.0391571E1,1.8471348E1,1.0398872E1,8.020395E1,2.8884956E1,2.3608643E1,2.598526E0,6.5978394E0,1.4346151E1,7.998001E0,5.0259705E0,1.5246342E1,1.43856945E1,1.2059504E1,4.738373E0,8.602223E0,2.790701E1,1.2182907E1,1.9450417E1,4.7652955E0,1.6995193E1,4.4093933E0,2.383728E-1,6.0908947E0,2.0611992E0,1.5641849E1,9.943412E0,4.1290684E0,7.5273438E0,2.1945763E1,3.4107323E0,1.2598709E1,0E0,0E0,6.4289722E0,4.2748704E0,1.6919655E1,8.108596E0,3.2576714E0,1.6641903E1,0E0,0E0,5.713807E0,1.08560295E1,1.2656155E1,1.0847092E0,7.708246E0,9.044403E0,0E0,0E0,2.8587413E0,7.8886642E0,0E0,0E0,0E0,0E0,0E0,0E0,0E0,0E0,0E0,0E0,0E0,0E0,0E0,0E0,0E0,0E0,0E0,0E0,0E0,0E0,0E0,0E0,0E0,0E0,0E0,0E0,0E0,0E0,0E0,0E0,0E0,0E0,0E0,0E0,0E0,0E0,0E0,0E0,0E0,0E0,0E0,0E0,0E0,0E0,0E0,0E0,0E0,0E0,0E0,0E0],"parents":[2147483647,0,0,1,1,2,2,3,3,4,4,5,5,6,6,7,7,8,8,9,9,10,10,11,11,12,12,13,13,14,14,15,15,16,16,17,17,18,18,19,19,20,20,21,21,22,22,23,23,24,24,25,25,26,26,27,27,28,28,29,29,30,30,31,31,32,32,33,33,34,34,35,35,36,36,37,37,38,38,39,39,40,40,43,43,44,44,45,45,46,46,47,47,48,48,51,51,52,52,53,53,54,54,55,55,56,56,59,59,60,60],"right_children":[2,4,6,8,10,12,14,16,18,20,22,24,26,28,30,32,34,36,38,40,42,44,46,48,50,52,54,56,58,60,62,64,66,68,70,72,74,76,78,80,82,-1,-1,84,86,88,90,92,94,-1,-1,96,98,100,102,104,106,-1,-1,108,110,-1,-1,-1,-1,-1,-1,-1,-1,-1,-1,-1,-1,-1,-1,-1,-1,-1,-1,-1,-1,-1,-1,-1,-1,-1,-1,-1,-1,-1,-1,-1,-1,-1,-1,-1,-1,-1,-1,-1,-1,-1,-1,-1,-1,-1,-1,-1,-1,-1,-1],"split_conditions":[1E0,2E0,3E0,1.5E1,3E0,3E0,2E0,6E0,1E0,3.3E1,3E0,3.5E1,2E0,5E0,1.4E1,3E0,5E0,3E0,5E0,3E0,1E0,2E0,1E0,8E0,4E0,1.9E1,1.8E1,4E0,5E0,2E0,7E0,1.4E1,3E0,8E0,3E0,1E0,3E0,3E0,7E0,5E0,6E0,7.597269E-1,-2.371895E-1,2.4E1,3E0,4E0,8E0,2E0,1E0,-2.1682255E-1,6.1389667E-1,5E0,1E0,3E0,1E0,1.9E1,2E0,-3.241987E-1,2.1179356E-1,1E1,1E0,1.2031744E0,2.983848E-1,-3.4947377E-1,-2.2905129E-1,-2.895305E-1,3.7509236E-3,-1.0865348E-1,-2.94922E-1,-2.4941865E-1,3.7728736E-1,7.846338E-1,1.5966963E-2,-2.2283675E-1,4.7668323E-2,-3.5226166E-1,-1.8113601E-1,-1.8904115E-1,4.834434E-1,-3.2276487E-1,-6.7690805E-2,-2.581472E-1,9.295167E-2,-3.079645E-1,1.5838224E-1,2.5112256E-2,6.1389667E-1,6.3782215E-1,-4.733673E-2,-1.5380332E-1,1.5963936E-1,1.5966963E-2,-3.0005306E-1,4.3317243E-1,-3.255255E-1,-2.9224882E-1,2.2879062E-2,-3.0161142E-3,6.426775E-1,-3.0161142E-3,6.861561E-1,4.558665E-1,1.137333E0,1.4605145E-2,3.7526777E-1,4.0236968E-1,8.0341303E-1,-7.20295E-2,2.8882903E-1,9.415482E-1,4.4035605E-1],"split_indices":[10,8,6,2,6,1,8,9,6,2,7,2,8,6,2,1,7,7,5,1,0,1,0,9,7,2,2,5,7,7,9,2,6,2,6,3,1,7,9,7,9,0,0,2,9,9,2,9,6,0,0,9,3,7,6,2,0,0,0,2,3,0,0,0,0,0,0,0,0,0,0,0,0,0,0,0,0,0,0,0,0,0,0,0,0,0,0,0,0,0,0,0,0,0,0,0,0,0,0,0,0,0,0,0,0,0,0,0,0,0,0],"split_type":[0,0,0,0,0,0,0,0,0,0,0,0,0,0,0,0,0,0,0,0,0,0,0,0,0,0,0,0,0,0,0,0,0,0,0,0,0,0,0,0,0,0,0,0,0,0,0,0,0,0,0,0,0,0,0,0,0,0,0,0,0,0,0,0,0,0,0,0,0,0,0,0,0,0,0,0,0,0,0,0,0,0,0,0,0,0,0,0,0,0,0,0,0,0,0,0,0,0,0,0,0,0,0,0,0,0,0,0,0,0,0],"sum_hessian":[7.483167E2,5.3349133E2,2.1482538E2,3.6302664E2,1.7046469E2,1.2327953E2,9.154585E1,1.9738017E2,1.6564648E2,9.237658E1,7.808811E1,7.127617E1,5.200336E1,5.5990837E1,3.555501E1,1.4055861E2,5.6821564E1,2.4423304E1,1.4122319E2,8.822295E1,4.153623E0,2.2928E1,5.5160114E1,6.8451706E1,2.8244636E0,3.5721157E1,1.6282202E1,4.9012753E1,6.978087E0,2.3426434E1,1.2128579E1,9.968695E1,4.087165E1,4.3363823E1,1.3457739E1,5.1504927E0,1.9272812E1,1.1829518E2,2.2928E1,4.834817E1,3.9874783E1,2.492174E0,1.6614492E0,1.9272812E1,3.6551883E0,1.3457739E1,4.1702377E1,5.9313736E1,9.137971E0,1.3291594E0,1.4953043E0,2.7081623E1,8.639536E0,8.971826E0,7.3103766E0,2.0768116E1,2.8244637E1,5.815072E0,1.1630144E0,6.313507E0,1.7112926E1,1.079942E1,1.3291594E0,9.021669E1,9.470261E0,3.306284E1,7.808811E0,8.141101E0,3.5222725E1,8.805681E0,4.6520576E0,2.159884E0,2.9906087E0,1.0965565E1,8.307246E0,3.4392E1,8.390318E1,1.8275942E1,4.6520576E0,4.2366955E1,5.9812174E0,2.6749332E1,1.3125449E1,1.6780638E1,2.492174E0,2.159884E0,1.4953043E0,8.805681E0,4.6520576E0,8.639536E0,3.306284E1,2.9906087E0,5.6323128E1,3.1567535E0,5.9812174E0,2.0435825E1,6.645797E0,3.9874783E0,4.6520576E0,3.9874783E0,4.984348E0,2.3260288E0,4.984348E0,1.2128579E1,8.639536E0,1.8275942E1,9.968696E0,3.1567535E0,3.1567535E0,8.141101E0,8.971826E0],"tree_param":{"num_deleted":"0","num_feature":"11","num_nodes":"111","size_leaf_vector":"1"}},{"base_weights":[-2.1055423E-1,-4.942958E-1,3.8020718E-1,-6.5303296E-1,-1.8519132E-1,-1.5346383E-1,9.298419E-1,-8.223625E-1,-4.6008226E-1,-3.7346464E-1,5.3535515E-1,-6.457828E-1,3.9888662E-1,1.0456202E0,-2.6647225E-1,-1.034489E0,-6.8238366E-1,-6.538322E-1,-1.2763166E-1,-6.914289E-1,-4.2370737E-2,-3.6431706E-1,1.5143332E0,-8.1337535E-1,2.355109E-2,-1.8396707E-1,1.3026503E0,-3.1551677E-1,1.140792E0,-3.0260736E-1,4.1789958E-1,-1.0619328E0,1.3537367E-2,-8.266121E-1,-3.1754538E-1,-7.236821E-1,1.11479E-2,-4.347876E-1,1.074283E0,-7.344756E-1,3.4481642E-1,6.392669E-1,-3.211037E-1,-1.0023391E0,2.3647517E-1,7.800053E-1,9.3817043E-1,-3.4745106E-1,-9.76874E-1,-2.9200298E-1,5.941963E-1,-6.051123E-1,7.6085204E-1,3.984813E-1,1.6366938E0,7.2604334E-1,-3.4376746E-1,-5.4733027E-2,1.2417028E0,1.0485821E0,-2.4079688E-1,-3.2598546E-1,-8.425818E-2,-2.9882145E-1,-1.1670353E-1,-1.539048E-1,7.4781574E-2,-1.816787E-1,-3.209869E-1,-2.0314445E-1,1.2577361E-1,8.8172816E-2,-2.1824074E-1,8.1718765E-2,8.967677E-1,-2.3300764E-1,1.1365388E-1,-7.3067285E-2,2.4962503E-1,9.649615E-2,5.4988414E-1,-3.9851055E-3,-2.9589516E-1,-3.2711416E-1,-8.312119E-2,-1.0844376E-1,4.1266754E-1,7.825946E-1,-4.9102288E-2,-2.1995895E-1,2.028015E-1,-3.0793986E-1,9.782787E-2,-1.6037753E-1,4.1230735E-1,-2.565123E-1,1.6681438E-2,2.0637024E-2,4.1286507E-1,5.2846295E-1,-3.0423788E-2,2.3670685E-1,5.6301373E-1,-2.609027E-2,3.857566E-1,-2.443937E-1,1.5117148E-1,2.794348E-1,5.2443916E-1,-2.3100094E-1,6.023499E-1],"categories":[],"categories_nodes":[],"categories_segments":[],"categories_sizes":[],"default_left":[0,0,0,0,0,0,0,0,0,0,0,1,0,0,0,0,0,0,0,0,0,0,0,0,0,0,0,1,0,0,0,0,0,0,0,0,0,0,0,1,0,0,0,0,0,0,0,0,0,0,0,0,0,0,0,1,0,0,0,0,0,0,0,0,0,0,0,0,0,0,0,0,0,0,0,0,0,0,0,0,0,0,0,0,0,0,0,0,0,0,0,0,0,0,0,0,0,0,0,0,0,0,0,0,0,0,0,0,0,0,0],"id":1,"left_children":[1,3,5,7,9,11,13,15,17,19,21,23,25,27,29,31,33,35,37,39,41,43,45,47,49,51,53,55,57,-1,59,61,-1,63,65,67,69,71,73,75,77,79,81,83,85,-1,87,89,91,-1,93,95,97,99,101,103,-1,105,107,109,-1,-1,-1,-1,-1,-1,-1,-1,-1,-1,-1,-1,-1,-1,-1,-1,-1,-1,-1,-1,-1,-1,-1,-1,-1,-1,-1,-1,-1,-1,-1,-1,-1,-1,-1,-1,-1,-1,-1,-1,-1,-1,-1,-1,-1,-1,-1,-1,-1,-1,-1],"loss_changes":[1.1892401E2,2.3379547E1,6.772357E1,9.947708E0,2.243497E1,3.2278805E1,1.6018929E1,4.2545776E0,9.577839E0,1.3713177E1,3.081942E1,7.046072E0,2.9797276E1,1.3808655E1,5.9199543E0,1.958252E0,5.188038E0,4.3984756E0,2.1314497E1,3.2206821E0,1.25575485E1,7.4105206E0,7.97665E0,3.4791145E0,8.267144E0,1.4382554E1,6.0297737E0,7.3773966E0,1.1800316E1,0E0,5.721196E0,9.079437E-1,0E0,5.071247E0,3.5593202E0,2.8502655E0,3.0842795E0,9.958005E0,1.7277893E1,3.3112106E0,1.1584351E0,6.6910577E0,9.572023E0,2.896042E-1,7.613169E0,0E0,2.3329338E1,6.248907E0,2.6967049E0,0E0,8.85109E0,4.1359053E0,4.6880417E0,5.1461124E0,1.740593E0,1.9183578E0,0E0,4.030533E0,1.2468964E1,9.593153E0,0E0,0E0,0E0,0E0,0E0,0E0,0E0,0E0,0E0,0E0,0E0,0E0,0E0,0E0,0E0,0E0,0E0,0E0,0E0,0E0,0E0,0E0,0E0,0E0,0E0,0E0,0E0,0E0,0E0,0E0,0E0,0E0,0E0,0E0,0E0,0E0,0E0,0E0,0E0,0E0,0E0,0E0,0E0,0E0,0E0,0E0,0E0,0E0,0E0,0E0,0E0],"parents":[2147483647,0,0,1,1,2,2,3,3,4,4,5,5,6,6,7,7,8,8,9,9,10,10,11,11,12,12,13,13,14,14,15,15,16,16,17,17,18,18,19,19,20,20,21,21,22,22,23,23,24,24,25,25,26,26,27,27,28,28,30,30,31,31,33,33,34,34,35,35,36,36,37,37,38,38,39,39,40,40,41,41,42,42,43,43,44,44,46,46,47,47,48,48,50,50,51,51,52,52,53,53,54,54,55,55,57,57,58,58,59,59],"right_children":[2,4,6,8,10,12,14,16,18,20,22,24,26,28,30,32,34,36,38,40,42,44,46,48,50,52,54,56,58,-1,60,62,-1,64,66,68,70,72,74,76,78,80,82,84,86,-1,88,90,92,-1,94,96,98,100,102,104,-1,106,108,110,-1,-1,-1,-1,-1,-1,-1,-1,-1,-1,-1,-1,-1,-1,-1,-1,-1,-1,-1,-1,-1,-1,-1,-1,-1,-1,-1,-1,-1,-1,-1,-1,-1,-1,-1,-1,-1,-1,-1,-1,-1,-1,-1,-1,-1,-1,-1,-1,-1,-1,-1],"split_conditions":[1E0,2E0,3E0,1.5E1,5E0,3E0,5E0,1E0,2E0,3E0,1.5E1,2.8E1,2E0,3E0,4E0,6E0,6E0,1.26E2,5E0,6E0,1.1E1,3E0,1.8E1,1E0,3E0,1.9E1,1.1E1,1.4E1,2E0,-3.0260736E-1,1E1,5E0,1.3537367E-2,3E0,5E0,3E1,1E0,2E0,3E0,3.5E1,1.4E1,3E0,4E0,1.3E1,1E1,7.800053E-1,1E0,8E0,6E0,-2.9200298E-1,1E0,5E0,3E0,8E0,2E0,1.2E1,-3.4376746E-1,3E0,2E1,8E0,-2.4079688E-1,-3.2598546E-1,-8.425818E-2,-2.9882145E-1,-1.1670353E-1,-1.539048E-1,7.4781574E-2,-1.816787E-1,-3.209869E-1,-2.0314445E-1,1.2577361E-1,8.8172816E-2,-2.1824074E-1,8.1718765E-2,8.967677E-1,-2.3300764E-1,1.1365388E-1,-7.3067285E-2,2.4962503E-1,9.649615E-2,5.4988414E-1,-3.9851055E-3,-2.9589516E-1,-3.2711416E-1,-8.312119E-2,-1.0844376E-1,4.1266754E-1,7.825946E-1,-4.9102288E-2,-2.1995895E-1,2.028015E-1,-3.0793986E-1,9.782787E-2,-1.6037753E-1,4.1230735E-1,-2.565123E-1,1.6681438E-2,2.0637024E-2,4.1286507E-1,5.2846295E-1,-3.0423788E-2,2.3670685E-1,5.6301373E-1,-2.609027E-2,3.857566E-1,-2.443937E-1,1.5117148E-1,2.794348E-1,5.2443916E-1,-2.3100094E-1,6.023499E-1],"split_indices":[10,8,6,2,7,1,6,3,1,6,2,2,8,5,7,5,9,2,7,5,2,6,2,6,7,2,2,2,9,0,2,4,0,1,7,2,3,6,6,2,2,1,9,2,2,0,0,9,5,0,3,9,7,2,7,2,0,4,2,2,0,0,0,0,0,0,0,0,0,0,0,0,0,0,0,0,0,0,0,0,0,0,0,0,0,0,0,0,0,0,0,0,0,0,0,0,0,0,0,0,0,0,0,0,0,0,0,0,0,0,0],"split_type":[0,0,0,0,0,0,0,0,0,0,0,0,0,0,0,0,0,0,0,0,0,0,0,0,0,0,0,0,0,0,0,0,0,0,0,0,0,0,0,0,0,0,0,0,0,0,0,0,0,0,0,0,0,0,0,0,0,0,0,0,0,0,0,0,0,0,0,0,0,0,0,0,0,0,0,0,0,0,0,0,0,0,0,0,0,0,0,0,0,0,0,0,0,0,0,0,0,0,0,0,0,0,0,0,0,0,0,0,0,0,0],"sum_hessian":[7.073495E2,4.779529E2,2.2939659E2,3.150499E2,1.6290302E2,1.167542E2,1.1264238E2,1.6605843E2,1.4899147E2,1.2953754E2,3.3365482E1,6.1642273E1,5.5111927E1,1.02817726E2,9.824654E0,6.3475758E1,1.0258267E2,9.352124E1,5.5470234E1,6.5523796E1,6.401374E1,1.7714172E1,1.565131E1,4.912645E1,1.2515825E1,3.398854E1,2.1123386E1,6.567974E0,9.6249756E1,4.4857974E0,5.3388567E0,6.191818E1,1.5575787E0,7.2611916E1,2.9970758E1,8.4551605E1,8.969632E0,4.4688175E1,1.0782056E1,6.319003E1,2.3337657E0,1.8203602E1,4.581014E1,8.266768E0,9.447405E0,4.208478E0,1.1442832E1,1.3572842E1,3.5553608E1,4.2993484E0,8.216476E0,2.375811E1,1.0230432E1,6.2902412E0,1.4833145E1,2.969233E0,3.5987408E0,7.527426E0,8.872233E1,3.612904E0,1.7259526E0,5.964203E1,2.276147E0,5.1422497E1,2.1189415E1,2.235605E1,7.614709E0,6.510006E1,1.945155E1,3.0932631E0,5.876369E0,1.2804434E1,3.1883741E1,8.404779E0,2.3772762E0,6.1172764E1,2.0172672E0,1.2837707E0,1.049995E0,1.538061E1,2.8229916E0,3.201536E1,1.3794777E1,6.9229636E0,1.3438046E0,6.64291E0,2.8044949E0,4.004375E0,7.4384565E0,1.00634775E1,3.5093646E0,3.445445E1,1.0991582E0,3.4866023E0,4.729874E0,1.7024254E1,6.7338552E0,5.3384275E0,4.8920045E0,1.0106543E0,5.279587E0,4.2192845E0,1.061386E1,1.555231E0,1.4140022E0,2.9950292E0,4.532397E0,5.677775E1,3.1944582E1,1.3157467E0,2.2971573E0],"tree_param":{"num_deleted":"0","num_feature":"11","num_nodes":"111","size_leaf_vector":"1"}},{"base_weights":[-1.7519346E-1,-4.0316698E-1,2.5542E-1,-5.460666E-1,-1.445514E-1,-5.0007813E-2,7.7697426E-1,-7.137704E-1,-3.6896306E-1,-4.5057017E-1,1.3005914E-1,-4.1075552E-1,3.2856452E-1,5.0169086E-1,1.1302867E0,-9.414921E-1,-5.7408595E-1,-1.9587865E-1,-6.6230243E-1,-6.761353E-1,-7.992288E-2,2.1172456E-1,-3.0518922E-1,-6.047657E-1,2.8383982E-1,1.4283949E-1,8.5272896E-1,2.924174E-1,4.2159578E-1,7.94783E-1,1.4112599E0,-9.725928E-1,1.09937405E-2,-7.184921E-1,-2.4586666E-1,-4.0642288E-1,3.1391618E-1,-3.4299907E-1,-8.774282E-1,-7.794903E-1,6.3291186E-1,6.374537E-1,-4.4913852E-1,-3.1769842E-1,3.91632E-1,-8.292726E-1,-1.841467E-1,-7.454466E-1,8.4624845E-1,2.3203897E-1,-2.7611858E-1,1.455759E0,1.4299835E-1,-2.7992466E-1,5.3670895E-1,-7.086873E-2,1.1531327E0,1.4754637E0,6.716448E-2,-3.0029756E-1,-6.9411136E-2,-2.707956E-1,-9.10776E-2,1.083794E-1,-1.263869E-1,-1.6704974E-1,2.4983969E-2,2.0847265E-1,-1.4946377E-1,-2.2945212E-1,9.013402E-2,-1.6154766E-1,-3.3427256E-1,-2.5216848E-1,6.1349265E-2,4.222912E-1,-1.9481263E-1,3.2667363E-1,-1.0766944E-1,-3.0995193E-1,-1.2571046E-2,-1.8997796E-1,2.0621303E-1,1.566777E-1,-3.6827113E-2,-1.4197814E-1,-2.9503915E-1,-2.0618661E-1,9.827356E-2,4.1739173E-2,-3.0205387E-1,2.851458E-2,3.9316452E-1,-6.223486E-3,1.7847762E-1,6.308418E-1,2.754725E-1,-1.6275427E-1,3.9995897E-1,-3.3255357E-1,2.029014E-1,-1.3622121E-2,2.4558635E-1,3.494599E-1,-2.767443E-1,1.3940366E-1,4.0307668E-1,4.6415398E-1,1.7888701E-1],"categories":[],"categories_nodes":[],"categories_segments":[],"categories_sizes":[],"default_left":[0,0,0,0,0,0,1,0,1,0,0,1,0,0,0,0,0,0,0,0,0,0,0,0,0,0,1,0,0,0,0,0,0,0,0,0,1,0,0,1,0,0,0,0,1,0,0,0,0,0,0,0,0,0,0,0,0,0,0,0,0,0,0,0,0,0,0,0,0,0,0,0,0,0,0,0,0,0,0,0,0,0,0,0,0,0,0,0,0,0,0,0,0,0,0,0,0,0,0,0,0,0,0,0,0,0,0,0,0],"id":2,"left_children":[1,3,5,7,9,11,13,15,17,19,21,23,25,27,29,31,33,35,37,39,41,43,-1,45,47,49,51,53,-1,55,57,59,-1,61,63,65,67,69,71,73,75,77,79,81,83,85,87,89,91,93,-1,95,97,99,101,103,105,107,-1,-1,-1,-1,-1,-1,-1,-1,-1,-1,-1,-1,-1,-1,-1,-1,-1,-1,-1,-1,-1,-1,-1,-1,-1,-1,-1,-1,-1,-1,-1,-1,-1,-1,-1,-1,-1,-1,-1,-1,-1,-1,-1,-1,-1,-1,-1,-1,-1,-1,-1],"loss_changes":[6.475549E1,1.5849182E1,3.6451946E1,7.971161E0,1.3063494E1,1.9951435E1,7.649914E0,3.955185E0,6.8217793E0,6.0838594E0,7.9304547E0,1.0244146E1,6.8248816E0,8.908842E0,2.2908554E0,1.6227226E0,4.0967407E0,9.522279E0,3.1601868E0,6.65016E0,7.943411E0,7.5246534E0,0E0,5.3946915E0,1.0471592E1,5.324475E0,7.6958055E0,5.9217796E0,0E0,5.909956E0,1.073288E0,8.335228E-1,0E0,4.4704056E0,3.2481127E0,4.6410494E0,8.43653E0,6.180807E0,1.7648354E0,2.7333221E0,4.7704186E0,4.9953017E0,4.6356707E0,6.8603463E0,3.9906836E0,1.6214161E0,5.8197126E0,1.6519263E0,3.8729467E0,4.64639E0,0E0,1.503788E0,8.549565E0,1.1054652E1,4.8410816E0,7.8546767E0,1.1255322E0,1.6748428E-1,0E0,0E0,0E0,0E0,0E0,0E0,0E0,0E0,0E0,0E0,0E0,0E0,0E0,0E0,0E0,0E0,0E0,0E0,0E0,0E0,0E0,0E0,0E0,0E0,0E0,0E0,0E0,0E0,0E0,0E0,0E0,0E0,0E0,0E0,0E0,0E0,0E0,0E0,0E0,0E0,0E0,0E0,0E0,0E0,0E0,0E0,0E0,0E0,0E0,0E0,0E0],"parents":[2147483647,0,0,1,1,2,2,3,3,4,4,5,5,6,6,7,7,8,8,9,9,10,10,11,11,12,12,13,13,14,14,15,15,16,16,17,17,18,18,19,19,20,20,21,21,23,23,24,24,25,25,26,26,27,27,29,29,30,30,31,31,33,33,34,34,35,35,36,36,37,37,38,38,39,39,40,40,41,41,42,42,43,43,44,44,45,45,46,46,47,47,48,48,49,49,51,51,52,52,53,53,54,54,55,55,56,56,57,57],"right_children":[2,4,6,8,10,12,14,16,18,20,22,24,26,28,30,32,34,36,38,40,42,44,-1,46,48,50,52,54,-1,56,58,60,-1,62,64,66,68,70,72,74,76,78,80,82,84,86,88,90,92,94,-1,96,98,100,102,104,106,108,-1,-1,-1,-1,-1,-1,-1,-1,-1,-1,-1,-1,-1,-1,-1,-1,-1,-1,-1,-1,-1,-1,-1,-1,-1,-1,-1,-1,-1,-1,-1,-1,-1,-1,-1,-1,-1,-1,-1,-1,-1,-1,-1,-1,-1,-1,-1,-1,-1,-1,-1],"split_conditions":[1E0,2E0,2E0,1.5E1,3E0,3E0,1.4E1,1E0,2.5E1,4E0,5E0,2.8E1,6E0,8E0,3E0,6E0,6E0,6E0,1E0,1E1,1E0,3E0,-3.0518922E-1,5E0,1E0,5E0,1E1,3E0,4.2159578E-1,3E0,8E0,5E0,1.09937405E-2,3E0,8E0,5E0,1.9E1,4E0,3E1,3.5E1,1.7E1,8E0,2E0,2E0,4E0,1.1E1,3E0,1E0,2E0,4E0,-2.7611858E-1,1E0,2E1,1E0,3E0,1E0,1E0,5E0,6.716448E-2,-3.0029756E-1,-6.9411136E-2,-2.707956E-1,-9.10776E-2,1.083794E-1,-1.263869E-1,-1.6704974E-1,2.4983969E-2,2.0847265E-1,-1.4946377E-1,-2.2945212E-1,9.013402E-2,-1.6154766E-1,-3.3427256E-1,-2.5216848E-1,6.1349265E-2,4.222912E-1,-1.9481263E-1,3.2667363E-1,-1.0766944E-1,-3.0995193E-1,-1.2571046E-2,-1.8997796E-1,2.0621303E-1,1.566777E-1,-3.6827113E-2,-1.4197814E-1,-2.9503915E-1,-2.0618661E-1,9.827356E-2,4.1739173E-2,-3.0205387E-1,2.851458E-2,3.9316452E-1,-6.223486E-3,1.7847762E-1,6.308418E-1,2.754725E-1,-1.6275427E-1,3.9995897E-1,-3.3255357E-1,2.029014E-1,-1.3622121E-2,2.4558635E-1,3.494599E-1,-2.767443E-1,1.3940366E-1,4.0307668E-1,4.6415398E-1,1.7888701E-1],"split_indices":[10,8,8,2,6,6,2,3,2,7,6,2,9,9,6,5,9,9,3,9,0,7,0,9,3,6,2,6,0,1,9,4,0,1,2,7,2,7,2,2,2,9,6,1,4,2,1,6,6,7,0,0,2,3,7,0,6,4,0,0,0,0,0,0,0,0,0,0,0,0,0,0,0,0,0,0,0,0,0,0,0,0,0,0,0,0,0,0,0,0,0,0,0,0,0,0,0,0,0,0,0,0,0,0,0,0,0,0,0],"split_type":[0,0,0,0,0,0,0,0,0,0,0,0,0,0,0,0,0,0,0,0,0,0,0,0,0,0,0,0,0,0,0,0,0,0,0,0,0,0,0,0,0,0,0,0,0,0,0,0,0,0,0,0,0,0,0,0,0,0,0,0,0,0,0,0,0,0,0,0,0,0,0,0,0,0,0,0,0,0,0,0,0,0,0,0,0,0,0,0,0,0,0,0,0,0,0,0,0,0,0,0,0,0,0,0,0,0,0,0,0],"sum_hessian":[6.575875E2,4.3000168E2,2.2758588E2,2.762478E2,1.5375388E2,1.4410219E2,8.348368E1,1.4033282E2,1.3591498E2,7.2415344E1,8.1338524E1,7.374468E1,7.035751E1,4.8283527E1,3.5200153E1,5.1170906E1,8.916191E1,8.652738E1,4.9387592E1,4.4506058E1,2.7909288E1,7.669507E1,4.64346E0,5.7745014E1,1.5999666E1,5.2889797E1,1.7467714E1,4.027886E1,8.004673E0,1.7788269E1,1.7411884E1,4.9599518E1,1.571389E0,6.109359E1,2.8068325E1,6.1380238E1,2.514714E1,2.0924511E1,2.8463081E1,4.1624184E1,2.8818743E0,9.236499E0,1.8672789E1,1.925791E1,5.7437157E1,3.7016026E1,2.072899E1,5.5383177E0,1.0461349E1,4.951733E1,3.3724675E0,8.875451E0,8.592263E0,1.2005569E1,2.8273287E1,5.4427238E0,1.2345546E1,1.6288511E1,1.1233735E0,4.7431763E1,2.167755E0,4.149832E1,1.9595268E1,6.054516E0,2.201381E1,4.6852627E1,1.4527612E1,1.7215296E1,7.931846E0,1.25246935E1,8.399817E0,1.3053856E1,1.54092245E1,3.9328987E1,2.2951949E0,1.7355464E0,1.1463281E0,6.2924285E0,2.9440706E0,7.0397353E0,1.1633054E1,1.4937843E1,4.320067E0,4.579293E1,1.1644225E1,1.241661E1,2.4599417E1,1.0279161E1,1.0449828E1,1.3699956E0,4.168322E0,4.456234E0,6.0051146E0,2.9742065E1,1.9775265E1,2.705992E0,6.1694593E0,5.797365E0,2.794898E0,6.3468804E0,5.658689E0,9.498636E0,1.877465E1,2.0704923E0,3.3722317E0,3.420623E0,8.924923E0,1.4357527E1,1.9309847E0],"tree_param":{"num_deleted":"0","num_feature":"11","num_nodes":"109","size_leaf_vector":"1"}},{"base_weights":[-1.4365652E-1,-3.2866523E-1,1.8742876E-1,-4.154757E-1,-3.3074103E-2,-4.356946E-2,5.7117975E-1,-4.489337E-1,4.845442E-1,-3.814258E-1,4.1061145E-1,-3.3982292E-1,2.3763733E-1,1.3572882E-1,7.6901215E-1,-6.811581E-2,-5.10487E-1,-2.1083058E-1,1.3404074E0,-8.694504E-1,6.018852E-2,-2.9790285E-1,7.58643E-1,-5.082003E-1,1.9020183E-1,1.1029483E-1,7.70227E-1,-1.5171914E-1,8.4638125E-1,3.4250835E-1,8.922477E-1,5.3047544E-1,-4.0424964E-1,-6.397726E-1,-2.9900444E-1,-2.54704E-1,3.8356918E-1,5.490968E-1,6.265896E-1,-2.9322317E-1,1.056771E-1,-7.3141307E-1,3.720993E-1,-5.82492E-1,7.0002586E-1,1.7219915E0,4.4007874E-1,6.8E-2,-6.6303957E-1,-6.497438E-1,5.726392E-1,5.8014774E-1,-6.558174E-2,-1.4892903E-1,1.2543566E0,-5.411279E-1,3.285734E-1,7.402752E-3,1.094469E0,-2.6856092E-1,6.86539E-1,7.6647764E-1,1.2984132E0,4.3600085E-1,-1.5635364E-1,2.8100136E-1,-1.7996436E-1,-2.219321E-1,-9.93608E-2,2.458156E-2,-1.6534708E-1,3.559024E-1,-7.5984426E-2,-8.69728E-2,3.429155E-1,-3.0377892E-1,1.0861957E-2,-6.110101E-2,2.510753E-1,-2.7106643E-1,1.8204606E-1,3.1489547E-2,2.8875113E-1,5.82626E-1,1.5968296E-1,2.1852365E-1,-1.2587501E-1,1.20281644E-1,-1.9836739E-1,-2.4295793E-1,-5.0680567E-2,-2.7424043E-1,6.0620457E-2,-5.393311E-2,2.5817093E-1,-7.865152E-3,3.906688E-1,-1.4260729E-1,5.396727E-2,-1.8850292E-1,2.4743171E-1,1.728329E-1,4.8647526E-1,1.7823156E-2,-1.8630494E-1,4.2987046E-1,-1.3494593E-1,1.4139596E-1,3.817913E-1,1.0878638E-1,-2.675181E-1,6.9869235E-2,2.699955E-1,3.0534816E-1,1.737051E-1,1.4045249E-1,4.3428457E-1],"categories":[],"categories_nodes":[],"categories_segments":[],"categories_sizes":[],"default_left":[0,0,0,0,0,0,0,0,0,0,1,1,0,0,0,0,0,0,0,0,0,0,0,0,0,0,0,0,0,0,0,0,0,0,1,0,0,0,0,0,0,0,0,0,0,0,1,0,0,0,0,0,0,0,0,0,0,0,0,0,0,0,0,0,0,0,0,0,0,0,0,0,0,0,0,0,0,0,0,0,0,0,0,0,0,0,0,0,0,0,0,0,0,0,0,0,0,0,0,0,0,0,0,0,0,0,0,0,0,0,0,0,0,0,0,0,0],"id":3,"left_children":[1,3,5,7,9,11,13,15,17,19,21,23,25,27,29,31,33,35,37,39,41,43,45,47,49,51,53,55,57,59,61,63,65,67,69,-1,71,73,-1,-1,-1,75,77,79,81,83,85,87,89,91,93,95,97,99,101,103,105,-1,107,109,111,113,115,-1,-1,-1,-1,-1,-1,-1,-1,-1,-1,-1,-1,-1,-1,-1,-1,-1,-1,-1,-1,-1,-1,-1,-1,-1,-1,-1,-1,-1,-1,-1,-1,-1,-1,-1,-1,-1,-1,-1,-1,-1,-1,-1,-1,-1,-1,-1,-1,-1,-1,-1,-1,-1,-1],"loss_changes":[3.771495E1,1.011478E1,1.9615423E1,9.402607E0,1.4173852E1,1.1651041E1,7.055504E0,6.871025E0,7.075364E0,1.1113294E1,1.0180529E1,6.169238E0,4.787353E0,5.6802464E0,2.686924E0,8.6946945E0,6.7387466E0,3.0421972E0,1.9629107E0,3.5684814E0,7.1553926E0,4.388287E0,7.636673E0,4.6765985E0,5.8754773E0,4.925555E0,6.2811337E0,3.9556172E0,1.5995893E0,3.2087357E0,1.2294159E0,1.5886872E1,7.791115E0,4.5817566E0,9.462397E0,0E0,2.54825E0,2.2795186E0,0E0,0E0,0E0,1.8102083E0,5.699848E0,4.9210396E0,4.556799E-1,6.563206E-1,5.7337937E0,3.1548393E0,2.8382149E0,1.4973767E0,2.8202744E0,7.1319585E0,4.5047936E0,3.1411042E0,1.3265219E0,5.9018826E-1,8.953705E0,0E0,7.8073025E-2,2.6443179E0,7.0884943E-1,1.0924511E0,4.1924286E-1,0E0,0E0,0E0,0E0,0E0,0E0,0E0,0E0,0E0,0E0,0E0,0E0,0E0,0E0,0E0,0E0,0E0,0E0,0E0,0E0,0E0,0E0,0E0,0E0,0E0,0E0,0E0,0E0,0E0,0E0,0E0,0E0,0E0,0E0,0E0,0E0,0E0,0E0,0E0,0E0,0E0,0E0,0E0,0E0,0E0,0E0,0E0,0E0,0E0,0E0,0E0,0E0,0E0,0E0],"parents":[2147483647,0,0,1,1,2,2,3,3,4,4,5,5,6,6,7,7,8,8,9,9,10,10,11,11,12,12,13,13,14,14,15,15,16,16,17,17,18,18,19,19,20,20,21,21,22,22,23,23,24,24,25,25,26,26,27,27,28,28,29,29,30,30,31,31,32,32,33,33,34,34,36,36,37,37,41,41,42,42,43,43,44,44,45,45,46,46,47,47,48,48,49,49,50,50,51,51,52,52,53,53,54,54,55,55,56,56,58,58,59,59,60,60,61,61,62,62],"right_children":[2,4,6,8,10,12,14,16,18,20,22,24,26,28,30,32,34,36,38,40,42,44,46,48,50,52,54,56,58,60,62,64,66,68,70,-1,72,74,-1,-1,-1,76,78,80,82,84,86,88,90,92,94,96,98,100,102,104,106,-1,108,110,112,114,116,-1,-1,-1,-1,-1,-1,-1,-1,-1,-1,-1,-1,-1,-1,-1,-1,-1,-1,-1,-1,-1,-1,-1,-1,-1,-1,-1,-1,-1,-1,-1,-1,-1,-1,-1,-1,-1,-1,-1,-1,-1,-1,-1,-1,-1,-1,-1,-1,-1,-1,-1,-1,-1,-1],"split_conditions":[1E0,5E0,2E0,6E0,3E0,3E0,1E1,1E0,2E0,1.5E1,9E0,2.8E1,5E0,8E0,2E0,3E0,2E0,1.5E1,3E0,1E1,3E0,8E0,1E0,1E0,1E0,1E0,1E0,2E0,4E0,1E0,5E0,4E0,8E0,2E0,1.1E1,-2.54704E-1,1.9E1,7E0,6.265896E-1,-2.9322317E-1,1.056771E-1,2E0,3E0,3E0,2E0,2E1,4E0,4E0,6E0,7E0,3E0,2.3E1,2E0,4E0,1.4E1,2E0,8E0,7.402752E-3,1E0,1E0,4E0,3E0,1.4E1,4.3600085E-1,-1.5635364E-1,2.8100136E-1,-1.7996436E-1,-2.219321E-1,-9.93608E-2,2.458156E-2,-1.6534708E-1,3.559024E-1,-7.5984426E-2,-8.69728E-2,3.429155E-1,-3.0377892E-1,1.0861957E-2,-6.110101E-2,2.510753E-1,-2.7106643E-1,1.8204606E-1,3.1489547E-2,2.8875113E-1,5.82626E-1,1.5968296E-1,2.1852365E-1,-1.2587501E-1,1.20281644E-1,-1.9836739E-1,-2.4295793E-1,-5.0680567E-2,-2.7424043E-1,6.0620457E-2,-5.393311E-2,2.5817093E-1,-7.865152E-3,3.906688E-1,-1.4260729E-1,5.396727E-2,-1.8850292E-1,2.4743171E-1,1.728329E-1,4.8647526E-1,1.7823156E-2,-1.8630494E-1,4.2987046E-1,-1.3494593E-1,1.4139596E-1,3.817913E-1,1.0878638E-1,-2.675181E-1,6.9869235E-2,2.699955E-1,3.0534816E-1,1.737051E-1,1.4045249E-1,4.3428457E-1],"split_indices":[10,7,8,5,6,6,2,6,1,2,2,2,5,9,7,7,8,2,6,9,9,9,0,8,3,0,3,1,5,3,5,9,2,0,2,0,2,9,0,0,0,8,1,1,0,2,4,7,9,9,7,2,0,9,2,9,2,0,3,0,5,9,2,0,0,0,0,0,0,0,0,0,0,0,0,0,0,0,0,0,0,0,0,0,0,0,0,0,0,0,0,0,0,0,0,0,0,0,0,0,0,0,0,0,0,0,0,0,0,0,0,0,0,0,0,0,0],"split_type":[0,0,0,0,0,0,0,0,0,0,0,0,0,0,0,0,0,0,0,0,0,0,0,0,0,0,0,0,0,0,0,0,0,0,0,0,0,0,0,0,0,0,0,0,0,0,0,0,0,0,0,0,0,0,0,0,0,0,0,0,0,0,0,0,0,0,0,0,0,0,0,0,0,0,0,0,0,0,0,0,0,0,0,0,0,0,0,0,0,0,0,0,0,0,0,0,0,0,0,0,0,0,0,0,0,0,0,0,0,0,0,0,0,0,0,0,0],"sum_hessian":[6.1371185E2,3.9371393E2,2.1999794E2,3.0402188E2,8.969204E1,1.3788486E2,8.211308E1,2.9360828E2,1.0413616E1,5.0322533E1,3.9369503E1,6.704452E1,7.084034E1,2.617816E1,5.593492E1,4.1146946E1,2.5246132E2,6.1613135E0,4.252302E0,2.3444925E1,2.6877607E1,1.3015959E1,2.6353544E1,5.0912037E1,1.6132479E1,5.8144943E1,1.2695397E1,1.9198977E1,6.979183E0,1.3386188E1,4.2548733E1,1.4588823E1,2.6558123E1,1.5542203E2,9.703929E1,2.764659E0,3.3966548E0,2.9093184E0,1.342984E0,2.172508E1,1.719844E0,7.2168775E0,1.966073E1,1.0451656E1,2.5643027E0,5.454247E0,2.0899298E1,1.0902312E1,4.0009724E1,4.8285656E0,1.1303912E1,1.5210799E1,4.2934143E1,4.618745E0,8.076653E0,1.0532684E1,8.666291E0,1.8734586E0,5.105725E0,4.9007735E0,8.485414E0,3.4693058E1,7.8556757E0,7.5667777E0,7.0220456E0,2.8990662E0,2.3659058E1,1.1632583E2,3.90962E1,3.8918167E1,5.8121124E1,1.1208986E0,2.2757564E0,1.418077E0,1.4912415E0,5.0484605E0,2.1684167E0,9.03318E0,1.062755E1,8.419128E0,2.0325284E0,1.2133749E0,1.3509277E0,4.069079E0,1.3851681E0,1.5764508E1,5.1347895E0,7.7940173E0,3.108295E0,3.0351818E1,9.657907E0,3.6290061E0,1.1995595E0,3.2324748E0,8.071438E0,8.791699E0,6.4191E0,1.5733378E1,2.7200766E1,3.3325891E0,1.2861557E0,3.7392654E0,4.337387E0,1.2667325E0,9.265952E0,3.235356E0,5.4309354E0,1.9457561E0,3.1599686E0,2.6424406E0,2.258333E0,3.3841445E0,5.1012692E0,1.2928635E1,2.1764423E1,1.8270227E0,6.028653E0],"tree_param":{"num_deleted":"0","num_feature":"11","num_nodes":"117","size_leaf_vector":"1"}},{"base_weights":[-1.1106372E-1,-3.0710712E-1,8.865585E-2,-5.4288626E-1,-4.6577077E-2,1.583453E-1,-6.784959E-1,-2.0334695E-1,-6.7155266E-1,-2.592882E-1,4.0579462E-1,3.189828E-2,5.875277E-1,-8.769894E-1,-2.770369E-1,5.432788E-1,-5.4175085E-1,-7.435942E-1,-1.0037318E-1,-3.8121793E-1,5.175482E-1,-2.2183403E-1,6.44513E-1,-7.393964E-1,1.11385375E-1,1.2531326E0,2.4414141E-1,-3.1727844E-1,1.08909935E-1,-2.696427E-1,1.9911589E-1,-2.541551E-1,9.81086E-1,4.56282E-1,-7.2231126E-1,-7.8905225E-1,-6.1950542E-2,3.793255E-1,-2.7646515E-1,-5.599557E-1,-6.88139E-2,8.4116566E-1,-2.386785E-1,-6.254187E-1,3.931639E-1,1.2803632E-1,1.040825E0,-1.0254668E0,2.7783117E-1,-1.4938121E-2,6.592209E-1,5.5654687E-1,1.584116E0,-2.0669512E-1,6.578011E-1,2.721697E-1,-1.9159693E-1,6.528642E-1,-2.2320238E-1,-2.511803E-1,1.762625E-1,4.280285E-1,9.825565E-3,-2.1029544E-1,3.540262E-1,-1.275579E-1,-2.8456083E-1,-2.8674436E-1,-2.0031753E-1,2.1276675E-1,-1.646454E-1,2.300433E-1,-1.0933642E-1,-4.6286844E-2,-2.2728075E-1,-2.1318828E-1,2.8727787E-2,2.9809785E-1,4.6451494E-2,3.69385E-2,-2.9992232E-1,2.4708721E-1,-1.94991E-1,-1.3987026E-1,2.7886748E-1,4.0742296E-1,1.5814942E-3,-1.3444349E-1,-3.4714556E-1,2.503007E-1,-2.2695439E-1,-4.646728E-2,1.16901554E-1,9.690469E-2,4.677612E-1,3.7821862E-1,-1.3654651E-1,3.1745794E-1,6.027981E-1,-2.0436579E-1,4.326373E-3,2.2454403E-1,-1.7801042E-1,-1.9792837E-1,3.6592764E-1],"categories":[],"categories_nodes":[],"categories_segments":[],"categories_sizes":[],"default_left":[0,0,0,0,0,0,0,0,0,0,0,0,0,0,0,0,0,1,0,0,0,0,0,0,0,0,1,0,0,0,0,0,0,0,0,0,0,0,0,0,0,0,0,0,0,0,0,0,0,0,0,0,1,0,0,0,0,0,0,0,0,0,0,0,0,0,0,0,0,0,0,0,0,0,0,0,0,0,0,0,0,0,0,0,0,0,0,0,0,0,0,0,0,0,0,0,0,0,0,0,0,0,0,0,0],"id":4,"left_children":[1,3,5,7,9,11,13,15,17,19,21,23,25,27,29,31,33,35,37,39,41,43,45,47,49,51,53,-1,55,-1,57,59,61,63,65,67,69,71,-1,73,75,77,-1,79,81,83,85,87,89,91,93,95,97,99,101,-1,-1,103,-1,-1,-1,-1,-1,-1,-1,-1,-1,-1,-1,-1,-1,-1,-1,-1,-1,-1,-1,-1,-1,-1,-1,-1,-1,-1,-1,-1,-1,-1,-1,-1,-1,-1,-1,-1,-1,-1,-1,-1,-1,-1,-1,-1,-1,-1,-1],"loss_changes":[2.258483E1,1.784795E1,1.5406493E1,6.532032E0,1.3511303E1,1.4261824E1,1.671133E0,1.1255244E1,4.4624863E0,9.230934E0,6.877435E0,1.2608634E1,1.3368233E1,2.8949137E0,2.9645195E0,5.1473384E0,5.7992516E0,2.9802132E0,5.669622E0,4.5966063E0,6.3478003E0,3.5046306E0,6.584342E0,5.877881E0,1.2888618E1,3.7569542E0,7.7278404E0,0E0,2.5629752E0,0E0,3.116284E0,3.322253E0,3.8681593E0,5.2355804E0,1.350317E0,1.214283E0,3.091365E0,2.940671E0,0E0,4.105358E0,3.379329E0,1.0190487E0,0E0,2.452428E0,3.1469293E0,7.7637663E0,6.04751E0,6.380949E-1,3.512471E0,8.679125E0,1.0054226E1,6.2888727E0,8.0259323E-1,2.1334987E0,2.8798542E0,0E0,0E0,4.289372E0,0E0,0E0,0E0,0E0,0E0,0E0,0E0,0E0,0E0,0E0,0E0,0E0,0E0,0E0,0E0,0E0,0E0,0E0,0E0,0E0,0E0,0E0,0E0,0E0,0E0,0E0,0E0,0E0,0E0,0E0,0E0,0E0,0E0,0E0,0E0,0E0,0E0,0E0,0E0,0E0,0E0,0E0,0E0,0E0,0E0,0E0,0E0],"parents":[2147483647,0,0,1,1,2,2,3,3,4,4,5,5,6,6,7,7,8,8,9,9,10,10,11,11,12,12,13,13,14,14,15,15,16,16,17,17,18,18,19,19,20,20,21,21,22,22,23,23,24,24,25,25,26,26,28,28,30,30,31,31,32,32,33,33,34,34,35,35,36,36,37,37,39,39,40,40,41,41,43,43,44,44,45,45,46,46,47,47,48,48,49,49,50,50,51,51,52,52,53,53,54,54,57,57],"right_children":[2,4,6,8,10,12,14,16,18,20,22,24,26,28,30,32,34,36,38,40,42,44,46,48,50,52,54,-1,56,-1,58,60,62,64,66,68,70,72,-1,74,76,78,-1,80,82,84,86,88,90,92,94,96,98,100,102,-1,-1,104,-1,-1,-1,-1,-1,-1,-1,-1,-1,-1,-1,-1,-1,-1,-1,-1,-1,-1,-1,-1,-1,-1,-1,-1,-1,-1,-1,-1,-1,-1,-1,-1,-1,-1,-1,-1,-1,-1,-1,-1,-1,-1,-1,-1,-1,-1,-1],"split_conditions":[3E0,3E0,5E0,1E0,6E0,2E0,1E0,1E0,2E0,3E1,3E0,3E0,1E0,1.8E1,4E0,1.4E1,9E0,3.5E1,2.2E1,1E0,3.5E1,1.6E1,1E0,5E0,7E0,3E0,1.3E1,-3.1727844E-1,4E0,-2.696427E-1,1E1,4E0,5E0,4E0,1E0,1E0,1E0,2E0,-2.7646515E-1,3E0,9E0,5E0,-2.386785E-1,1E1,2.7E1,2E0,2.1E1,1E0,4E0,2.8E1,5E0,1E0,1.3E1,3E0,1E1,2.721697E-1,-1.9159693E-1,8E0,-2.2320238E-1,-2.511803E-1,1.762625E-1,4.280285E-1,9.825565E-3,-2.1029544E-1,3.540262E-1,-1.275579E-1,-2.8456083E-1,-2.8674436E-1,-2.0031753E-1,2.1276675E-1,-1.646454E-1,2.300433E-1,-1.0933642E-1,-4.6286844E-2,-2.2728075E-1,-2.1318828E-1,2.8727787E-2,2.9809785E-1,4.6451494E-2,3.69385E-2,-2.9992232E-1,2.4708721E-1,-1.94991E-1,-1.3987026E-1,2.7886748E-1,4.0742296E-1,1.5814942E-3,-1.3444349E-1,-3.4714556E-1,2.503007E-1,-2.2695439E-1,-4.646728E-2,1.16901554E-1,9.690469E-2,4.677612E-1,3.7821862E-1,-1.3654651E-1,3.1745794E-1,6.027981E-1,-2.0436579E-1,4.326373E-3,2.2454403E-1,-1.7801042E-1,-1.9792837E-1,3.6592764E-1],"split_indices":[6,1,6,6,9,1,10,0,0,2,7,5,0,2,7,2,2,2,2,10,2,2,3,7,9,7,2,0,9,0,2,7,7,5,3,3,0,8,0,7,2,9,0,2,2,8,2,0,9,2,5,3,2,1,9,0,0,2,0,0,0,0,0,0,0,0,0,0,0,0,0,0,0,0,0,0,0,0,0,0,0,0,0,0,0,0,0,0,0,0,0,0,0,0,0,0,0,0,0,0,0,0,0,0,0],"split_type":[0,0,0,0,0,0,0,0,0,0,0,0,0,0,0,0,0,0,0,0,0,0,0,0,0,0,0,0,0,0,0,0,0,0,0,0,0,0,0,0,0,0,0,0,0,0,0,0,0,0,0,0,0,0,0,0,0,0,0,0,0,0,0,0,0,0,0,0,0,0,0,0,0,0,0,0,0,0,0,0,0,0,0,0,0,0,0,0,0,0,0,0,0,0,0,0,0,0,0,0,0,0,0,0,0],"sum_hessian":[5.751295E2,2.8996457E2,2.8516495E2,1.5164363E2,1.3832094E2,2.6214484E2,2.3020113E1,4.2381916E1,1.0926171E2,9.437255E1,4.394839E1,2.0331723E2,5.882761E1,1.4611323E1,8.408791E0,1.3029442E1,2.9352474E1,9.675621E1,1.2505499E1,8.200983E1,1.2362728E1,1.2129289E1,3.1819101E1,1.8219933E1,1.8509729E2,1.9118946E1,3.9708664E1,1.2287647E1,2.3236754E0,3.2618015E0,5.1469893E0,4.7667093E0,8.2627325E0,4.262856E0,2.5089619E1,9.055934E1,6.196873E0,8.233747E0,4.271752E0,5.1660526E1,3.0349297E1,1.0206752E1,2.1559763E0,7.313169E0,4.8161197E0,1.4389574E1,1.7429527E1,1.4214385E1,4.005548E0,1.5120433E2,3.3892952E1,7.021994E0,1.2096952E1,1.923992E1,2.0468744E1,1.020407E0,1.3032684E0,3.6828763E0,1.4641128E0,2.819011E0,1.9476986E0,5.2778707E0,2.9848616E0,1.652408E0,2.6104481E0,1.2090177E1,1.2999441E1,3.524192E1,5.531742E1,2.221471E0,3.9754019E0,5.3931336E0,2.8406131E0,1.7507446E1,3.415308E1,5.516739E0,2.4832558E1,7.984826E0,2.2219257E0,2.6616418E0,4.651527E0,3.558217E0,1.2579026E0,8.503304E0,5.88627E0,1.3103651E1,4.3258767E0,3.4578686E0,1.0756516E1,2.7300694E0,1.2754785E0,1.12803345E2,3.8400997E1,2.566444E1,8.228514E0,3.9951062E0,3.026888E0,6.9676423E0,5.1293097E0,5.4541936E0,1.3785726E1,1.9460138E1,1.008606E0,1.061407E0,2.6214695E0],"tree_param":{"num_deleted":"0","num_feature":"11","num_nodes":"105","size_leaf_vector":"1"}},{"base_weights":[-9.298335E-2,-2.3390663E-1,1.4610465E-1,-3.3663055E-1,-7.551102E-2,-1.5898945E-2,4.091488E-1,-4.6780196E-1,-1.356831E-1,-2.5665453E-1,1.6190276E-1,-2.9865825E-1,1.6385318E-1,1.3075173E-1,5.9481096E-1,-9.443259E-1,-3.8570222E-1,-2.0675458E-1,1.1137781E0,6.5446496E-2,-4.980121E-1,6.7439294E-1,-5.558453E-2,-7.273362E-1,-1.8826269E-1,3.822092E-2,6.473611E-1,-3.1512344E-1,3.356437E-1,3.2053855E-1,8.583706E-1,-3.1092337E-1,-5.0190896E-1,-5.493821E-1,-7.286736E-2,3.167425E-1,-3.7847763E-1,4.3232387E-1,1.4232546E-1,-2.8356507E-1,7.091761E-1,-7.150238E-1,1.9660749E-1,2.0384231E-1,1.2167442E0,1.4233802E-1,-3.3062124E-1,-8.84019E-1,8.768867E-2,-3.5526562E-1,1.3108516E-1,-1.3009399E-1,5.8686703E-1,2.1739776E-1,1.2639909E0,4.6205977E-1,-9.4198394E-1,8.733516E-3,6.703104E-1,-2.7000484E-1,6.0759896E-1,1.0271128E0,2.6005018E-1,-2.470642E-1,6.5708555E-2,5.634921E-3,-1.8995418E-1,-1.0157491E-1,1.797751E-1,-3.0979902E-1,2.1734875E-1,4.6339944E-2,-1.9768254E-1,-1.7486125E-1,9.8894335E-2,3.259534E-1,-1.2606995E-1,-1.47589E-1,-3.185239E-1,1.8653582E-1,-1.0818338E-1,1.7829679E-1,-2.0077364E-1,4.1976193E-1,5.299861E-2,-1.3070233E-1,1.5195222E-1,-3.070038E-1,2.0923343E-2,-3.3657264E-2,-2.6111946E-1,-2.4980323E-1,1.0221542E-1,-2.2598806E-1,2.6368655E-2,5.2648485E-2,3.659607E-1,-1.3410985E-1,1.6821626E-1,-4.7106613E-4,4.9108824E-1,2.4695066E-1,-5.127028E-2,-5.292263E-2,-3.596527E-1,-2.3404719E-1,4.956269E-2,3.887075E-2,3.2640904E-1,1.481891E-1,-2.7292386E-1,8.9323975E-2,4.140724E-1,1.8333936E-1,3.606807E-1,-9.068629E-2,3.3350274E-1],"categories":[],"categories_nodes":[],"categories_segments":[],"categories_sizes":[],"default_left":[0,0,0,0,0,0,1,0,0,1,0,0,0,0,0,0,0,0,0,0,0,0,0,0,0,0,0,0,0,0,0,0,0,0,0,0,0,0,0,0,0,0,0,0,0,0,0,0,0,0,0,0,0,0,0,1,0,0,0,0,0,0,0,0,0,0,0,0,0,0,0,0,0,0,0,0,0,0,0,0,0,0,0,0,0,0,0,0,0,0,0,0,0,0,0,0,0,0,0,0,0,0,0,0,0,0,0,0,0,0,0,0,0,0,0,0,0],"id":5,"left_children":[1,3,5,7,9,11,13,15,17,19,21,23,25,27,29,31,33,35,37,39,41,43,45,47,49,51,53,55,57,59,61,-1,63,65,67,69,71,-1,-1,73,75,77,79,81,83,85,-1,87,-1,89,91,93,95,97,99,101,103,105,107,109,111,113,115,-1,-1,-1,-1,-1,-1,-1,-1,-1,-1,-1,-1,-1,-1,-1,-1,-1,-1,-1,-1,-1,-1,-1,-1,-1,-1,-1,-1,-1,-1,-1,-1,-1,-1,-1,-1,-1,-1,-1,-1,-1,-1,-1,-1,-1,-1,-1,-1,-1,-1,-1,-1,-1,-1],"loss_changes":[1.8554432E1,5.60791E0,8.719261E0,5.4646473E0,5.954483E0,6.5289445E0,3.9520473E0,4.58424E0,7.710982E0,6.125532E0,6.7380896E0,2.2247057E0,4.749088E0,3.0724776E0,3.0855274E0,2.0902443E-1,5.571373E0,7.361107E0,2.9786587E-1,7.9421844E0,6.911669E0,4.342352E0,9.089988E0,1.8352728E0,2.2349455E0,5.9350314E0,4.0059385E0,5.6676836E0,2.4813743E0,4.2966957E0,2.0663605E0,0E0,1.3450501E0,3.430006E0,7.131477E0,1.1995221E1,9.235978E0,0E0,0E0,4.4239016E0,5.740589E0,2.1413803E0,2.9433615E0,4.0907397E0,1.300394E0,8.0416765E0,0E0,1.2413101E0,0E0,3.3098025E0,3.2779636E0,6.7728634E0,3.711563E0,2.6961648E0,3.0354424E0,1.3900385E0,1.0222788E0,1.6735731E0,2.3934913E0,4.684997E0,3.58995E0,5.5410194E-1,3.4122093E0,0E0,0E0,0E0,0E0,0E0,0E0,0E0,0E0,0E0,0E0,0E0,0E0,0E0,0E0,0E0,0E0,0E0,0E0,0E0,0E0,0E0,0E0,0E0,0E0,0E0,0E0,0E0,0E0,0E0,0E0,0E0,0E0,0E0,0E0,0E0,0E0,0E0,0E0,0E0,0E0,0E0,0E0,0E0,0E0,0E0,0E0,0E0,0E0,0E0,0E0,0E0,0E0,0E0,0E0],"parents":[2147483647,0,0,1,1,2,2,3,3,4,4,5,5,6,6,7,7,8,8,9,9,10,10,11,11,12,12,13,13,14,14,15,15,16,16,17,17,18,18,19,19,20,20,21,21,22,22,23,23,24,24,25,25,26,26,27,27,28,28,29,29,30,30,32,32,33,33,34,34,35,35,36,36,39,39,40,40,41,41,42,42,43,43,44,44,45,45,47,47,49,49,50,50,51,51,52,52,53,53,54,54,55,55,56,56,57,57,58,58,59,59,60,60,61,61,62,62],"right_children":[2,4,6,8,10,12,14,16,18,20,22,24,26,28,30,32,34,36,38,40,42,44,46,48,50,52,54,56,58,60,62,-1,64,66,68,70,72,-1,-1,74,76,78,80,82,84,86,-1,88,-1,90,92,94,96,98,100,102,104,106,108,110,112,114,116,-1,-1,-1,-1,-1,-1,-1,-1,-1,-1,-1,-1,-1,-1,-1,-1,-1,-1,-1,-1,-1,-1,-1,-1,-1,-1,-1,-1,-1,-1,-1,-1,-1,-1,-1,-1,-1,-1,-1,-1,-1,-1,-1,-1,-1,-1,-1,-1,-1,-1,-1,-1,-1,-1],"split_conditions":[1E0,2E0,2E0,2E0,4E0,4E0,1E1,8E0,5E0,1.1E1,1E0,2E0,2E0,3E0,3E0,5E0,6E0,1E0,3E0,4E0,5E0,1.9E1,3E1,7E0,2.4E1,7E0,4E0,3E0,4E0,3E0,5E0,-3.1092337E-1,4E0,1E0,2E0,1E0,1E0,4.3232387E-1,1.4232546E-1,5E0,4E0,4E0,4E0,4E0,9E0,1.2E1,-3.3062124E-1,3.5E1,8.768867E-2,1.5E1,3E0,1E1,2E1,1E0,3E0,8E0,1E0,3E0,3E0,1E0,5E0,3E0,4E0,-2.470642E-1,6.5708555E-2,5.634921E-3,-1.8995418E-1,-1.0157491E-1,1.797751E-1,-3.0979902E-1,2.1734875E-1,4.6339944E-2,-1.9768254E-1,-1.7486125E-1,9.8894335E-2,3.259534E-1,-1.2606995E-1,-1.47589E-1,-3.185239E-1,1.8653582E-1,-1.0818338E-1,1.7829679E-1,-2.0077364E-1,4.1976193E-1,5.299861E-2,-1.3070233E-1,1.5195222E-1,-3.070038E-1,2.0923343E-2,-3.3657264E-2,-2.6111946E-1,-2.4980323E-1,1.0221542E-1,-2.2598806E-1,2.6368655E-2,5.2648485E-2,3.659607E-1,-1.3410985E-1,1.6821626E-1,-4.7106613E-4,4.9108824E-1,2.4695066E-1,-5.127028E-2,-5.292263E-2,-3.596527E-1,-2.3404719E-1,4.956269E-2,3.887075E-2,3.2640904E-1,1.481891E-1,-2.7292386E-1,8.9323975E-2,4.140724E-1,1.8333936E-1,3.606807E-1,-9.068629E-2,3.3350274E-1],"split_indices":[10,8,8,1,7,5,2,2,4,2,0,6,0,7,6,5,9,6,1,6,5,2,2,9,2,9,4,9,9,1,7,0,7,6,0,0,0,0,0,9,4,9,6,9,9,2,0,2,0,2,5,2,2,3,9,2,3,6,6,0,7,7,4,0,0,0,0,0,0,0,0,0,0,0,0,0,0,0,0,0,0,0,0,0,0,0,0,0,0,0,0,0,0,0,0,0,0,0,0,0,0,0,0,0,0,0,0,0,0,0,0,0,0,0,0,0,0],"split_type":[0,0,0,0,0,0,0,0,0,0,0,0,0,0,0,0,0,0,0,0,0,0,0,0,0,0,0,0,0,0,0,0,0,0,0,0,0,0,0,0,0,0,0,0,0,0,0,0,0,0,0,0,0,0,0,0,0,0,0,0,0,0,0,0,0,0,0,0,0,0,0,0,0,0,0,0,0,0,0,0,0,0,0,0,0,0,0,0,0,0,0,0,0,0,0,0,0,0,0,0,0,0,0,0,0,0,0,0,0,0,0,0,0,0,0,0,0],"sum_hessian":[5.486757E2,3.452186E2,2.034571E2,2.0872766E2,1.3649092E2,1.2649249E2,7.6964615E1,1.2548651E2,8.324114E1,7.737432E1,5.9116604E1,4.8903416E1,7.758908E1,3.147406E1,4.549055E1,1.6899002E1,1.0858751E2,7.955069E1,3.6904533E0,3.34555E1,4.391882E1,1.6987104E1,4.2129498E1,8.870367E0,4.0033047E1,6.24432E1,1.5145879E1,9.740122E0,2.1733938E1,2.3378252E1,2.21123E1,1.2876301E1,4.0227013E0,7.079196E1,3.7795544E1,1.9440847E1,6.0109844E1,1.6115351E0,2.0789182E0,2.2056566E1,1.1398935E1,3.3441666E1,1.0477155E1,9.832315E0,7.1547894E0,3.615539E1,5.9741054E0,7.804137E0,1.0662293E0,2.6212666E1,1.3820383E1,4.836772E1,1.4075479E1,9.720518E0,5.4253597E0,4.4660277E0,5.274094E0,1.1513439E1,1.0220499E1,7.6663604E0,1.5711892E1,1.6688923E1,5.423378E0,2.683264E0,1.3394371E0,9.198786E0,6.1593178E1,2.7442604E1,1.03529415E1,4.1556625E0,1.5285186E1,2.0880848E1,3.9228996E1,1.4855271E1,7.2012954E0,8.5727625E0,2.826173E0,2.1821756E1,1.161991E1,5.8769493E0,4.600205E0,7.0144534E0,2.8178623E0,5.7932E0,1.3615892E0,1.3898785E1,2.2256609E1,6.7457533E0,1.0583838E0,1.8636488E1,7.5761776E0,1.9381038E0,1.1882279E1,1.1897863E1,3.646986E1,9.305384E0,4.7700953E0,3.2086897E0,6.511829E0,1.4616112E0,3.9637487E0,2.652341E0,1.8136868E0,1.7487321E0,3.5253618E0,1.2459601E0,1.026748E1,5.025341E0,5.195158E0,3.5977983E0,4.0685616E0,1.2203349E1,3.5085425E0,6.2751083E0,1.0413815E1,3.6549923E0,1.7683858E0],"tree_param":{"num_deleted":"0","num_feature":"11","num_nodes":"117","size_leaf_vector":"1"}},{"base_weights":[-7.546686E-2,-2.2427736E-1,6.642605E-2,-4.1380823E-1,-3.7743516E-2,1.1725753E-1,-6.0404813E-1,-1.4475402E-1,-5.3137845E-1,-3.043271E-1,1.6897704E-1,-4.359652E-1,1.633443E-1,8.2011975E-2,-7.037884E-1,3.755132E-1,-4.31722E-1,-9.0503865E-1,-3.6707425E-1,-4.361303E-1,5.0485235E-1,-1.4900734E-1,3.757663E-1,-8.323167E-1,5.043565E-1,3.9118287E-1,6.2213734E-2,-7.430378E-2,1.1771394E-1,-9.086722E-1,-3.2392162E-1,-3.130317E-2,8.488679E-1,-6.678008E-1,2.2627886E-1,-3.13282E-1,-3.2042578E-1,-3.0206746E-1,-2.2359033E-1,-5.690157E-1,4.0276846E-1,8.023629E-2,2.981809E-1,-7.9736674E-1,7.978632E-2,6.067452E-1,-3.092525E-1,-9.364462E-1,1.1691941E-2,8.696463E-1,-1.9912556E-1,-7.5742334E-2,6.059943E-1,8.904E-2,-2.8486267E-1,-7.6155104E-2,-2.966523E-1,-2.424512E-1,6.780924E-2,-1.8480754E-1,2.665588E-1,4.1369027E-1,9.924355E-2,-5.0330544E-3,-3.0665547E-1,3.4734532E-1,-6.0036145E-2,3.517282E-1,-2.71242E-1,-2.0631503E-1,1.5034868E-2,-2.6769727E-1,-1.3898659E-1,4.6510246E-1,-8.861868E-2,3.3255452E-1,-1.3821267E-1,8.069688E-2,-2.9815352E-1,-2.5559375E-1,7.452328E-2,2.6262823E-1,-6.8652764E-2,-1.8547484E-1,1.2736344E-1,-1.0304285E-1,-3.2337326E-1,3.0418766E-1,3.7839003E-2,-1.3294402E-1,3.3054978E-1,1.3181902E-1,3.6899218E-1,1.7476308E-3,1.9686015E-1,1.3377629E-1,-1.9142073E-1],"categories":[],"categories_nodes":[],"categories_segments":[],"categories_sizes":[],"default_left":[0,0,0,0,0,0,0,0,0,0,0,0,0,0,0,0,0,0,0,0,0,0,0,0,0,0,1,0,0,0,0,0,0,0,0,0,0,0,1,0,0,0,0,0,0,0,0,0,0,0,0,0,0,1,0,0,0,0,0,0,0,0,0,0,0,0,0,0,0,0,0,0,0,0,0,0,0,0,0,0,0,0,0,0,0,0,0,0,0,0,0,0,0,0,0,0,0],"id":6,"left_children":[1,3,5,7,9,11,13,15,17,19,21,23,25,27,29,31,33,35,37,39,41,43,45,47,49,51,53,-1,-1,55,57,59,61,63,65,-1,67,-1,69,71,73,75,-1,77,79,81,83,85,-1,87,-1,89,91,93,-1,-1,-1,-1,95,-1,-1,-1,-1,-1,-1,-1,-1,-1,-1,-1,-1,-1,-1,-1,-1,-1,-1,-1,-1,-1,-1,-1,-1,-1,-1,-1,-1,-1,-1,-1,-1,-1,-1,-1,-1,-1,-1],"loss_changes":[1.100484E1,8.973969E0,9.177403E0,3.9095478E0,7.1742067E0,6.425123E0,1.3573489E0,6.088941E0,5.0290756E0,6.2789536E0,4.885229E0,7.663808E0,5.293004E0,4.355078E-1,1.0043364E0,2.8471296E0,4.1977744E0,1.7808228E0,5.4976645E0,5.7348194E0,1.6689899E0,4.4628353E0,7.273872E0,1.3112688E0,3.302153E0,7.1426163E0,4.4548564E0,0E0,0E0,2.8895283E-1,1.4586387E0,5.302772E0,1.4127426E0,4.464426E0,3.2605803E0,0E0,6.673314E0,0E0,6.666171E0,1.058114E0,6.337952E0,3.6229928E0,0E0,1.9070859E0,3.7986288E0,7.795473E0,2.9733074E0,6.859207E-1,0E0,4.4053745E-1,0E0,1.051839E1,4.508688E0,7.442474E0,0E0,0E0,0E0,0E0,1.6226734E0,0E0,0E0,0E0,0E0,0E0,0E0,0E0,0E0,0E0,0E0,0E0,0E0,0E0,0E0,0E0,0E0,0E0,0E0,0E0,0E0,0E0,0E0,0E0,0E0,0E0,0E0,0E0,0E0,0E0,0E0,0E0,0E0,0E0,0E0,0E0,0E0,0E0,0E0],"parents":[2147483647,0,0,1,1,2,2,3,3,4,4,5,5,6,6,7,7,8,8,9,9,10,10,11,11,12,12,13,13,14,14,15,15,16,16,17,17,18,18,19,19,20,20,21,21,22,22,23,23,24,24,25,25,26,26,29,29,30,30,31,31,32,32,33,33,34,34,36,36,38,38,39,39,40,40,41,41,43,43,44,44,45,45,46,46,47,47,49,49,51,51,52,52,53,53,58,58],"right_children":[2,4,6,8,10,12,14,16,18,20,22,24,26,28,30,32,34,36,38,40,42,44,46,48,50,52,54,-1,-1,56,58,60,62,64,66,-1,68,-1,70,72,74,76,-1,78,80,82,84,86,-1,88,-1,90,92,94,-1,-1,-1,-1,96,-1,-1,-1,-1,-1,-1,-1,-1,-1,-1,-1,-1,-1,-1,-1,-1,-1,-1,-1,-1,-1,-1,-1,-1,-1,-1,-1,-1,-1,-1,-1,-1,-1,-1,-1,-1,-1,-1],"split_conditions":[3E0,3E0,5E0,1E0,4E0,3E0,1E0,1E0,3E0,3E1,1E0,5E0,1E0,1E1,1E0,1.9E1,8E0,8E0,2E0,5E0,1E0,3E0,4E0,3E0,4E0,3E0,3.3E1,-7.430378E-2,1.1771394E-1,3E0,4E0,2E0,2.8E1,3E0,8E0,-3.13282E-1,2E0,-3.0206746E-1,1.3E1,9E0,1E0,1E0,2.981809E-1,9E0,9E0,2.2E1,8E0,1E0,1.1691941E-2,2.6E1,-1.9912556E-1,7E0,3E0,2.4E1,-2.8486267E-1,-7.6155104E-2,-2.966523E-1,-2.424512E-1,1E1,-1.8480754E-1,2.665588E-1,4.1369027E-1,9.924355E-2,-5.0330544E-3,-3.0665547E-1,3.4734532E-1,-6.0036145E-2,3.517282E-1,-2.71242E-1,-2.0631503E-1,1.5034868E-2,-2.6769727E-1,-1.3898659E-1,4.6510246E-1,-8.861868E-2,3.3255452E-1,-1.3821267E-1,8.069688E-2,-2.9815352E-1,-2.5559375E-1,7.452328E-2,2.6262823E-1,-6.8652764E-2,-1.8547484E-1,1.2736344E-1,-1.0304285E-1,-3.2337326E-1,3.0418766E-1,3.7839003E-2,-1.3294402E-1,3.3054978E-1,1.3181902E-1,3.6899218E-1,1.7476308E-3,1.9686015E-1,1.3377629E-1,-1.9142073E-1],"split_indices":[6,1,6,6,9,5,8,0,7,2,3,7,0,2,10,2,9,9,6,5,10,7,4,1,9,7,2,0,0,9,7,8,2,7,2,0,6,0,2,2,6,6,0,2,2,2,9,0,0,2,0,9,1,2,0,0,0,0,2,0,0,0,0,0,0,0,0,0,0,0,0,0,0,0,0,0,0,0,0,0,0,0,0,0,0,0,0,0,0,0,0,0,0,0,0,0,0],"split_type":[0,0,0,0,0,0,0,0,0,0,0,0,0,0,0,0,0,0,0,0,0,0,0,0,0,0,0,0,0,0,0,0,0,0,0,0,0,0,0,0,0,0,0,0,0,0,0,0,0,0,0,0,0,0,0,0,0,0,0,0,0,0,0,0,0,0,0,0,0,0,0,0,0,0,0,0,0,0,0,0,0,0,0,0,0,0,0,0,0,0,0,0,0,0,0,0,0],"sum_hessian":[5.1947644E2,2.532741E2,2.6620236E2,1.25023476E2,1.2825063E2,2.4820966E2,1.7992706E1,3.8697403E1,8.632607E1,5.5808582E1,7.244205E1,1.8436718E1,2.2977293E2,2.3063438E0,1.5686363E1,1.3647039E1,2.5050364E1,2.4988644E1,6.133743E1,4.8387936E1,7.420645E0,2.86562E1,4.3785843E1,1.3050648E1,5.3860703E0,6.97543E1,1.6001863E2,1.2162994E0,1.0900445E0,9.285878E0,6.4004855E0,7.841592E0,5.805448E0,1.8424936E1,6.6254277E0,1.9546963E1,5.4416795E0,1.0133429E1,5.1204002E1,4.204891E1,6.339028E0,4.5952044E0,2.8254406E0,6.8263845E0,2.1829817E1,3.283021E1,1.0955629E1,1.1590647E1,1.4600017E0,4.2976284E0,1.0884417E0,2.2183184E1,4.7571117E1,1.5677385E2,3.2447956E0,1.4673059E0,7.818572E0,2.3868446E0,4.013641E0,4.9960027E0,2.8455892E0,2.0480127E0,3.757435E0,6.8635464E0,1.156139E1,1.5417931E0,5.0836344E0,1.2461298E0,4.1955495E0,1.8433523E1,3.2770477E1,8.528688E0,3.3520218E1,1.9360851E0,4.402943E0,1.2223773E0,3.372827E0,1.0046644E0,5.82172E0,2.7242062E0,1.910561E1,2.4806147E1,8.024066E0,7.8201036E0,3.1355257E0,2.8928459E0,8.697801E0,3.294458E0,1.0031707E0,1.7383268E1,4.799916E0,3.8891567E1,8.679549E0,1.3759586E2,1.9177982E1,2.853439E0,1.1602018E0],"tree_param":{"num_deleted":"0","num_feature":"11","num_nodes":"97","size_leaf_vector":"1"}},{"base_weights":[-6.427621E-2,-1.7552428E-1,1.20569214E-1,-3.5382387E-1,-1.1195554E-1,2.610273E-2,5.034105E-1,3.9820254E-1,-5.399881E-1,-4.3744233E-1,-3.689242E-2,2.3652162E-1,-6.964491E-2,-1.2506423E-2,8.344138E-1,8.971504E-1,-3.5781866E-1,-6.709562E-1,-2.1344887E-1,3.2471904E-1,-5.6484205E-1,-1.5287589E-1,1.03940725E-1,3.5265192E-2,6.424471E-1,-3.868006E-1,5.5318054E-2,-2.6078758E-1,7.4235237E-1,-1.0225407E-1,9.5037985E-1,-1.6952887E-1,1.116034E0,-2.6201627E-1,3.1160673E-1,-3.157569E-1,-4.4880763E-1,7.7441614E-3,-2.719326E-1,-2.6878244E-1,3.173477E-1,-9.434007E-1,-2.0638447E-1,-3.596633E-1,-3.0021485E-2,5.400575E-2,8.4983194E-1,-6.3600355E-1,2.0162281E-1,-5.6083876E-1,9.4524413E-1,4.3614316E-1,-5.1957685E-1,-5.208674E-2,4.9321562E-1,-5.731402E-1,2.3769179E-1,9.5662065E-2,2.770485E-1,3.813108E-1,1.1971239E0,-4.4606335E-2,4.323133E-1,4.4075102E-1,-2.1528003E-1,-2.348571E-1,-1.4321992E-2,6.655978E-2,-2.4186866E-1,2.3032753E-1,-2.3797172E-1,-1.0147428E-1,-2.959402E-1,1.5790752E-1,-1.4825696E-1,-1.761891E-1,1.2942503E-1,-6.258127E-2,1.02275684E-1,5.1422525E-2,-1.0867003E-1,3.6471993E-1,-1.1004575E-2,-3.3644128E-1,3.773657E-2,3.4997338E-1,2.3658013E-2,-2.8975055E-1,-1.3153885E-3,3.3242548E-1,-7.0035723E-3,-1.1577823E-1,2.4689938E-1,-4.501068E-2,-2.954245E-1,6.280973E-2,-7.0551105E-2,5.32191E-2,3.4678072E-1,9.452631E-2,-2.4976492E-1,-2.2302713E-1,2.5287914E-1,-4.6959117E-2,2.383422E-1,4.825983E-1,2.5536495E-1],"categories":[],"categories_nodes":[],"categories_segments":[],"categories_sizes":[],"default_left":[0,0,0,0,0,0,0,0,0,0,0,0,0,0,0,0,0,0,0,0,0,0,1,0,0,0,0,0,0,0,0,0,0,0,0,0,0,1,0,0,0,0,0,1,0,1,0,0,0,0,0,0,0,0,0,0,0,0,0,0,1,0,0,0,0,0,0,0,0,0,0,0,0,0,0,0,0,0,0,0,0,0,0,0,0,0,0,0,0,0,0,0,0,0,0,0,0,0,0,0,0,0,0,0,0,0,0],"id":7,"left_children":[1,3,5,7,9,11,13,15,17,19,21,23,25,27,29,31,33,35,37,39,41,43,45,47,49,51,53,55,57,-1,59,-1,61,-1,63,-1,65,67,-1,69,-1,71,73,75,77,79,81,83,85,87,89,91,93,95,97,99,101,-1,-1,103,105,-1,-1,-1,-1,-1,-1,-1,-1,-1,-1,-1,-1,-1,-1,-1,-1,-1,-1,-1,-1,-1,-1,-1,-1,-1,-1,-1,-1,-1,-1,-1,-1,-1,-1,-1,-1,-1,-1,-1,-1,-1,-1,-1,-1,-1,-1],"loss_changes":[1.0311928E1,3.5059566E0,6.808261E0,1.1660505E1,5.6536865E0,3.0856884E0,6.375928E0,6.6573887E0,2.6774464E0,4.3972178E0,3.1139882E0,3.8880012E0,4.201511E0,3.1086006E0,3.4206696E0,3.9607382E0,2.823838E0,3.4783401E0,3.1259503E0,3.2648096E0,4.9002934E0,2.6418374E0,3.166694E0,3.8201077E0,6.2899942E0,3.4976544E0,3.6253147E0,2.073781E0,2.076459E-2,0E0,2.484497E0,0E0,4.0723343E0,0E0,5.7646337E0,0E0,4.142852E0,3.0399425E0,0E0,3.1003668E0,0E0,1.3496017E-1,4.5971127E0,7.2445493E0,4.482379E0,4.0647826E0,1.7781227E0,2.6583567E0,3.1364908E0,8.534734E-1,2.0767202E0,1.813153E0,4.3617954E0,3.0345032E0,2.9700475E0,2.092607E0,3.89296E0,0E0,0E0,1.8581421E0,6.439495E-1,0E0,0E0,0E0,0E0,0E0,0E0,0E0,0E0,0E0,0E0,0E0,0E0,0E0,0E0,0E0,0E0,0E0,0E0,0E0,0E0,0E0,0E0,0E0,0E0,0E0,0E0,0E0,0E0,0E0,0E0,0E0,0E0,0E0,0E0,0E0,0E0,0E0,0E0,0E0,0E0,0E0,0E0,0E0,0E0,0E0,0E0],"parents":[2147483647,0,0,1,1,2,2,3,3,4,4,5,5,6,6,7,7,8,8,9,9,10,10,11,11,12,12,13,13,14,14,15,15,16,16,17,17,18,18,19,19,20,20,21,21,22,22,23,23,24,24,25,25,26,26,27,27,28,28,30,30,32,32,34,34,36,36,37,37,39,39,41,41,42,42,43,43,44,44,45,45,46,46,47,47,48,48,49,49,50,50,51,51,52,52,53,53,54,54,55,55,56,56,59,59,60,60],"right_children":[2,4,6,8,10,12,14,16,18,20,22,24,26,28,30,32,34,36,38,40,42,44,46,48,50,52,54,56,58,-1,60,-1,62,-1,64,-1,66,68,-1,70,-1,72,74,76,78,80,82,84,86,88,90,92,94,96,98,100,102,-1,-1,104,106,-1,-1,-1,-1,-1,-1,-1,-1,-1,-1,-1,-1,-1,-1,-1,-1,-1,-1,-1,-1,-1,-1,-1,-1,-1,-1,-1,-1,-1,-1,-1,-1,-1,-1,-1,-1,-1,-1,-1,-1,-1,-1,-1,-1,-1,-1],"split_conditions":[1E0,3E0,5E0,1E0,2E0,1E0,1E0,4E0,6E0,8E0,2E0,3E0,3E0,5E0,8E0,8E0,1.5E1,1E0,1E1,6E0,1.6E1,1E0,3.5E1,9E0,2E0,8E0,7E0,5E0,1.3E1,-1.0225407E-1,1E0,-1.6952887E-1,1E0,-2.6201627E-1,1.7E1,-3.157569E-1,2E0,2.5E1,-2.719326E-1,3E0,3.173477E-1,3E0,1.8E1,2.3E1,5E0,2E1,4E0,3E0,2E0,1E0,6E0,3E0,4E0,4E0,2E1,1E0,2E0,9.5662065E-2,2.770485E-1,1.4E1,1.3E1,-4.4606335E-2,4.323133E-1,4.4075102E-1,-2.1528003E-1,-2.348571E-1,-1.4321992E-2,6.655978E-2,-2.4186866E-1,2.3032753E-1,-2.3797172E-1,-1.0147428E-1,-2.959402E-1,1.5790752E-1,-1.4825696E-1,-1.761891E-1,1.2942503E-1,-6.258127E-2,1.02275684E-1,5.1422525E-2,-1.0867003E-1,3.6471993E-1,-1.1004575E-2,-3.3644128E-1,3.773657E-2,3.4997338E-1,2.3658013E-2,-2.8975055E-1,-1.3153885E-3,3.3242548E-1,-7.0035723E-3,-1.1577823E-1,2.4689938E-1,-4.501068E-2,-2.954245E-1,6.280973E-2,-7.0551105E-2,5.32191E-2,3.4678072E-1,9.452631E-2,-2.4976492E-1,-2.2302713E-1,2.5287914E-1,-4.6959117E-2,2.383422E-1,4.825983E-1,2.5536495E-1],"split_indices":[10,7,5,6,6,0,3,9,9,2,8,1,7,7,2,2,2,0,9,9,2,3,2,2,6,2,9,9,2,0,0,0,0,0,2,0,8,2,0,5,0,5,2,2,7,2,6,9,9,6,9,4,9,7,2,0,6,0,0,2,2,0,0,0,0,0,0,0,0,0,0,0,0,0,0,0,0,0,0,0,0,0,0,0,0,0,0,0,0,0,0,0,0,0,0,0,0,0,0,0,0,0,0,0,0,0,0],"split_type":[0,0,0,0,0,0,0,0,0,0,0,0,0,0,0,0,0,0,0,0,0,0,0,0,0,0,0,0,0,0,0,0,0,0,0,0,0,0,0,0,0,0,0,0,0,0,0,0,0,0,0,0,0,0,0,0,0,0,0,0,0,0,0,0,0,0,0,0,0,0,0,0,0,0,0,0,0,0,0,0,0,0,0,0,0,0,0,0,0,0,0,0,0,0,0,0,0,0,0,0,0,0,0,0,0,0,0],"sum_hessian":[4.994336E2,3.1181818E2,1.8761542E2,8.0753174E1,2.31065E2,1.5134023E2,3.627518E1,1.5797764E1,6.495541E1,4.239691E1,1.8866809E2,4.6868923E1,1.04471306E2,1.4553558E1,2.172162E1,9.404467E0,6.393297E0,4.5608173E1,1.9347237E1,5.850116E0,3.6546795E1,1.03414955E2,8.5253136E1,3.206038E1,1.4808546E1,2.893614E1,7.5535164E1,1.1444018E1,3.1095393E0,1.7766733E0,1.9944948E1,1.0185238E0,8.385943E0,3.439572E0,2.9537249E0,1.5406959E1,3.0201214E1,1.5415625E1,3.931612E0,3.582884E0,2.2672317E0,1.6981354E1,1.9565441E1,3.78234E1,6.559156E1,8.090895E1,4.344185E0,5.806697E0,2.6253681E1,2.8059156E0,1.200263E1,3.702618E0,2.5233522E1,6.1364994E1,1.4170172E1,6.943419E0,4.5005994E0,1.7585983E0,1.3509408E0,6.8022356E0,1.3142713E1,1.8253636E0,6.5605793E0,1.188982E0,1.7647427E0,1.5957924E1,1.4243291E1,1.2780931E1,2.6346927E0,1.0478976E0,2.5349865E0,1.7164605E0,1.5264894E1,5.2839117E0,1.428153E1,2.9571722E1,8.251676E0,4.4571182E1,2.1020378E1,6.356755E1,1.7341398E1,2.812136E0,1.5320491E0,3.258197E0,2.5485E0,2.0034235E0,2.4250257E1,1.1981711E0,1.6077445E0,1.0151863E1,1.8507669E0,1.1856008E0,2.5170171E0,1.4799249E1,1.0434274E1,2.5214245E1,3.615075E1,1.0455359E1,3.7148125E0,1.52096E0,5.422459E0,1.6299967E0,2.8706028E0,3.225081E0,3.5771549E0,4.334851E0,8.807861E0],"tree_param":{"num_deleted":"0","num_feature":"11","num_nodes":"107","size_leaf_vector":"1"}},{"base_weights":[-5.1890336E-2,-1.7494592E-1,5.911224E-2,-3.3197314E-1,-3.0933212E-2,9.674563E-2,-5.064819E-1,-9.2235714E-2,-4.411304E-1,-2.504331E-1,1.2864159E-1,2.2016095E-2,3.4378305E-1,-6.234559E-1,1.2719016E-1,3.28139E-1,-3.5904267E-1,-5.3344977E-1,1.4275093E-1,-3.5754633E-1,4.009492E-1,-1.7707045E-1,2.481091E-1,-5.44366E-1,6.702176E-2,1.8408076E-1,9.6387184E-1,-2.817422E-1,-1.9092096E-1,2.4314655E-1,-1.7767127E-1,3.6790624E-1,1.6830021E-1,-5.891641E-1,1.9676088E-1,-7.377814E-1,-3.7996688E-1,5.3387874E-1,-2.3655538E-1,-4.6232104E-1,1.9873504E-1,2.8773063E-1,1.3674103E-1,5.259071E-1,-4.0487248E-1,5.622701E-1,6.7997803E-3,-8.189529E-1,7.8110345E-2,-1.5828012E-1,1.9042449E-1,2.9667544E-1,-3.5098776E-1,5.7077837E-1,3.9080226E-1,-2.2167274E-1,1.5293984E-1,-2.4566838E-1,1.5712242E-1,-3.0013466E-2,-2.8679988E-1,3.3736038E-1,-4.214016E-2,-8.1062615E-2,-2.525599E-1,-2.9133853E-1,-6.0477253E-2,2.456954E-1,-5.7273816E-2,-1.6630396E-1,-3.8254037E-2,2.3613125E-1,-1.5563057E-1,-1.1821584E-1,2.2030531E-1,3.8747743E-1,-1.1826779E-1,-1.6893929E-1,1.562914E-2,3.0789432E-1,-9.8140255E-2,-1.5371126E-1,1.4855883E-1,-2.8404287E-1,-2.7609149E-2,-1.08521074E-1,2.126126E-1,-3.1106062E-2,-2.8581485E-1,1.8846348E-2,2.118682E-1,1.8364383E-1,4.5770466E-2,-1.7535128E-1,4.604836E-2,2.4947774E-1,-4.8417065E-2,1.641854E-1,-6.2249478E-2],"categories":[],"categories_nodes":[],"categories_segments":[],"categories_sizes":[],"default_left":[0,0,0,0,0,0,0,0,0,0,0,0,0,0,0,0,0,1,0,0,0,0,0,0,0,0,0,0,0,0,0,0,0,0,0,0,0,0,0,0,0,0,0,0,0,0,0,0,0,1,0,0,0,0,0,0,0,0,0,0,0,0,0,0,0,0,0,0,0,0,0,0,0,0,0,0,0,0,0,0,0,0,0,0,0,0,0,0,0,0,0,0,0,0,0,0,0,0,0],"id":8,"left_children":[1,3,5,7,9,11,13,15,17,19,21,23,25,27,29,31,33,35,37,39,41,43,45,47,49,51,53,-1,55,-1,-1,-1,57,59,61,63,65,67,-1,69,71,-1,73,75,77,79,81,83,85,87,89,91,93,95,-1,-1,97,-1,-1,-1,-1,-1,-1,-1,-1,-1,-1,-1,-1,-1,-1,-1,-1,-1,-1,-1,-1,-1,-1,-1,-1,-1,-1,-1,-1,-1,-1,-1,-1,-1,-1,-1,-1,-1,-1,-1,-1,-1,-1],"loss_changes":[6.6011305E0,5.1701756E0,5.464476E0,2.8244734E0,4.2562776E0,4.411828E0,1.2677193E0,4.101584E0,4.1171684E0,3.7090504E0,2.618433E0,4.7486796E0,5.321637E0,1.6919141E0,2.1164887E0,1.8485411E0,2.9560964E0,1.7563915E0,4.436396E0,2.6806774E0,1.0026425E0,3.4781828E0,3.8701005E0,2.4086518E0,4.8162317E0,2.838874E0,7.396269E-1,0E0,1.4390225E0,0E0,0E0,0E0,5.099219E0,2.766962E0,2.4267695E0,1.0765772E0,3.9323754E0,1.8838143E0,0E0,1.090189E0,3.6755025E0,0E0,2.3145921E0,4.3314795E0,1.183897E0,9.492824E0,7.838611E0,8.056493E-1,1.674225E0,2.5670428E0,7.3060684E0,1.6361256E0,1.073336E0,1.4585268E0,0E0,0E0,8.459065E-1,0E0,0E0,0E0,0E0,0E0,0E0,0E0,0E0,0E0,0E0,0E0,0E0,0E0,0E0,0E0,0E0,0E0,0E0,0E0,0E0,0E0,0E0,0E0,0E0,0E0,0E0,0E0,0E0,0E0,0E0,0E0,0E0,0E0,0E0,0E0,0E0,0E0,0E0,0E0,0E0,0E0,0E0],"parents":[2147483647,0,0,1,1,2,2,3,3,4,4,5,5,6,6,7,7,8,8,9,9,10,10,11,11,12,12,13,13,14,14,15,15,16,16,17,17,18,18,19,19,20,20,21,21,22,22,23,23,24,24,25,25,26,26,28,28,32,32,33,33,34,34,35,35,36,36,37,37,39,39,40,40,42,42,43,43,44,44,45,45,46,46,47,47,48,48,49,49,50,50,51,51,52,52,53,53,56,56],"right_children":[2,4,6,8,10,12,14,16,18,20,22,24,26,28,30,32,34,36,38,40,42,44,46,48,50,52,54,-1,56,-1,-1,-1,58,60,62,64,66,68,-1,70,72,-1,74,76,78,80,82,84,86,88,90,92,94,96,-1,-1,98,-1,-1,-1,-1,-1,-1,-1,-1,-1,-1,-1,-1,-1,-1,-1,-1,-1,-1,-1,-1,-1,-1,-1,-1,-1,-1,-1,-1,-1,-1,-1,-1,-1,-1,-1,-1,-1,-1,-1,-1,-1,-1],"split_conditions":[3E0,3E0,5E0,1E0,4E0,2E0,1.8E1,1E0,2E0,3E1,3E0,3E0,5E0,1E0,2.2E1,3E0,8E0,1.4E1,2.2E1,5E0,1E0,3E0,4E0,5E0,1E0,2.9E1,1.6E1,-2.817422E-1,4E0,2.4314655E-1,-1.7767127E-1,3.6790624E-1,1.4E1,3E0,1E0,2E0,3E0,2E0,-2.3655538E-1,5E0,3E0,2.8773063E-1,1E0,4E0,8E0,2E1,1.6E1,3.6E1,1E0,3.3E1,3.1E1,1E0,1E0,1E0,3.9080226E-1,-2.2167274E-1,5E0,-2.4566838E-1,1.5712242E-1,-3.0013466E-2,-2.8679988E-1,3.3736038E-1,-4.214016E-2,-8.1062615E-2,-2.525599E-1,-2.9133853E-1,-6.0477253E-2,2.456954E-1,-5.7273816E-2,-1.6630396E-1,-3.8254037E-2,2.3613125E-1,-1.5563057E-1,-1.1821584E-1,2.2030531E-1,3.8747743E-1,-1.1826779E-1,-1.6893929E-1,1.562914E-2,3.0789432E-1,-9.8140255E-2,-1.5371126E-1,1.4855883E-1,-2.8404287E-1,-2.7609149E-2,-1.08521074E-1,2.126126E-1,-3.1106062E-2,-2.8581485E-1,1.8846348E-2,2.118682E-1,1.8364383E-1,4.5770466E-2,-1.7535128E-1,4.604836E-2,2.4947774E-1,-4.8417065E-2,1.641854E-1,-6.2249478E-2],"split_indices":[6,1,6,6,9,1,2,0,0,2,7,5,5,10,2,5,9,2,2,5,6,4,7,7,3,2,2,0,7,0,0,0,2,7,8,6,7,8,0,7,7,0,10,5,9,2,2,2,10,2,2,0,10,3,0,0,7,0,0,0,0,0,0,0,0,0,0,0,0,0,0,0,0,0,0,0,0,0,0,0,0,0,0,0,0,0,0,0,0,0,0,0,0,0,0,0,0,0,0],"split_type":[0,0,0,0,0,0,0,0,0,0,0,0,0,0,0,0,0,0,0,0,0,0,0,0,0,0,0,0,0,0,0,0,0,0,0,0,0,0,0,0,0,0,0,0,0,0,0,0,0,0,0,0,0,0,0,0,0,0,0,0,0,0,0,0,0,0,0,0,0,0,0,0,0,0,0,0,0,0,0,0,0,0,0,0,0,0,0,0,0,0,0,0,0,0,0,0,0,0,0],"sum_hessian":[4.8150632E2,2.2808217E2,2.5342413E2,1.0848652E2,1.1959566E2,2.3839105E2,1.503307E1,3.4518967E1,7.396755E1,5.0105156E1,6.94905E1,1.8386153E2,5.452953E1,1.270406E1,2.32901E0,1.3313173E1,2.1205795E1,6.3943592E1,1.0023958E1,4.3416798E1,6.6883593E0,1.9390053E1,5.010045E1,1.2717706E1,1.7114381E2,4.439307E1,1.013646E1,6.6669517E0,6.0371084E0,1.1295816E0,1.1994283E0,1.003206E0,1.2309968E1,1.4954222E1,6.2515736E0,2.5795345E1,3.8148247E1,7.35966E0,2.664298E0,3.6677547E1,6.7392488E0,1.3038377E0,5.3845215E0,4.4253097E0,1.4964744E1,2.118699E1,2.8913458E1,8.605853E0,4.111853E0,6.04659E1,1.10677925E2,3.7043526E1,7.3495455E0,5.9350486E0,4.2014112E0,1.8847098E0,4.152398E0,2.9136832E0,9.396284E0,6.954363E0,7.9998584E0,1.0441879E0,5.2073855E0,5.351453E0,2.0443892E1,7.81246E0,3.0335787E1,5.1886716E0,2.1709886E0,2.8255505E1,8.422043E0,3.64954E0,3.0897088E0,3.0320716E0,2.3524501E0,2.1950276E0,2.230282E0,1.0942724E1,4.022019E0,1.3821648E1,7.365343E0,1.399138E1,1.4922078E1,7.0613585E0,1.5444947E0,2.6734557E0,1.4383972E0,5.763572E1,2.8301811E0,8.962707E1,2.1050854E1,1.05971155E1,2.644641E1,4.915582E0,2.4339633E0,4.2760386E0,1.6590102E0,1.735381E0,2.4170172E0],"tree_param":{"num_deleted":"0","num_feature":"11","num_nodes":"99","size_leaf_vector":"1"}},{"base_weights":[-4.353067E-2,-1.2968776E-1,9.513245E-2,-1.9021757E-1,-4.0025913E-4,1.918453E-2,4.1089836E-1,-3.1927866E-1,-1.11310415E-1,5.5005264E-2,-5.817229E-1,-8.287095E-2,1.900805E-1,3.8062904E-2,6.4122987E-1,-5.7667494E-1,-6.952422E-2,-4.0982452E-1,4.193753E-2,5.676458E-1,-1.2785358E-2,2.340374E-1,-2.7148682E-1,-1.1347519E-1,2.811421E-1,1.537557E-2,4.177929E-1,-5.3123397E-1,3.5602283E-1,-8.0423884E-2,7.3151004E-1,-1.6273695E-1,-6.634597E-1,-1.781519E-1,6.8580675E-1,-1.1886192E-1,-6.1368096E-1,4.7698256E-1,-1.3419367E-1,1.2113525E0,-5.345341E-1,-3.7867105E-1,9.4269834E-2,2.7342558E-1,-1.6473857E-1,-2.2649439E-1,1.399529E-1,-5.1890373E-1,1.8903545E-1,5.3628826E-1,-1.572679E-1,-2.3149106E-1,-1.2046206E-2,-8.41577E-2,4.986925E-1,6.796204E-2,8.389833E-1,1.1306522E-1,-2.5859016E-1,-2.1938749E-1,-9.024928E-3,-1.1473012E-1,1.6991153E-2,3.541374E-1,-1.873065E-1,-8.3499774E-2,2.6009604E-1,-2.5152496E-1,-7.739248E-2,2.1583559E-1,-2.6199505E-1,-2.2478546E-1,-2.0678703E-2,4.5702487E-1,-2.4108207E-2,-2.4468186E-1,5.6607813E-2,-2.4617137E-1,1.2468268E-2,7.7871536E-3,1.2070094E-1,-6.138874E-3,-2.0424497E-1,1.0243847E-1,-1.18965864E-1,7.020261E-2,-2.3565769E-1,-9.912636E-2,1.3512494E-1,1.0739142E-1,3.2861796E-1,-1.5568125E-1,8.447823E-2,4.8406694E-2,2.530608E-1,-1.93047E-1,2.1218647E-1,3.1573293E-1,1.638021E-1],"categories":[],"categories_nodes":[],"categories_segments":[],"categories_sizes":[],"default_left":[0,0,0,0,0,0,0,1,0,0,0,0,0,0,0,0,0,1,0,0,0,0,0,0,0,0,0,0,0,0,0,0,0,0,0,1,0,1,0,0,0,0,0,0,0,0,0,0,0,0,1,0,0,0,0,0,0,0,0,0,0,0,0,0,0,0,0,0,0,0,0,0,0,0,0,0,0,0,0,0,0,0,0,0,0,0,0,0,0,0,0,0,0,0,0,0,0,0,0],"id":9,"left_children":[1,3,5,7,9,11,13,15,17,19,21,23,25,27,29,31,33,35,37,39,41,43,-1,45,-1,47,49,51,53,-1,55,57,59,61,63,65,67,69,71,73,75,77,79,-1,-1,81,83,85,87,89,91,-1,-1,-1,93,95,97,-1,-1,-1,-1,-1,-1,-1,-1,-1,-1,-1,-1,-1,-1,-1,-1,-1,-1,-1,-1,-1,-1,-1,-1,-1,-1,-1,-1,-1,-1,-1,-1,-1,-1,-1,-1,-1,-1,-1,-1,-1,-1],"loss_changes":[5.591796E0,2.25743E0,4.2981205E0,1.9653859E0,3.027106E0,2.5584447E0,2.9609704E0,4.7179112E0,5.6654E0,2.9894555E0,2.3682044E0,2.9775147E0,2.1741993E0,2.7845793E0,1.9549799E0,1.1964808E0,3.2976155E0,2.4168286E0,6.384919E0,7.7738533E0,3.0427246E0,2.1531987E0,0E0,2.6148963E0,0E0,3.0722597E0,1.7032957E0,6.2300634E-1,1.0297852E0,0E0,1.3520393E0,3.199485E0,1.2537203E0,1.6825805E0,4.0241923E0,3.1550252E0,1.7376194E0,8.483534E0,2.3368719E0,2.8019047E0,1.047759E0,3.2981138E0,1.2562873E0,0E0,0E0,5.8601856E0,3.2094095E0,1.815911E0,3.5330303E0,1.5944695E0,9.131484E-1,0E0,0E0,0E0,8.369441E-1,2.202809E0,4.832821E-1,0E0,0E0,0E0,0E0,0E0,0E0,0E0,0E0,0E0,0E0,0E0,0E0,0E0,0E0,0E0,0E0,0E0,0E0,0E0,0E0,0E0,0E0,0E0,0E0,0E0,0E0,0E0,0E0,0E0,0E0,0E0,0E0,0E0,0E0,0E0,0E0,0E0,0E0,0E0,0E0,0E0,0E0],"parents":[2147483647,0,0,1,1,2,2,3,3,4,4,5,5,6,6,7,7,8,8,9,9,10,10,11,11,12,12,13,13,14,14,15,15,16,16,17,17,18,18,19,19,20,20,21,21,23,23,25,25,26,26,27,27,28,28,30,30,31,31,32,32,33,33,34,34,35,35,36,36,37,37,38,38,39,39,40,40,41,41,42,42,45,45,46,46,47,47,48,48,49,49,50,50,54,54,55,55,56,56],"right_children":[2,4,6,8,10,12,14,16,18,20,22,24,26,28,30,32,34,36,38,40,42,44,-1,46,-1,48,50,52,54,-1,56,58,60,62,64,66,68,70,72,74,76,78,80,-1,-1,82,84,86,88,90,92,-1,-1,-1,94,96,98,-1,-1,-1,-1,-1,-1,-1,-1,-1,-1,-1,-1,-1,-1,-1,-1,-1,-1,-1,-1,-1,-1,-1,-1,-1,-1,-1,-1,-1,-1,-1,-1,-1,-1,-1,-1,-1,-1,-1,-1,-1,-1],"split_conditions":[1E0,4E0,5E0,1E0,5E0,2E0,1E0,1.5E1,3E0,3E0,1E0,1.1E1,3E0,3E0,8E0,1E0,1.000001E1,1.1E1,3E0,2E0,3E0,5E0,-2.7148682E-1,2.5E1,2.811421E-1,3E0,2E0,5E0,2E0,-8.0423884E-2,2E0,2E0,1E1,4E0,3E0,1E1,2E0,2.2E1,3E0,5E0,7E0,1.5E1,7E0,2.7342558E-1,-1.6473857E-1,1.6E1,5E0,3E0,3E0,5E0,1.1E1,-2.3149106E-1,-1.2046206E-2,-8.41577E-2,4E0,2E0,4E0,1.1306522E-1,-2.5859016E-1,-2.1938749E-1,-9.024928E-3,-1.1473012E-1,1.6991153E-2,3.541374E-1,-1.873065E-1,-8.3499774E-2,2.6009604E-1,-2.5152496E-1,-7.739248E-2,2.1583559E-1,-2.6199505E-1,-2.2478546E-1,-2.0678703E-2,4.5702487E-1,-2.4108207E-2,-2.4468186E-1,5.6607813E-2,-2.4617137E-1,1.2468268E-2,7.7871536E-3,1.2070094E-1,-6.138874E-3,-2.0424497E-1,1.0243847E-1,-1.18965864E-1,7.020261E-2,-2.3565769E-1,-9.912636E-2,1.3512494E-1,1.0739142E-1,3.2861796E-1,-1.5568125E-1,8.447823E-2,4.8406694E-2,2.530608E-1,-1.93047E-1,2.1218647E-1,3.1573293E-1,1.638021E-1],"split_indices":[10,6,5,3,6,8,3,2,9,4,3,9,1,7,2,6,4,2,4,0,7,9,0,2,0,6,0,9,6,0,6,1,9,7,9,2,8,2,5,5,9,2,9,0,0,2,7,9,7,7,2,0,0,0,9,1,6,0,0,0,0,0,0,0,0,0,0,0,0,0,0,0,0,0,0,0,0,0,0,0,0,0,0,0,0,0,0,0,0,0,0,0,0,0,0,0,0,0,0],"split_type":[0,0,0,0,0,0,0,0,0,0,0,0,0,0,0,0,0,0,0,0,0,0,0,0,0,0,0,0,0,0,0,0,0,0,0,0,0,0,0,0,0,0,0,0,0,0,0,0,0,0,0,0,0,0,0,0,0,0,0,0,0,0,0,0,0,0,0,0,0,0,0,0,0,0,0,0,0,0,0,0,0,0,0,0,0,0,0,0,0,0,0,0,0,0,0,0,0,0,0],"sum_hessian":[4.660249E2,2.8747168E2,1.7855324E2,1.9548041E2,9.199127E1,1.447893E2,3.3763924E1,7.301322E1,1.22467186E2,8.4813156E1,7.1781135E0,9.097564E1,5.3813667E1,1.3338413E1,2.042551E1,3.5311897E1,3.7701324E1,4.09757E1,8.149148E1,9.044452E0,7.576871E1,2.1153762E0,5.0627375E0,8.91884E1,1.7872415E0,3.105514E1,2.2758526E1,4.5396175E0,8.798795E0,1.666903E0,1.8758608E1,6.618543E0,2.8693354E1,3.3629105E1,4.072218E0,1.7533438E1,2.3442265E1,2.299229E1,5.849919E1,5.6472397E0,3.397212E0,1.6576738E1,5.9191967E1,1.0464832E0,1.068893E0,6.1754528E1,2.7433872E1,7.130256E0,2.3924885E1,1.8926092E1,3.8324337E0,2.6641207E0,1.8754972E0,1.4340852E0,7.36471E0,2.8423142E0,1.5916294E1,3.995824E0,2.6227193E0,2.5778044E1,2.91531E0,1.7646585E1,1.5982519E1,3.027997E0,1.0442209E0,1.5709883E1,1.8235548E0,1.3534256E1,9.908008E0,1.9888212E1,3.1040776E0,4.6062813E0,5.389291E1,4.403924E0,1.2433159E0,2.354454E0,1.0427582E0,7.615696E0,8.961042E0,4.933612E1,9.855847E0,4.3205997E1,1.8548532E1,2.0207565E1,7.226307E0,1.8966458E0,5.23361E0,7.9203014E0,1.6004583E1,1.5593174E1,3.3329175E0,2.000963E0,1.8314707E0,4.464906E0,2.8998036E0,1.3421907E0,1.5001235E0,7.7080426E0,8.208252E0],"tree_param":{"num_deleted":"0","num_feature":"11","num_nodes":"99","size_leaf_vector":"1"}},{"base_weights":[-3.649156E-2,-5.57462E-2,4.7930372E-1,-1.4908034E-1,2.3310041E-2,1.3611846E-1,8.355989E-1,1.1477954E-2,-2.1955732E-1,4.950331E-2,-4.342528E-1,-2.0225015E-1,3.1914243E-1,4.4329375E-2,1.0152324E0,-2.0139562E-1,1.05177425E-1,-6.606133E-1,-1.4765553E-1,-4.418944E-2,1.8323141E-1,1.00317754E-1,-5.814611E-1,8.294074E-2,2.3590866E-1,3.4118524E-1,4.0162903E-1,2.2607993E-1,-3.2557225E-1,-2.9488218E-1,3.7227485E-1,-1.5767528E-2,-9.6449995E-1,-5.2449524E-1,-1.2728657E-2,-1.3700263E-1,2.1845214E-1,1.1485744E-1,5.672536E-1,-2.8402576E-1,-7.654541E-1,-2.7563184E-1,5.239596E-1,1.6827145E-1,-2.7533355E-3,-2.4001986E-2,1.5668753E-1,9.626169E-3,-1.8125191E-1,1.7208327E-1,-4.9614303E-2,-1.6894533E-1,2.256109E-1,-8.4748134E-2,-3.0236304E-1,-2.8780633E-1,-8.624384E-2,-2.6042527E-2,9.835034E-2,-9.358102E-2,9.117863E-3,-2.1871111E-1,1.06553316E-1,2.3469625E-2,2.734535E-1,3.4286243E-1,7.909485E-2,-2.2033711E-1,4.117272E-2,-1.659725E-2,-2.668523E-1,-2.0881107E-1,7.6420195E-2,1.7266478E-3,2.40664E-1],"categories":[],"categories_nodes":[],"categories_segments":[],"categories_sizes":[],"default_left":[0,0,0,0,0,0,0,0,0,0,0,0,0,0,0,0,0,0,0,0,0,0,0,0,0,0,0,0,0,0,0,0,0,0,1,0,0,0,0,0,0,0,0,0,0,0,0,0,0,0,0,0,0,0,0,0,0,0,0,0,0,0,0,0,0,0,0,0,0,0,0,0,0,0,0],"id":10,"left_children":[1,3,5,7,9,11,13,15,17,19,21,-1,23,-1,25,27,29,31,33,35,37,-1,39,41,-1,43,-1,45,-1,47,49,51,53,55,57,59,61,63,65,67,69,71,73,-1,-1,-1,-1,-1,-1,-1,-1,-1,-1,-1,-1,-1,-1,-1,-1,-1,-1,-1,-1,-1,-1,-1,-1,-1,-1,-1,-1,-1,-1,-1,-1],"loss_changes":[4.531161E0,3.2362604E0,1.8947575E0,2.2775936E0,2.8748043E0,1.6331491E0,8.217058E-1,1.2634666E0,4.3350477E0,2.8407204E0,1.6645925E0,0E0,8.70447E-1,0E0,8.659868E-1,7.5670233E0,4.801061E0,3.767665E0,6.1695137E0,3.2901711E0,2.3855345E0,0E0,3.993318E-1,1.2117519E0,0E0,2.59894E-1,0E0,1.3010533E0,0E0,1.8533306E0,2.992547E0,3.4495254E0,1.02950096E-1,3.0224333E0,2.310878E0,2.921315E0,4.832906E0,2.2769694E0,2.1195407E0,1.219768E0,5.121772E-1,1.1534495E0,4.8151976E-1,0E0,0E0,0E0,0E0,0E0,0E0,0E0,0E0,0E0,0E0,0E0,0E0,0E0,0E0,0E0,0E0,0E0,0E0,0E0,0E0,0E0,0E0,0E0,0E0,0E0,0E0,0E0,0E0,0E0,0E0,0E0,0E0],"parents":[2147483647,0,0,1,1,2,2,3,3,4,4,5,5,6,6,7,7,8,8,9,9,10,10,12,12,14,14,15,15,16,16,17,17,18,18,19,19,20,20,22,22,23,23,25,25,27,27,29,29,30,30,31,31,32,32,33,33,34,34,35,35,36,36,37,37,38,38,39,39,40,40,41,41,42,42],"right_children":[2,4,6,8,10,12,14,16,18,20,22,-1,24,-1,26,28,30,32,34,36,38,-1,40,42,-1,44,-1,46,-1,48,50,52,54,56,58,60,62,64,66,68,70,72,74,-1,-1,-1,-1,-1,-1,-1,-1,-1,-1,-1,-1,-1,-1,-1,-1,-1,-1,-1,-1,-1,-1,-1,-1,-1,-1,-1,-1,-1,-1,-1,-1],"split_conditions":[6E0,3E0,2E0,1E0,5E0,3E0,1.1E1,1E0,2E0,1E0,1E0,-2.0225015E-1,7E0,4.4329375E-2,1E0,3E0,2E0,1E0,3E0,5E0,3E0,1.00317754E-1,1E1,1E0,2.3590866E-1,1.7E1,4.0162903E-1,1.9E1,-3.2557225E-1,1E0,4E0,8E0,3E0,3E0,2.8E1,2E0,8E0,1.1E1,1E0,4E0,3E0,2E0,4E0,1.6827145E-1,-2.7533355E-3,-2.4001986E-2,1.5668753E-1,9.626169E-3,-1.8125191E-1,1.7208327E-1,-4.9614303E-2,-1.6894533E-1,2.256109E-1,-8.4748134E-2,-3.0236304E-1,-2.8780633E-1,-8.624384E-2,-2.6042527E-2,9.835034E-2,-9.358102E-2,9.117863E-3,-2.1871111E-1,1.06553316E-1,2.3469625E-2,2.734535E-1,3.4286243E-1,7.909485E-2,-2.2033711E-1,4.117272E-2,-1.659725E-2,-2.668523E-1,-2.0881107E-1,7.6420195E-2,1.7266478E-3,2.40664E-1],"split_indices":[5,6,1,6,6,9,2,0,6,10,8,0,9,0,0,1,1,0,7,7,1,0,2,10,0,2,0,2,0,3,4,9,5,1,2,8,2,9,0,7,9,8,4,0,0,0,0,0,0,0,0,0,0,0,0,0,0,0,0,0,0,0,0,0,0,0,0,0,0,0,0,0,0,0,0],"split_type":[0,0,0,0,0,0,0,0,0,0,0,0,0,0,0,0,0,0,0,0,0,0,0,0,0,0,0,0,0,0,0,0,0,0,0,0,0,0,0,0,0,0,0,0,0,0,0,0,0,0,0,0,0,0,0,0,0,0,0,0,0,0,0,0,0,0,0,0,0,0,0,0,0,0,0],"sum_hessian":[4.5255313E2,4.371271E2,1.5426035E1,2.0005525E2,2.3707185E2,8.561547E0,6.8644867E0,6.1281933E1,1.3877332E2,2.2507896E2,1.1992878E1,1.0830715E0,7.478476E0,1.7989024E0,5.065584E0,1.8378618E1,4.2903316E1,1.8304308E1,1.2046901E2,1.3274474E2,9.233423E1,1.723274E0,1.0269604E1,5.7494016E0,1.7290747E0,2.3091822E0,2.756402E0,1.2889004E1,5.4896135E0,1.7134768E1,2.5768549E1,6.199944E0,1.2104363E1,3.1000343E1,8.9468666E1,9.843707E1,3.430767E1,7.948183E1,1.2852405E1,4.8969994E0,5.3726044E0,3.3779519E0,2.3714497E0,1.049866E0,1.2593162E0,6.6978106E0,6.191193E0,8.765015E0,8.369753E0,1.8699333E1,7.0692163E0,3.7751226E0,2.4248216E0,1.173062E0,1.0931301E1,9.860811E0,2.113953E1,7.409625E1,1.53724165E1,4.7712444E1,5.0724625E1,3.7800858E0,3.0527584E1,7.703827E1,2.4435554E0,3.4834893E0,9.368915E0,2.0072987E0,2.889701E0,1.014007E0,4.3585973E0,1.7100642E0,1.6678877E0,1.1850897E0,1.18636E0],"tree_param":{"num_deleted":"0","num_feature":"11","num_nodes":"75","size_leaf_vector":"1"}},{"base_weights":[-2.971178E-2,-4.5401696E-2,3.909228E-1,-3.2344535E-1,-2.4549924E-2,1.5952884E-1,7.6482356E-1,3.2902667E-1,-6.18113E-1,-1.22009106E-1,3.398182E-2,-3.6699313E-1,3.5320327E-1,2.9458478E-1,-3.7843283E-2,-2.9515705E-1,7.8312635E-1,-8.466939E-1,-1.7080896E-1,2.0093618E-2,-3.0012566E-1,5.1018234E-2,-5.018663E-1,-1.9132185E-1,3.8662255E-2,1.843775E-2,7.966192E-1,-2.3182686E-1,1.9268014E-1,3.2682097E-1,4.2228986E-2,-2.9701486E-1,-3.816178E-1,-5.0412846E-1,4.5559406E-1,6.917614E-1,-7.020443E-2,-4.7570688E-1,-4.114041E-2,1.23998426E-1,-7.126514E-2,-2.655233E-1,3.356589E-2,-4.353163E-1,4.2533094E-1,5.9878156E-2,2.952783E-1,-2.2124837E-1,5.8101445E-2,-3.1032884E-1,1.9268213E-1,5.905285E-3,2.1657786E-1,3.499224E-1,-3.6807217E-2,-4.8880637E-2,7.3669285E-2,-1.7917262E-1,3.8145747E-2,-1.0119417E-1,3.0839348E-2,-9.0308905E-2,4.9973838E-2,-5.9588417E-2,3.819436E-2,-1.9015767E-1,1.8636243E-1,-2.0022492E-1,1.0345702E-2,1.8777852E-1,2.9341483E-2],"categories":[],"categories_nodes":[],"categories_segments":[],"categories_sizes":[],"default_left":[0,0,0,0,0,0,0,0,0,0,0,0,0,0,0,0,0,0,0,0,0,1,0,0,0,0,0,0,0,0,0,0,0,0,0,0,1,0,0,1,0,0,0,0,0,0,0,0,0,0,0,0,0,0,0,0,0,0,0,0,0,0,0,0,0,0,0,0,0,0,0],"id":11,"left_children":[1,3,5,7,9,11,13,15,17,19,21,23,25,-1,-1,27,29,31,33,35,37,39,41,-1,-1,43,45,-1,-1,-1,-1,-1,47,49,51,53,55,57,59,61,63,-1,65,67,69,-1,-1,-1,-1,-1,-1,-1,-1,-1,-1,-1,-1,-1,-1,-1,-1,-1,-1,-1,-1,-1,-1,-1,-1,-1,-1],"loss_changes":[2.9284558E0,2.462295E0,1.2591116E0,5.9023786E0,2.2712662E0,1.2640197E0,1.253427E0,3.0300074E0,1.9787254E0,3.7860413E0,2.2994947E0,5.496594E-1,1.2681931E0,0E0,0E0,2.683289E0,1.0250897E0,5.2165127E-1,1.9576623E0,5.1436167E0,2.996942E0,2.171352E0,1.6234813E0,0E0,0E0,1.2833709E0,2.1739507E-1,0E0,0E0,0E0,0E0,0E0,1.1267595E0,4.236906E0,3.8047653E-1,4.027252E0,2.2349424E0,2.9656105E0,1.2239476E0,2.8031693E0,2.3319445E0,0E0,2.0424726E0,3.8354707E-1,1.7805374E-1,0E0,0E0,0E0,0E0,0E0,0E0,0E0,0E0,0E0,0E0,0E0,0E0,0E0,0E0,0E0,0E0,0E0,0E0,0E0,0E0,0E0,0E0,0E0,0E0,0E0,0E0],"parents":[2147483647,0,0,1,1,2,2,3,3,4,4,5,5,6,6,7,7,8,8,9,9,10,10,11,11,12,12,15,15,16,16,17,17,18,18,19,19,20,20,21,21,22,22,25,25,26,26,32,32,33,33,34,34,35,35,36,36,37,37,38,38,39,39,40,40,42,42,43,43,44,44],"right_children":[2,4,6,8,10,12,14,16,18,20,22,24,26,-1,-1,28,30,32,34,36,38,40,42,-1,-1,44,46,-1,-1,-1,-1,-1,48,50,52,54,56,58,60,62,64,-1,66,68,70,-1,-1,-1,-1,-1,-1,-1,-1,-1,-1,-1,-1,-1,-1,-1,-1,-1,-1,-1,-1,-1,-1,-1,-1,-1,-1],"split_conditions":[6E0,3E0,6E0,1E0,1E0,1.1E1,2.3E1,2E0,5E0,4E0,5E0,3E0,2E0,2.9458478E-1,-3.7843283E-2,9E0,1E0,3E0,2.1E1,1E0,2E0,1.6E1,6E0,-1.9132185E-1,3.8662255E-2,2E0,1E0,-2.3182686E-1,1.9268014E-1,3.2682097E-1,4.2228986E-2,-2.9701486E-1,2E0,1E0,4E0,3E0,2.3E1,5E0,6E0,2E0,1E0,-2.655233E-1,1E0,4E0,2.4E1,5.9878156E-2,2.952783E-1,-2.2124837E-1,5.8101445E-2,-3.1032884E-1,1.9268213E-1,5.905285E-3,2.1657786E-1,3.499224E-1,-3.6807217E-2,-4.8880637E-2,7.3669285E-2,-1.7917262E-1,3.8145747E-2,-1.0119417E-1,3.0839348E-2,-9.0308905E-2,4.9973838E-2,-5.9588417E-2,3.819436E-2,-1.9015767E-1,1.8636243E-1,-2.0022492E-1,1.0345702E-2,1.8777852E-1,2.9341483E-2],"split_indices":[5,5,9,0,3,2,2,8,7,9,6,6,1,0,0,9,3,1,2,8,1,2,9,0,0,8,0,0,0,0,0,0,8,10,4,1,2,5,9,4,10,0,10,7,2,0,0,0,0,0,0,0,0,0,0,0,0,0,0,0,0,0,0,0,0,0,0,0,0,0,0],"split_type":[0,0,0,0,0,0,0,0,0,0,0,0,0,0,0,0,0,0,0,0,0,0,0,0,0,0,0,0,0,0,0,0,0,0,0,0,0,0,0,0,0,0,0,0,0,0,0,0,0,0,0,0,0,0,0,0,0,0,0,0,0,0,0,0,0,0,0,0,0,0,0],"sum_hessian":[4.4003482E2,4.2507147E2,1.4963352E1,2.8641792E1,3.9642966E2,1.0124388E1,4.838965E0,8.874563E0,1.976723E1,1.4834352E2,2.4808615E2,2.4819844E0,7.642403E0,3.808686E0,1.0302789E0,3.8847663E0,4.989797E0,1.24911375E1,7.2760916E0,8.300705E1,6.5336464E1,2.4131862E2,6.7675414E0,1.420354E0,1.0616304E0,4.948225E0,2.6941779E0,2.68995E0,1.1948164E0,2.907554E0,2.0822434E0,8.685207E0,3.80593E0,4.8764515E0,2.39964E0,9.047534E0,7.395952E1,3.8439365E1,2.6897099E1,1.5111646E2,9.020215E1,3.5638564E0,3.203685E0,2.3063757E0,2.6418493E0,1.1377766E0,1.5564011E0,2.1771686E0,1.6287612E0,3.4009283E0,1.4755231E0,1.3173773E0,1.0822628E0,5.443204E0,3.6043296E0,5.7544556E1,1.6414965E1,3.1997961E1,6.4414034E0,8.357299E0,1.85398E1,1.3208139E1,1.3790833E2,5.4955276E1,3.5246876E1,1.4631919E0,1.7404932E0,1.2621782E0,1.0441976E0,1.0733703E0,1.568479E0],"tree_param":{"num_deleted":"0","num_feature":"11","num_nodes":"71","size_leaf_vector":"1"}},{"base_weights":[-2.3653012E-2,-1.0476697E-1,4.4615492E-2,-1.3461158E-1,2.3112246E-1,6.0548723E-2,-5.5244386E-1,5.3667966E-3,-2.0380351E-1,4.7485417E-1,-2.0835179E-1,1.3727717E-2,3.149217E-1,8.159266E-2,-2.8787E-1,2.2554259E-1,-1.092152E-1,-4.8939043E-1,-1.0063006E-1,8.519167E-1,-4.553027E-1,-4.6886533E-2,2.750444E-1,3.8554513E-1,-1.8584163E-1,6.7509973E-1,-5.3796536E-1,-3.301817E-1,3.657349E-1,-6.6712165E-1,8.1692904E-2,-6.875467E-1,-7.317243E-3,-1.8164589E-1,1.0881779E0,1.0961222E-1,-2.4160671E-1,-1.1427098E-1,2.1378936E-1,3.16165E-2,8.015276E-1,1.2353802E-1,5.855289E-1,-1.2173495E-3,3.1025338E-1,-2.699358E-1,3.12863E-3,-1.67154E-1,-1.0627087E-2,-7.114385E-3,2.7494863E-1,-2.719E-1,-8.2034625E-2,2.690081E-1,-6.750547E-2,-2.8474227E-1,-1.14882484E-1,5.3521555E-2,-4.6569243E-2,2.9655462E-2,4.5887884E-1,-1.1183531E-1,-6.8735355E-3,2.4603783E-1,9.729649E-3,6.9316E-2,-1.4990535E-1,3.506323E-1,-2.8186142E-1,-7.77712E-2,2.5577125E-1,5.4148227E-2,3.5640922E-1],"categories":[],"categories_nodes":[],"categories_segments":[],"categories_sizes":[],"default_left":[0,0,1,0,0,1,0,0,0,0,0,0,0,0,0,0,0,0,0,0,0,0,0,0,0,0,0,0,0,0,0,0,0,0,0,0,0,0,0,0,0,0,0,0,0,0,0,0,0,0,0,0,0,0,0,0,0,0,0,0,0,0,0,0,0,0,0,0,0,0,0,0,0],"id":12,"left_children":[1,3,5,7,9,11,13,15,17,19,-1,21,23,-1,-1,25,27,29,31,33,35,37,39,41,-1,43,45,47,49,51,53,55,57,-1,59,-1,-1,61,63,65,67,69,71,-1,-1,-1,-1,-1,-1,-1,-1,-1,-1,-1,-1,-1,-1,-1,-1,-1,-1,-1,-1,-1,-1,-1,-1,-1,-1,-1,-1,-1,-1],"loss_changes":[2.4073212E0,2.021834E0,2.2813768E0,1.7736423E0,4.068753E0,2.7475734E0,2.3556309E0,1.5765086E0,3.560192E0,5.1972704E0,0E0,3.1203718E0,2.6060734E0,0E0,0E0,7.7021155E0,4.43751E0,3.3279881E0,4.99233E0,4.138504E0,1.6177726E0,2.8366845E0,4.727373E0,1.7075038E0,0E0,3.3942332E0,1.692059E0,1.8937125E0,2.9248416E0,2.0787172E0,2.3379548E0,6.3308716E-1,2.2182603E0,0E0,3.8024645E0,0E0,0E0,3.0113797E0,3.6278725E0,2.9128222E0,8.56889E0,4.677918E0,4.421452E0,0E0,0E0,0E0,0E0,0E0,0E0,0E0,0E0,0E0,0E0,0E0,0E0,0E0,0E0,0E0,0E0,0E0,0E0,0E0,0E0,0E0,0E0,0E0,0E0,0E0,0E0,0E0,0E0,0E0,0E0],"parents":[2147483647,0,0,1,1,2,2,3,3,4,4,5,5,6,6,7,7,8,8,9,9,11,11,12,12,15,15,16,16,17,17,18,18,19,19,20,20,21,21,22,22,23,23,25,25,26,26,27,27,28,28,29,29,30,30,31,31,32,32,34,34,37,37,38,38,39,39,40,40,41,41,42,42],"right_children":[2,4,6,8,10,12,14,16,18,20,-1,22,24,-1,-1,26,28,30,32,34,36,38,40,42,-1,44,46,48,50,52,54,56,58,-1,60,-1,-1,62,64,66,68,70,72,-1,-1,-1,-1,-1,-1,-1,-1,-1,-1,-1,-1,-1,-1,-1,-1,-1,-1,-1,-1,-1,-1,-1,-1,-1,-1,-1,-1,-1,-1],"split_conditions":[3E0,2E0,3.3E1,1E0,2.2E1,2.2E1,3E0,3E0,3E0,1E0,-2.0835179E-1,7E0,9E0,8.159266E-2,-2.8787E-1,4E0,7E0,7E0,2E0,8E0,2E0,3E0,5E0,3E0,-1.8584163E-1,4E0,1.5E1,2.2E1,1E0,2E0,2E0,1.5E1,4E0,-1.8164589E-1,1E0,1.0961222E-1,-2.4160671E-1,3E0,9E0,4E0,1E1,2E0,2E0,-1.2173495E-3,3.1025338E-1,-2.699358E-1,3.12863E-3,-1.67154E-1,-1.0627087E-2,-7.114385E-3,2.7494863E-1,-2.719E-1,-8.2034625E-2,2.690081E-1,-6.750547E-2,-2.8474227E-1,-1.14882484E-1,5.3521555E-2,-4.6569243E-2,2.9655462E-2,4.5887884E-1,-1.1183531E-1,-6.8735355E-3,2.4603783E-1,9.729649E-3,6.9316E-2,-1.4990535E-1,3.506323E-1,-2.8186142E-1,-7.77712E-2,2.5577125E-1,5.4148227E-2,3.5640922E-1],"split_indices":[6,0,2,6,2,2,9,7,7,10,0,9,9,0,0,9,9,9,6,2,9,1,7,9,0,5,2,2,10,8,6,2,7,0,3,0,0,7,2,7,9,1,0,0,0,0,0,0,0,0,0,0,0,0,0,0,0,0,0,0,0,0,0,0,0,0,0,0,0,0,0,0,0],"split_type":[0,0,0,0,0,0,0,0,0,0,0,0,0,0,0,0,0,0,0,0,0,0,0,0,0,0,0,0,0,0,0,0,0,0,0,0,0,0,0,0,0,0,0,0,0,0,0,0,0,0,0,0,0,0,0,0,0,0,0,0,0,0,0,0,0,0,0,0,0,0,0,0,0],"sum_hessian":[4.3288437E2,1.975859E2,2.3529845E2,1.8201285E2,1.5573052E1,2.3005768E2,5.2407713E0,6.0513588E1,1.2149926E2,1.2712623E1,2.86043E0,1.9518504E2,3.4872646E1,1.8422304E0,3.3985407E0,2.0381325E1,4.0132263E1,3.1251337E1,9.0247925E1,9.105567E0,3.6070557E0,1.5910101E2,3.6084026E1,3.2968224E1,1.9044222E0,1.2900967E1,7.480359E0,2.7597548E1,1.2534717E1,2.3705574E1,7.5457625E0,1.1506491E1,7.874143E1,1.0521966E0,8.05337E0,1.0654376E0,2.541618E0,1.2686752E2,3.2233486E1,2.5399988E1,1.0684037E1,1.497136E1,1.7996864E1,4.8037987E0,8.097168E0,4.120778E0,3.3595808E0,1.5087843E1,1.2509706E1,7.903205E0,4.631511E0,1.3935532E1,9.770042E0,1.5372815E0,6.008481E0,5.051932E0,6.4545593E0,3.4817688E1,4.3923744E1,2.8622675E0,5.191103E0,3.2323452E1,9.454407E1,6.6104436E0,2.5623043E1,1.8878572E1,6.521415E0,9.094431E0,1.5896063E0,1.0239544E1,4.731817E0,1.1539173E1,6.4576917E0],"tree_param":{"num_deleted":"0","num_feature":"11","num_nodes":"73","size_leaf_vector":"1"}},{"base_weights":[-2.1655496E-2,-2.581112E-1,-1.5628539E-2,-6.856372E-2,6.8654776E-2,-4.3709222E-2,-3.9974043E-1,1.8698167E-2,2.7988982E-1,-1.4388648E-1,4.3300144E-2,-8.1500125E-1,6.900262E-2,-1.1274694E-2,4.5289648E-1,1.4721298E-2,4.4283697E-1,-4.770995E-1,1.6329778E-2,1.3040853E-1,-1.4072952E-1,-2.8993195E-1,-2.0260169E-1,2.0153676E-1,-1.5831687E-1,-8.834673E-2,1.5307525E-1,-1.3581361E-2,7.785829E-1,-1.8045071E-1,5.3050345E-1,-2.5064075E-2,5.708779E-1,-3.2174315E-2,-1.9255151E-1,-3.029547E-1,3.1987663E-2,-1.7955751E-3,1.1233939E-1,-9.520859E-2,4.872232E-2,1.00485615E-1,-1.9743632E-1,9.8200776E-2,-1.22812964E-1,-5.9178792E-2,2.9831357E-2,1.4293501E-1,1.3849994E-3,-1.8391117E-1,2.3324181E-1,2.8553733E-1,4.707063E-2,-1.21142074E-1,5.1982056E-2,5.9171192E-2,2.0986527E-1,-2.009324E-1,2.3915152E-1,7.123333E-3,2.0214757E-1],"categories":[],"categories_nodes":[],"categories_segments":[],"categories_sizes":[],"default_left":[0,0,0,0,0,0,0,0,0,0,1,0,0,0,0,0,0,0,0,0,0,0,0,0,0,0,0,0,0,0,0,0,0,0,0,0,0,0,0,0,0,0,0,0,0,0,0,0,0,0,0,0,0,0,0,0,0,0,0,0,0],"id":13,"left_children":[1,-1,3,5,7,9,11,13,15,17,19,21,23,25,27,29,31,33,35,37,39,-1,41,-1,43,45,47,49,51,53,55,57,59,-1,-1,-1,-1,-1,-1,-1,-1,-1,-1,-1,-1,-1,-1,-1,-1,-1,-1,-1,-1,-1,-1,-1,-1,-1,-1,-1,-1],"loss_changes":[2.1410396E0,0E0,1.8972749E0,2.13131E0,1.7268955E0,2.1325953E0,3.5796604E0,1.7466563E0,1.3468995E0,6.073863E0,2.1235569E0,7.0158243E-1,1.397819E0,1.6114914E0,1.3270695E0,1.4000002E0,1.1745725E0,2.181119E0,7.3072166E0,2.986591E0,2.3363445E0,0E0,1.0000087E0,0E0,1.0671552E0,1.7890733E0,1.9488192E0,2.6321075E0,4.0197396E-1,8.7155056E-1,7.670426E-2,3.2475028E0,8.428397E-1,0E0,0E0,0E0,0E0,0E0,0E0,0E0,0E0,0E0,0E0,0E0,0E0,0E0,0E0,0E0,0E0,0E0,0E0,0E0,0E0,0E0,0E0,0E0,0E0,0E0,0E0,0E0,0E0],"parents":[2147483647,0,0,2,2,3,3,4,4,5,5,6,6,7,7,8,8,9,9,10,10,11,11,12,12,13,13,14,14,15,15,16,16,17,17,18,18,19,19,20,20,22,22,24,24,25,25,26,26,27,27,28,28,29,29,30,30,31,31,32,32],"right_children":[2,-1,4,6,8,10,12,14,16,18,20,22,24,26,28,30,32,34,36,38,40,-1,42,-1,44,46,48,50,52,54,56,58,60,-1,-1,-1,-1,-1,-1,-1,-1,-1,-1,-1,-1,-1,-1,-1,-1,-1,-1,-1,-1,-1,-1,-1,-1,-1,-1,-1,-1],"split_conditions":[2E0,-2.581112E-1,1E0,1E1,5E0,1.5E1,2E0,1E1,1E0,1E0,2.5E1,2E0,1E0,3E0,1E0,5E0,1E1,1E0,3E0,5E0,2E0,-2.8993195E-1,4E0,2.0153676E-1,4E0,2E0,1E0,2E1,1.3E1,5E0,1.3E1,6E0,2E0,-3.2174315E-2,-1.9255151E-1,-3.029547E-1,3.1987663E-2,-1.7955751E-3,1.1233939E-1,-9.520859E-2,4.872232E-2,1.00485615E-1,-1.9743632E-1,9.8200776E-2,-1.22812964E-1,-5.9178792E-2,2.9831357E-2,1.4293501E-1,1.3849994E-3,-1.8391117E-1,2.3324181E-1,2.8553733E-1,4.707063E-2,-1.21142074E-1,5.1982056E-2,5.9171192E-2,2.0986527E-1,-2.009324E-1,2.3915152E-1,7.123333E-3,2.0214757E-1],"split_indices":[4,0,10,9,5,2,1,9,3,3,2,0,6,1,3,7,2,0,5,9,8,0,7,0,5,0,0,2,2,9,2,9,6,0,0,0,0,0,0,0,0,0,0,0,0,0,0,0,0,0,0,0,0,0,0,0,0,0,0,0,0],"split_type":[0,0,0,0,0,0,0,0,0,0,0,0,0,0,0,0,0,0,0,0,0,0,0,0,0,0,0,0,0,0,0,0,0,0,0,0,0,0,0,0,0,0,0,0,0,0,0,0,0,0,0,0,0,0,0,0,0,0,0,0,0],"sum_hessian":[4.2521735E2,2.0224197E0,4.2319492E2,2.6005234E2,1.6314258E2,2.4295107E2,1.7101267E1,1.3281958E2,3.0323008E1,1.1262633E2,1.3032474E2,8.676253E0,8.425013E0,1.25154175E2,7.665403E0,1.1956386E1,1.8366623E1,3.5927505E1,7.669882E1,8.865314E1,4.1671597E1,6.492597E0,2.183656E0,1.7717013E0,6.6533117E0,8.551452E1,3.9639652E1,3.5455053E0,4.119898E0,9.145768E0,2.8106174E0,4.118952E0,1.424767E1,1.1580153E1,2.4347353E1,5.379456E0,7.131937E1,5.7496166E1,3.1156971E1,2.6300095E1,1.5371501E1,1.1230443E0,1.0606118E0,2.1638048E0,4.4895067E0,5.4091015E1,3.1423508E1,1.1777156E1,2.7862495E1,2.1450427E0,1.4004626E0,2.8068707E0,1.3130269E0,5.519156E0,3.6266117E0,1.6750737E0,1.1355437E0,2.4126382E0,1.7063138E0,2.4511576E0,1.1796513E1],"tree_param":{"num_deleted":"0","num_feature":"11","num_nodes":"61","size_leaf_vector":"1"}},{"base_weights":[-1.7553378E-2,-2.350939E-1,-1.2547446E-2,-2.3911864E-2,2.983922E-1,-8.741583E-2,2.7838921E-2,2.4581987E-2,6.318024E-1,-1.1182553E-1,1.57248E-1,1.8047184E-1,-3.3037677E-2,-1.4904097E-1,1.3280635E-1,5.563522E-2,7.300083E-1,1.6714005E-2,-1.7825659E-1,3.2912716E-1,-1.8439144E-1,2.1590017E-1,-2.0846201E-1,-1.3989492E-2,-2.571725E-1,2.1085215E-1,-2.3030297E-1,2.7605546E-1,9.744355E-2,-3.6503818E-2,4.272218E-2,-1.5296052E-1,-3.7916373E-2,1.6490568E-1,-1.08609654E-1,3.73976E-2,1.7728995E-1,-9.188579E-2,7.860252E-3,-9.403663E-2,1.9250114E-1],"categories":[],"categories_nodes":[],"categories_segments":[],"categories_sizes":[],"default_left":[0,0,0,0,0,0,0,0,0,0,0,0,1,0,0,0,0,0,0,0,0,0,0,0,0,0,0,0,0,0,0,0,0,0,0,0,0,0,0,0,0],"id":14,"left_children":[1,-1,3,5,7,9,11,13,15,17,19,21,23,25,-1,-1,27,29,31,33,-1,35,-1,37,-1,39,-1,-1,-1,-1,-1,-1,-1,-1,-1,-1,-1,-1,-1,-1,-1],"loss_changes":[1.597953E0,0E0,1.4825518E0,1.3292676E0,1.3352484E0,1.1016797E0,2.0800047E0,7.3127896E-1,1.5530992E-1,1.4173944E0,2.4421885E0,2.128527E0,2.5064542E0,1.770202E0,0E0,0E0,9.373355E-2,1.0149761E0,1.8153625E0,2.403235E0,0E0,2.0507817E0,0E0,1.8618706E0,0E0,1.4099406E0,0E0,0E0,0E0,0E0,0E0,0E0,0E0,0E0,0E0,0E0,0E0,0E0,0E0,0E0,0E0],"parents":[2147483647,0,0,2,2,3,3,4,4,5,5,6,6,7,7,8,8,9,9,10,10,11,11,12,12,13,13,16,16,17,17,18,18,19,19,21,21,23,23,25,25],"right_children":[2,-1,4,6,8,10,12,14,16,18,20,22,24,26,-1,-1,28,30,32,34,-1,36,-1,38,-1,40,-1,-1,-1,-1,-1,-1,-1,-1,-1,-1,-1,-1,-1,-1,-1],"split_conditions":[2E0,-2.350939E-1,6E0,3E0,3E0,2E0,1E0,2E0,1.1E1,1E0,2.2E1,5E0,3.3E1,2.4E1,1.3280635E-1,5.563522E-2,1.7E1,1.6E1,2E0,1E0,-1.8439144E-1,5E0,-2.0846201E-1,8E0,-2.571725E-1,1.4E1,-2.3030297E-1,2.7605546E-1,9.744355E-2,-3.6503818E-2,4.272218E-2,-1.5296052E-1,-3.7916373E-2,1.6490568E-1,-1.08609654E-1,3.73976E-2,1.7728995E-1,-9.188579E-2,7.860252E-3,-9.403663E-2,1.9250114E-1],"split_indices":[4,0,5,6,1,0,0,0,2,6,2,6,2,2,0,0,2,2,6,10,0,7,0,2,0,2,0,0,0,0,0,0,0,0,0,0,0,0,0,0,0],"split_type":[0,0,0,0,0,0,0,0,0,0,0,0,0,0,0,0,0,0,0,0,0,0,0,0,0,0,0,0,0,0,0,0,0,0,0,0,0,0,0,0,0],"sum_hessian":[4.1823904E2,1.7054049E0,4.1653363E2,4.0273724E2,1.3796394E1,1.8052448E2,2.2221277E2,8.164829E0,5.6315656E0,1.6464142E2,1.5883058E1,6.2797962E1,1.5941481E2,6.2238436E0,1.9409853E0,1.5364945E0,4.095071E0,5.6352192E1,1.0828922E2,1.3459565E1,2.4234922E0,6.1079224E1,1.7187389E0,1.5680779E2,2.6070132E0,4.3515067E0,1.8723366E0,1.9220223E0,2.1730485E0,2.6836285E1,2.9515907E1,1.3452625E1,9.483659E1,1.0358664E1,3.1009014E0,5.0199642E1,1.0879583E1,1.815429E1,1.386535E2,2.085664E0,2.265843E0],"tree_param":{"num_deleted":"0","num_feature":"11","num_nodes":"41","size_leaf_vector":"1"}},{"base_weights":[-1.4538244E-2,-6.3320234E-2,5.5741765E-2,-4.885049E-1,-3.7384883E-2,1.0064544E-2,5.311029E-1,-6.176039E-1,9.185866E-2,-7.870997E-3,-3.252502E-1,5.246248E-2,-5.3018117E-1,-9.7694136E-2,8.97272E-1,-2.7493152E-1,-1.04672305E-1,-4.3557633E-2,5.026225E-1,-7.8309405E-1,1.8478845E-1,-2.6567137E-2,1.9899628E-1,-7.5148576E-1,1.2755974E-1,5.844836E-1,-2.1900551E-1,4.0113807E-1,1.2560005E-1,-2.0692167E-1,3.5941947E-1,-1.6359554E-1,6.893524E-2,-5.4417115E-1,8.1408393E-1,-2.7734065E-2,-1.0045128E0,-2.3487914E-1,7.918427E-1,-3.7411216E-1,7.760561E-2,3.2428515E-1,-1.9789228E-1,-1.155371E-2,-9.214728E-1,2.3356642E-1,5.3219076E-2,-3.7067077E-1,2.3315564E-1,1.9891323E-1,-2.0865066E-2,3.006892E-2,-9.093049E-2,-7.010715E-2,6.3420035E-2,1.2766092E-2,-2.7116212E-1,3.6654353E-1,-8.6092785E-2,7.325551E-2,-9.0536736E-2,-9.616757E-2,-3.3595794E-1,8.774864E-2,-2.4921197E-1,6.975873E-2,2.897904E-1,3.2073006E-2,-2.4597648E-1,-7.5378105E-2,5.340773E-2,2.4398753E-2,2.8025872E-1,1.9257705E-1,-1.7015012E-1,-3.2013842E-1,-6.6709914E-3,-2.1758553E-2,-1.5219672E-1],"categories":[],"categories_nodes":[],"categories_segments":[],"categories_sizes":[],"default_left":[0,0,1,0,1,1,0,0,0,1,0,0,0,0,0,0,0,0,0,0,0,0,0,0,0,0,0,0,0,0,0,0,0,0,0,0,0,0,0,0,0,0,0,0,0,0,0,0,0,0,0,0,0,0,0,0,0,0,0,0,0,0,0,0,0,0,0,0,0,0,0,0,0,0,0,0,0,0,0],"id":15,"left_children":[1,3,5,7,9,11,13,15,-1,17,19,21,23,25,27,-1,29,31,33,35,37,39,41,43,-1,45,-1,-1,47,-1,49,51,53,55,57,59,61,63,65,67,69,71,73,-1,75,-1,-1,77,-1,-1,-1,-1,-1,-1,-1,-1,-1,-1,-1,-1,-1,-1,-1,-1,-1,-1,-1,-1,-1,-1,-1,-1,-1,-1,-1,-1,-1,-1,-1],"loss_changes":[1.4249353E0,2.6856031E0,3.694589E0,1.6268501E0,1.9700754E0,3.6120694E0,3.5226903E0,1.8027463E0,0E0,3.8770852E0,5.1808767E0,1.6960938E0,2.746096E0,3.1840563E0,3.065628E0,0E0,1.792579E0,2.694545E0,4.977016E0,1.9048381E0,2.991117E0,3.494977E0,2.6137462E0,1.1376619E0,0E0,1.486938E-1,0E0,0E0,1.7633908E0,0E0,5.4493654E-1,3.5794275E0,4.5022774E0,8.379613E-1,5.3419724E0,3.455342E-1,3.4377575E-1,2.5309827E0,2.3598313E-1,4.858818E0,2.5045094E0,5.754894E0,4.371846E0,0E0,9.9431324E-1,0E0,0E0,9.630507E-2,0E0,0E0,0E0,0E0,0E0,0E0,0E0,0E0,0E0,0E0,0E0,0E0,0E0,0E0,0E0,0E0,0E0,0E0,0E0,0E0,0E0,0E0,0E0,0E0,0E0,0E0,0E0,0E0,0E0,0E0,0E0],"parents":[2147483647,0,0,1,1,2,2,3,3,4,4,5,5,6,6,7,7,9,9,10,10,11,11,12,12,13,13,14,14,16,16,17,17,18,18,19,19,20,20,21,21,22,22,23,23,25,25,28,28,30,30,31,31,32,32,33,33,34,34,35,35,36,36,37,37,38,38,39,39,40,40,41,41,42,42,44,44,47,47],"right_children":[2,4,6,8,10,12,14,16,-1,18,20,22,24,26,28,-1,30,32,34,36,38,40,42,44,-1,46,-1,-1,48,-1,50,52,54,56,58,60,62,64,66,68,70,72,74,-1,76,-1,-1,78,-1,-1,-1,-1,-1,-1,-1,-1,-1,-1,-1,-1,-1,-1,-1,-1,-1,-1,-1,-1,-1,-1,-1,-1,-1,-1,-1,-1,-1,-1,-1],"split_conditions":[2E0,3E0,3.1E1,9E0,3.1E1,2.6E1,1E0,5E0,9.185866E-2,2.8E1,4E0,3E0,5E0,1E0,4E0,-2.7493152E-1,3E0,4E0,3E0,2E0,1E0,3E0,5E0,1E0,1.2755974E-1,4E0,-2.1900551E-1,4.0113807E-1,5E0,-2.0692167E-1,1.4E1,1E0,1E0,1E0,5E0,1E0,3.2E1,3.4E1,3.4E1,4E0,3E0,4E0,1E0,-1.155371E-2,6E0,2.3356642E-1,5.3219076E-2,7E0,2.3315564E-1,1.9891323E-1,-2.0865066E-2,3.006892E-2,-9.093049E-2,-7.010715E-2,6.3420035E-2,1.2766092E-2,-2.7116212E-1,3.6654353E-1,-8.6092785E-2,7.325551E-2,-9.0536736E-2,-9.616757E-2,-3.3595794E-1,8.774864E-2,-2.4921197E-1,6.975873E-2,2.897904E-1,3.2073006E-2,-2.4597648E-1,-7.5378105E-2,5.340773E-2,2.4398753E-2,2.8025872E-1,1.9257705E-1,-1.7015012E-1,-3.2013842E-1,-6.6709914E-3,-2.1758553E-2,-1.5219672E-1],"split_indices":[8,5,2,9,2,2,3,7,0,2,7,1,7,0,9,0,6,9,7,7,10,6,7,3,0,9,0,0,7,0,2,3,3,10,7,0,2,2,2,9,7,7,3,0,9,0,0,9,0,0,0,0,0,0,0,0,0,0,0,0,0,0,0,0,0,0,0,0,0,0,0,0,0,0,0,0,0,0,0],"split_type":[0,0,0,0,0,0,0,0,0,0,0,0,0,0,0,0,0,0,0,0,0,0,0,0,0,0,0,0,0,0,0,0,0,0,0,0,0,0,0,0,0,0,0,0,0,0,0,0,0,0,0,0,0,0,0,0,0,0,0,0,0,0,0,0,0,0,0,0,0,0,0,0,0,0,0,0,0,0,0],"sum_hessian":[4.1359753E2,2.4419713E2,1.694004E2,1.3013763E1,2.3118336E2,1.5548145E2,1.3918963E1,1.1386822E1,1.6269411E0,2.1061685E2,2.0566513E1,1.4500453E2,1.0476917E1,5.3923135E0,8.52665E0,6.6979322E0,4.68889E0,1.9771036E2,1.2906494E1,1.0555683E1,1.001083E1,9.473181E1,5.0272717E1,8.679753E0,1.7971637E0,2.6302972E0,2.762016E0,4.96425E0,3.5624003E0,1.8590407E0,2.829849E0,9.54278E1,1.0228255E2,2.7882576E0,1.0118237E1,2.6478653E0,7.9078174E0,6.28144E0,3.7293894E0,2.124896E1,7.348285E1,3.834955E1,1.1923166E1,1.9071581E0,6.7725954E0,1.1632406E0,1.4670568E0,2.2669413E0,1.295459E0,1.3375002E0,1.4923488E0,3.3104385E1,6.232342E1,3.25337E1,6.974885E1,1.3948164E0,1.3934411E0,7.3038983E0,2.814338E0,1.3838218E0,1.2640436E0,1.6865345E0,6.221283E0,3.6021893E0,2.6792507E0,1.4398408E0,2.2895486E0,1.0586482E1,1.0662479E1,1.6837997E1,5.664485E1,2.8235407E1,1.0114142E1,3.4160185E0,8.507148E0,5.667834E0,1.1047616E0,1.19358E0,1.0733613E0],"tree_param":{"num_deleted":"0","num_feature":"11","num_nodes":"79","size_leaf_vector":"1"}},{"base_weights":[-1.3676005E-2,-6.0156245E-2,6.0774323E-2,-4.0589668E-2,-3.4316048E-1,6.6866935E-4,1.8734924E-1,-1.1959482E-1,2.677152E-2,-7.298598E-1,3.199818E-2,-1.986346E-1,6.9634244E-2,4.9705118E-2,4.38039E-1,-3.962348E-1,7.841433E-4,-3.132273E-2,2.2807556E-1,-2.8122723E-1,-1.0073549E-1,-1.8454902E-1,4.494214E-1,3.5541657E-1,-3.3039024E-1,1.777136E-3,3.7326008E-1,1.808435E-1,-8.278133E-1,-8.837633E-2,5.1899374E-1,1.2730812E-1,-4.5695546E-1,-2.8277117E-1,6.4476684E-2,3.7224135E-1,-1.0938254E-1,6.884798E-1,-1.1588976E-1,1.307612E-1,-1.6986975E-1,1.03941076E-1,-4.7598842E-1,2.530722E-1,-5.607143E-2,-1.0644743E-1,6.6392285E-1,9.892114E-2,-4.6183446E-1,1.917888E-1,-1.6131437E-1,8.803558E-2,7.9209596E-1,3.1397134E-1,-3.1185523E-1,-2.8756407E-1,-6.1484646E-2,1.02264956E-1,-1.3891456E-1,1.931101E-3,6.565209E-1,-2.2631882E-1,-7.734993E-2,-1.18675E-1,3.9513282E-2,1.6637997E-1,-1.4356723E-1,-7.3923625E-2,6.611323E-2,-1.3253328E-1,2.64713E-1,-1.8592596E-1,9.2567384E-2,9.466793E-2,-2.733643E-1,1.29748825E-2,2.9565385E-1,1.691189E-1,-1.4909147E-1,-2.099121E-1,7.7839443E-3,-6.5046814E-3,1.8822108E-1,-7.82386E-2,6.370222E-2,-8.1281066E-2,2.0045137E-1,3.5401493E-1,-2.4198506E-2,1.4741367E-1,-4.517638E-2,-1.9980524E-1,1.0265032E-1,-2.0369217E-1,2.4379165E-1,1.0153043E-1,2.6573682E-1],"categories":[],"categories_nodes":[],"categories_segments":[],"categories_sizes":[],"default_left":[0,0,0,0,0,0,1,0,0,1,0,0,1,1,0,0,0,0,0,0,0,0,0,0,0,0,0,1,0,0,0,0,0,0,0,0,0,0,1,0,0,0,0,0,0,0,0,0,0,1,0,0,0,0,0,0,0,0,0,0,0,0,0,0,0,0,0,0,0,0,0,0,0,0,0,0,0,0,0,0,0,0,0,0,0,0,0,0,0,0,0,0,0,0,0,0,0],"id":16,"left_children":[1,3,5,7,9,11,13,15,17,19,21,23,25,27,29,31,33,35,37,-1,39,41,43,45,47,49,51,53,55,57,59,-1,61,-1,63,65,67,69,71,-1,-1,-1,73,-1,-1,-1,75,77,79,81,83,85,87,89,91,-1,-1,-1,-1,93,95,-1,-1,-1,-1,-1,-1,-1,-1,-1,-1,-1,-1,-1,-1,-1,-1,-1,-1,-1,-1,-1,-1,-1,-1,-1,-1,-1,-1,-1,-1,-1,-1,-1,-1,-1,-1],"loss_changes":[1.4109272E0,1.3752303E0,1.1928132E0,1.2579868E0,2.3574266E0,1.4889628E0,1.7201732E0,3.619987E0,1.505046E0,9.456129E-1,9.0770257E-1,2.1504006E0,1.6573067E0,4.02974E0,8.02953E-1,1.8361478E0,4.671369E0,3.199704E0,4.641649E0,0E0,1.0202091E0,1.2043741E0,1.0123558E0,1.5134661E0,1.3445532E0,2.1003094E0,1.6857169E0,2.0757792E0,1.751039E-1,6.761084E-1,1.1039977E0,0E0,1.6515636E0,0E0,2.3044848E0,2.8222678E0,3.886088E0,3.120963E0,3.900496E0,0E0,0E0,0E0,1.9266206E0,0E0,0E0,0E0,8.38472E-1,2.0026534E0,2.0832732E0,2.9242115E0,1.4112902E0,2.2357895E0,2.0684657E0,2.0715976E0,1.8298836E0,0E0,0E0,0E0,0E0,2.908028E0,5.9536314E-1,0E0,0E0,0E0,0E0,0E0,0E0,0E0,0E0,0E0,0E0,0E0,0E0,0E0,0E0,0E0,0E0,0E0,0E0,0E0,0E0,0E0,0E0,0E0,0E0,0E0,0E0,0E0,0E0,0E0,0E0,0E0,0E0,0E0,0E0,0E0,0E0],"parents":[2147483647,0,0,1,1,2,2,3,3,4,4,5,5,6,6,7,7,8,8,9,9,10,10,11,11,12,12,13,13,14,14,15,15,16,16,17,17,18,18,20,20,21,21,22,22,23,23,24,24,25,25,26,26,27,27,28,28,29,29,30,30,32,32,34,34,35,35,36,36,37,37,38,38,42,42,46,46,47,47,48,48,49,49,50,50,51,51,52,52,53,53,54,54,59,59,60,60],"right_children":[2,4,6,8,10,12,14,16,18,20,22,24,26,28,30,32,34,36,38,-1,40,42,44,46,48,50,52,54,56,58,60,-1,62,-1,64,66,68,70,72,-1,-1,-1,74,-1,-1,-1,76,78,80,82,84,86,88,90,92,-1,-1,-1,-1,94,96,-1,-1,-1,-1,-1,-1,-1,-1,-1,-1,-1,-1,-1,-1,-1,-1,-1,-1,-1,-1,-1,-1,-1,-1,-1,-1,-1,-1,-1,-1,-1,-1,-1,-1,-1,-1],"split_conditions":[1E0,1E1,3E0,1.5E1,2E0,3E0,1.8E1,1E0,5E0,4E0,5E0,1E0,4E0,1.6E1,1E0,3E0,3E0,1E0,1.8E1,-2.8122723E-1,1.1E1,4E0,1E0,1E0,3E0,4E0,2E0,4E0,4E0,5E0,1E0,1.2730812E-1,3E0,-2.8277117E-1,1E0,3.1E1,5E0,3E0,2.8E1,1.307612E-1,-1.6986975E-1,1.03941076E-1,1E0,2.530722E-1,-5.607143E-2,-1.0644743E-1,2E0,2.2E1,8E0,3E0,2E1,2E0,5E0,2E0,3E0,-2.8756407E-1,-6.1484646E-2,1.02264956E-1,-1.3891456E-1,5E0,2E0,-2.2631882E-1,-7.734993E-2,-1.18675E-1,3.9513282E-2,1.6637997E-1,-1.4356723E-1,-7.3923625E-2,6.611323E-2,-1.3253328E-1,2.64713E-1,-1.8592596E-1,9.2567384E-2,9.466793E-2,-2.733643E-1,1.29748825E-2,2.9565385E-1,1.691189E-1,-1.4909147E-1,-2.099121E-1,7.7839443E-3,-6.5046814E-3,1.8822108E-1,-7.82386E-2,6.370222E-2,-8.1281066E-2,2.0045137E-1,3.5401493E-1,-2.4198506E-2,1.4741367E-1,-4.517638E-2,-1.9980524E-1,1.0265032E-1,-2.0369217E-1,2.4379165E-1,1.0153043E-1,2.6573682E-1],"split_indices":[10,9,1,2,1,6,2,3,5,4,7,8,4,2,8,5,5,6,2,0,9,5,6,0,9,6,0,4,4,9,6,0,6,0,6,2,7,9,2,0,0,0,3,0,0,0,6,2,9,4,2,8,5,0,6,0,0,0,0,7,8,0,0,0,0,0,0,0,0,0,0,0,0,0,0,0,0,0,0,0,0,0,0,0,0,0,0,0,0,0,0,0,0,0,0,0,0],"split_type":[0,0,0,0,0,0,0,0,0,0,0,0,0,0,0,0,0,0,0,0,0,0,0,0,0,0,0,0,0,0,0,0,0,0,0,0,0,0,0,0,0,0,0,0,0,0,0,0,0,0,0,0,0,0,0,0,0,0,0,0,0,0,0,0,0,0,0,0,0,0,0,0,0,0,0,0,0,0,0,0,0,0,0,0,0,0,0,0,0,0,0,0,0,0,0,0,0],"sum_hessian":[4.0567062E2,2.4986739E2,1.5580324E2,2.347785E2,1.5088885E1,1.0632079E2,4.9482452E1,1.0769365E2,1.27084854E2,6.9645853E0,8.124301E0,2.6849207E1,7.947159E1,3.271705E1,1.6765402E1,3.195866E1,7.5734985E1,9.927851E1,2.7806343E1,4.8683467E0,2.0962386E0,5.716585E0,2.4077153E0,4.8320804E0,2.2017126E1,6.5776985E1,1.3694596E1,2.9154108E1,3.5629423E0,2.2223954E0,1.4543006E1,1.7892692E0,3.0169392E1,3.9172702E0,7.181772E1,1.547988E1,8.379863E1,1.1462273E1,1.634407E1,1.003309E0,1.0929296E0,1.9587699E0,3.7578154E0,1.2856592E0,1.1220561E0,1.4178277E0,3.4142525E0,5.218935E0,1.6798191E1,3.0299843E1,3.5477146E1,8.866654E0,4.8279424E0,2.3237938E1,5.916169E0,2.4994068E0,1.0635355E0,1.0777766E0,1.1446187E0,3.268485E0,1.1274521E1,1.0979732E1,1.918966E1,8.534629E0,6.328309E1,1.3034281E1,2.4455998E0,5.9377472E1,2.442116E1,1.4912295E0,9.971044E0,7.262541E0,9.081529E0,1.4307154E0,2.3270998E0,1.5524633E0,1.8617893E0,2.9622746E0,2.2566605E0,1.09996195E1,5.7985716E0,2.0972559E1,9.327284E0,2.8256302E1,7.2208433E0,5.8066382E0,3.0600162E0,3.0985136E0,1.729429E0,1.6774355E1,6.463583E0,3.8259993E0,2.0901697E0,1.8647735E0,1.4037114E0,5.7596946E0,5.5148263E0],"tree_param":{"num_deleted":"0","num_feature":"11","num_nodes":"97","size_leaf_vector":"1"}},{"base_weights":[-1.2736582E-2,-2.1398634E-1,-8.429816E-3,-4.6609174E-2,5.3072084E-2,-3.092345E-2,-2.905089E-1,-6.687402E-2,1.2227444E-1,-2.711717E-1,-1.3177662E-2,-6.563003E-1,3.280674E-2,1.378701E-1,-1.902437E-1,5.4245234E-1,3.364037E-2,8.986796E-2,-5.9348494E-1,1.1283578E-1,-5.473731E-2,-2.6276037E-1,-2.7221503E-2,1.4388227E-1,-1.2817484E-1,-1.8411876E-1,4.1347662E-1,-4.9453685E-1,3.142648E-2,-1.3203408E-1,6.8473595E-1,-2.5330582E-1,8.791059E-2,1.1788033E-1,-9.3307905E-2,-2.6058635E-1,1.2103503E-1,1.0650829E-1,-6.179388E-2,-7.770218E-2,2.4364977E-3,4.99261E-2,-1.5925306E-1,-1.6039917E-1,9.9543184E-2,2.7928945E-1,-6.4666115E-2,-2.2672671E-1,-2.2846313E-2,-5.7839856E-2,1.5632008E-1,4.3575224E-1,1.1172255E-1,-2.802583E-3,-1.9983758E-1,4.640195E-3,1.319253E-1],"categories":[],"categories_nodes":[],"categories_segments":[],"categories_sizes":[],"default_left":[0,0,0,0,0,0,0,0,1,1,0,1,0,0,1,0,0,1,0,0,0,0,0,0,0,0,0,0,0,0,0,0,0,0,0,0,0,0,0,0,0,0,0,0,0,0,0,0,0,0,0,0,0,0,0,0,0],"id":17,"left_children":[1,-1,3,5,7,9,11,13,15,17,19,21,23,25,27,29,31,33,35,37,39,-1,-1,-1,41,43,45,47,49,-1,51,53,55,-1,-1,-1,-1,-1,-1,-1,-1,-1,-1,-1,-1,-1,-1,-1,-1,-1,-1,-1,-1,-1,-1,-1,-1],"loss_changes":[1.1934663E0,0E0,9.3265545E-1,9.2811793E-1,1.2714846E0,9.8239714E-1,1.7579143E0,1.4490588E0,3.5892603E0,1.89848E0,1.1395217E0,7.8184605E-1,6.905364E-1,2.0071042E0,2.4148185E0,2.6511488E0,1.2845647E0,1.1363858E0,2.684368E0,4.242542E0,2.100324E0,0E0,0E0,0E0,9.4463205E-1,2.117484E0,4.117348E0,1.5873411E0,2.4630277E0,0E0,3.073535E0,1.3181491E0,1.7495749E0,0E0,0E0,0E0,0E0,0E0,0E0,0E0,0E0,0E0,0E0,0E0,0E0,0E0,0E0,0E0,0E0,0E0,0E0,0E0,0E0,0E0,0E0,0E0,0E0],"parents":[2147483647,0,0,2,2,3,3,4,4,5,5,6,6,7,7,8,8,9,9,10,10,11,11,12,12,13,13,14,14,15,15,16,16,17,17,18,18,19,19,20,20,24,24,25,25,26,26,27,27,28,28,30,30,31,31,32,32],"right_children":[2,-1,4,6,8,10,12,14,16,18,20,22,24,26,28,30,32,34,36,38,40,-1,-1,-1,42,44,46,48,50,-1,52,54,56,-1,-1,-1,-1,-1,-1,-1,-1,-1,-1,-1,-1,-1,-1,-1,-1,-1,-1,-1,-1,-1,-1,-1,-1],"split_conditions":[2E0,-2.1398634E-1,1E0,1E1,4E0,2E0,2E0,1E0,3E0,1E1,3E0,4E0,1E0,3E0,1E1,8E0,2E0,3E0,2.9E1,4E0,3E0,-2.6276037E-1,-2.7221503E-2,1.4388227E-1,4E0,4E0,3E0,4E0,2E0,-1.3203408E-1,1.1E1,4E0,2.5E1,1.1788033E-1,-9.3307905E-2,-2.6058635E-1,1.2103503E-1,1.0650829E-1,-6.179388E-2,-7.770218E-2,2.4364977E-3,4.99261E-2,-1.5925306E-1,-1.6039917E-1,9.9543184E-2,2.7928945E-1,-6.4666115E-2,-2.2672671E-1,-2.2846313E-2,-5.7839856E-2,1.5632008E-1,4.3575224E-1,1.1172255E-1,-2.802583E-3,-1.9983758E-1,4.640195E-3,1.319253E-1],"split_indices":[4,0,10,9,5,9,1,3,4,2,4,4,6,4,2,2,6,4,2,7,9,0,0,0,7,9,9,7,8,0,2,4,2,0,0,0,0,0,0,0,0,0,0,0,0,0,0,0,0,0,0,0,0,0,0,0,0],"split_type":[0,0,0,0,0,0,0,0,0,0,0,0,0,0,0,0,0,0,0,0,0,0,0,0,0,0,0,0,0,0,0,0,0,0,0,0,0,0,0,0,0,0,0,0,0,0,0,0,0,0,0,0,0,0,0,0,0],"sum_hessian":[3.96559E2,1.4171733E0,3.9514185E2,2.4394623E2,1.511956E2,2.3026422E2,1.3682005E1,5.5329136E1,9.586647E1,1.4856137E1,2.1540808E2,5.936119E0,7.745886E0,2.0759373E1,3.456976E1,1.5807839E1,8.005863E1,7.3472657E0,7.508871E0,5.2997818E1,1.6241026E2,3.880808E0,2.0553112E0,1.5273869E0,6.218499E0,9.727161E0,1.1032212E1,1.4050824E1,2.0518936E1,1.73478E0,1.4073059E1,1.2149956E1,6.7908676E1,4.1954565E0,3.1518092E0,5.985648E0,1.523223E0,3.0053637E1,2.2944181E1,3.7483E1,1.2492726E2,3.9299946E0,2.2885046E0,5.7702723E0,3.956889E0,5.7894063E0,5.2428064E0,8.153671E0,5.897153E0,1.4489744E1,6.0291924E0,3.0138192E0,1.105924E1,8.279593E0,3.870362E0,5.717949E1,1.0729189E1],"tree_param":{"num_deleted":"0","num_feature":"11","num_nodes":"57","size_leaf_vector":"1"}},{"base_weights":[-1.1294424E-2,-4.1905098E-2,6.497795E-2,-1.6073479E-1,-3.8209895E-3,-2.474905E-2,3.007771E-1,4.329768E-2,-2.757298E-1,1.4011663E-1,-6.869549E-2,4.194779E-2,-5.729475E-1,-2.1119685E-1,3.7999073E-1,-2.3420472E-1,3.8625938E-1,4.7027686E-1,-3.431314E-1,-3.119777E-1,2.9893285E-1,-5.5953324E-1,-2.6174154E-2,1.5246373E-1,-2.5944027E-1,-8.291273E-1,1.9004347E-2,1.4430743E-1,6.3286835E-1,-6.273009E-1,3.6524695E-1,5.245087E-1,-5.8600407E-2,-4.4580214E-2,3.467645E-1,-5.2884936E-1,4.1968834E-2,-7.5122654E-1,1.2006112E-1,1.2883687E-1,1.117778E0,-8.017917E-1,2.471781E-1,2.1450816E-1,-1.3531914E-1,-1.8271485E-1,2.9133546E-1,-9.2152447E-1,6.740904E-2,-2.8201967E-1,-8.836788E-2,2.1064708E-1,-2.0508435E-1,-6.1627513E-1,4.2128533E-1,8.2619166E-1,-2.2836979E-1,-2.8956637E-1,9.832925E-3,2.3716356E-1,-7.640806E-2,2.0217057E-1,-9.153834E-3,-2.4172822E-1,-9.35244E-2,2.0218578E-1,-8.889278E-2,-2.90037E-1,1.4529983E-2,-1.2549831E-1,1.559079E-1,-1.0836888E-1,9.9811815E-2,3.616171E-1,8.003955E-2,-9.208879E-2,-3.301528E-1,2.0063984E-1,-1.10608384E-1,3.2080084E-2,2.3493893E-1,-2.1565445E-2,-1.740681E-1,